<?xml version="1.0"?>
<opencv_storage>
<my_svm type_id="opencv-ml-svm">
  <svm_type>C_SVC</svm_type>
  <kernel><type>RBF</type>
    <gamma>5.3830000000000000e+00</gamma></kernel>
  <C>2.6699999999999999e+00</C>
  <term_criteria><epsilon>1.1920928955078125e-07</epsilon>
    <iterations>1000</iterations></term_criteria>
  <var_all>12</var_all>
  <var_count>12</var_count>
  <class_count>6</class_count>
  <class_labels type_id="opencv-matrix">
    <rows>1</rows>
    <cols>6</cols>
    <dt>i</dt>
    <data>
      0 1 2 3 4 5</data></class_labels>
  <sv_total>276</sv_total>
  <support_vectors>
    <_>
      1.62201476e+00 1.34642351e+00 1.34642351e+00 1.63063145e+00
      7.84100890e-01 7.84100890e-01 1.47736239e+00 1.08068395e+00
      1.32221925e+00 1.40104461e+00 1.39932537e+00 1.20496655e+00</_>
    <_>
      1.52010334e+00 1.05697167e+00 1.05697167e+00 1.50194561e+00
      7.84100890e-01 7.78151274e-01 1.43016899e+00 1.11522448e+00
      1.17705417e+00 1.34287083e+00 1.36539114e+00 1.04139268e+00</_>
    <_>
      1.45690691e+00 9.95613039e-01 9.95613039e-01 1.44991028e+00
      6.02060020e-01 6.98970020e-01 1.43016899e+00 1.00216067e+00
      1.04317987e+00 1.34948504e+00 1.34642351e+00 1.20412004e+00</_>
    <_>
      1.60966122e+00 1.31214106e+00 1.31214106e+00 1.64176369e+00
      4.77121264e-01 4.77121264e-01 1.54317987e+00 1. 1.28114641e+00
      1.50851667e+00 1.54688585e+00 1.50536191e+00</_>
    <_>
      1.55697167e+00 1.16922820e+00 1.16922820e+00 1.55035758e+00
      6.98970020e-01 7.78151274e-01 1.42192769e+00 1.04139268e+00
      1.28114641e+00 1.36336362e+00 1.38171399e+00 1.23119903e+00</_>
    <_>
      1.54389071e+00 1.08659315e+00 1.08659315e+00 1.51990533e+00
      7.07486689e-01 7.78151274e-01 1.45690691e+00 1.08513081e+00
      1.17991769e+00 1.38021123e+00 1.36539114e+00 1.08513081e+00</_>
    <_>
      1.56692910e+00 1.20748663e+00 1.20748663e+00 1.52940273e+00
      7.07486689e-01 7.78151274e-01 1.43636942e+00 9.54242527e-01
      1.28410089e+00 1.39932537e+00 1.38171399e+00 1.30157220e+00</_>
    <_>
      1.58644736e+00 1.22123992e+00 1.22123992e+00 1.56836033e+00
      6.98970020e-01 7.78151274e-01 1.45181620e+00 1. 1.32995808e+00
      1.38943720e+00 1.43255198e+00 1.32271111e+00</_>
    <_>
      1.52634692e+00 1.11394334e+00 1.11394334e+00 1.53316295e+00
      6.02060020e-01 6.02060020e-01 1.42161644e+00 1. 1.30157220e+00
      1.38058794e+00 1.39932537e+00 1.27935433e+00</_>
    <_>
      1.48307085e+00 1.02653921e+00 1.02653921e+00 1.48307085e+00
      6.98970020e-01 6.98970020e-01 1.39087772e+00 9.56906915e-01
      1.08513081e+00 1.32418001e+00 1.38171399e+00 1.25527251e+00</_>
    <_>
      1.62521005e+00 1.34287083e+00 1.34287083e+00 1.63765574e+00
      7.07486689e-01 7.84100890e-01 1.51448882e+00 1. 1.27935433e+00
      1.47928190e+00 1.48307085e+00 1.43136382e+00</_>
    <_>
      1.65534663e+00 1.38762307e+00 1.38762307e+00 1.66316795e+00
      8.49484980e-01 8.49484980e-01 1.52010334e+00 1.07918119e+00
      1.36336362e+00 1.46649039e+00 1.46649039e+00 1.38058794e+00</_>
    <_>
      1.54389071e+00 1.15903163e+00 1.15903163e+00 1.51529992e+00
      6.98970020e-01 7.78151274e-01 1.43868566e+00 1.07918119e+00
      1.20748663e+00 1.36539114e+00 1.36539114e+00 1.17705417e+00</_>
    <_>
      1.49671817e+00 1.05697167e+00 1.05697167e+00 1.49561298e+00
      6.98970020e-01 6.98970020e-01 1.37602425e+00 9.54242527e-01
      1.08513081e+00 1.34242272e+00 1.39932537e+00 1.23119903e+00</_>
    <_>
      1.64445984e+00 1.33043277e+00 1.33043277e+00 1.65587687e+00
      6.02060020e-01 6.15224481e-01 1.46850801e+00 1.00216067e+00
      1.36539114e+00 1.46265602e+00 1.47736239e+00 1.34242272e+00</_>
    <_>
      1.67081618e+00 1.42161644e+00 1.42161644e+00 1.68133545e+00
      9.56906915e-01 1. 1.50788939e+00 1.08513081e+00 1.41497338e+00
      1.43255198e+00 1.43868566e+00 1.32221925e+00</_>
    <_>
      1.66090274e+00 1.37486815e+00 1.37486815e+00 1.66090274e+00
      9.56906915e-01 1.00216067e+00 1.53995228e+00 1.17705417e+00
      1.36539114e+00 1.45154500e+00 1.47928190e+00 1.20496655e+00</_>
    <_>
      1.66316795e+00 1.39266491e+00 1.39266491e+00 1.63615286e+00
      9.06456649e-01 8.45098019e-01 1.51871324e+00 1.11522448e+00
      1.36213791e+00 1.45690691e+00 1.33925915e+00 1.17705417e+00</_>
    <_>
      1.66316795e+00 1.36779940e+00 1.36779940e+00 1.63615286e+00
      8.49484980e-01 8.49484980e-01 1.51590610e+00 1.14723313e+00
      1.38058794e+00 1.41010070e+00 1.35800171e+00 1.17609131e+00</_>
    <_>
      1.53759098e+00 1.11522448e+00 1.11522448e+00 1.52010334e+00
      6.98970020e-01 6.98970020e-01 1.43461585e+00 1.14612806e+00
      1.23343384e+00 1.34420991e+00 1.38058794e+00 1.07918119e+00</_>
    <_>
      1.42161644e+00 9.64709461e-01 9.64709461e-01 1.44991028e+00
      6.02060020e-01 4.77121264e-01 1.41400754e+00 9.54242527e-01 1.
      1.36539114e+00 1.34420991e+00 1.20412004e+00</_>
    <_>
      1.47025824e+00 1. 1. 1.46342838e+00 6.15224481e-01 6.98970020e-01
      1.39087772e+00 9.54242527e-01 1.11902308e+00 1.34420991e+00
      1.36539114e+00 1.25594163e+00</_>
    <_>
      1.65148997e+00 1.38357794e+00 1.38357794e+00 1.66316795e+00
      1.00851667e+00 9.56906915e-01 1.52634692e+00 1.17705417e+00
      1.38171399e+00 1.42285895e+00 1.46649039e+00 1.28114641e+00</_>
    <_>
      1.53759098e+00 1.11522448e+00 1.11522448e+00 1.52653921e+00
      7.78151274e-01 7.78151274e-01 1.44743478e+00 1.14723313e+00
      1.20748663e+00 1.34420991e+00 1.36336362e+00 1.04139268e+00</_>
    <_>
      1.64756358e+00 1.38171399e+00 1.38171399e+00 1.64986253e+00
      7.78151274e-01 6.02060020e-01 1.45717156e+00 1.14612806e+00
      1.34948504e+00 1.39794004e+00 1.41625440e+00 1.14723313e+00</_>
    <_>
      1.44296312e+00 9.64709461e-01 9.64709461e-01 1.44991028e+00
      6.02060020e-01 6.02060020e-01 1.42192769e+00 9.56906915e-01
      1.04317987e+00 1.34948504e+00 1.34642351e+00 1.23044896e+00</_>
    <_>
      1.62521005e+00 1.31824398e+00 1.31824398e+00 1.62337232e+00
      8.49484980e-01 8.49484980e-01 1.52653921e+00 1.04139268e+00
      1.34642351e+00 1.49226367e+00 1.43255198e+00 1.08513081e+00</_>
    <_>
      1.57675505e+00 1.19896996e+00 1.19896996e+00 1.56371439e+00
      8.45098019e-01 7.84100890e-01 1.45717156e+00 1. 1.30586171e+00
      1.40342903e+00 1.41529429e+00 1.32271111e+00</_>
    <_>
      1.42866623e+00 9.64709461e-01 9.64709461e-01 1.44296312e+00
      6.15224481e-01 6.98970020e-01 1.44380867e+00 1.00216067e+00
      1.04139268e+00 1.36819828e+00 1.32995808e+00 1.23044896e+00</_>
    <_>
      1.61927390e+00 1.30103004e+00 1.30103004e+00 1.61700547e+00
      9.06456649e-01 9.06456649e-01 1.49671817e+00 9.06456649e-01
      1.30157220e+00 1.43461585e+00 1.44963658e+00 1.41497338e+00</_>
    <_>
      1.57337403e+00 1.20748663e+00 1.20748663e+00 1.56371439e+00
      6.98970020e-01 6.98970020e-01 1.45690691e+00 9.54242527e-01
      1.30319071e+00 1.41784525e+00 1.41784525e+00 1.32271111e+00</_>
    <_>
      1.61070716e+00 1.30103004e+00 1.30103004e+00 1.62337232e+00
      9.06456649e-01 8.49484980e-01 1.47736239e+00 1.00216067e+00
      1.27935433e+00 1.40645671e+00 1.45690691e+00 1.27935433e+00</_>
    <_>
      1.53759098e+00 1.05697167e+00 1.05697167e+00 1.51448882e+00
      6.98970020e-01 6.02060020e-01 1.43636942e+00 1.08068395e+00
      1.17991769e+00 1.38058794e+00 1.38171399e+00 1.04317987e+00</_>
    <_>
      1.65903163e+00 1.38357794e+00 1.38357794e+00 1.66490221e+00
      9.56906915e-01 9.54242527e-01 1.50788939e+00 1.00216067e+00
      1.39794004e+00 1.45154500e+00 1.42005301e+00 1.38021123e+00</_>
    <_>
      1.65788019e+00 1.37292755e+00 1.37292755e+00 1.63914812e+00
      8.45098019e-01 7.78151274e-01 1.50851667e+00 1.08068395e+00
      1.36336362e+00 1.43607819e+00 1.40645671e+00 1.14612806e+00</_>
    <_>
      1.54389071e+00 1.11522448e+00 1.11522448e+00 1.52653921e+00
      7.07486689e-01 7.78151274e-01 1.43016899e+00 1.04317987e+00
      1.23343384e+00 1.34642351e+00 1.38357794e+00 1.23044896e+00</_>
    <_>
      1.65903163e+00 1.36659861e+00 1.36659861e+00 1.67091501e+00
      9.06456649e-01 9.06456649e-01 1.54688585e+00 1.20412004e+00
      1.38058794e+00 1.46649039e+00 1.46649039e+00 1.25527251e+00</_>
    <_>
      1.52010334e+00 1.08659315e+00 1.08659315e+00 1.52557623e+00
      6.02060020e-01 6.02060020e-01 1.43607819e+00 1.07918119e+00
      1.20748663e+00 1.38058794e+00 1.38171399e+00 1.08068395e+00</_>
    <_>
      1.53995228e+00 1.15903163e+00 1.15903163e+00 1.53316295e+00
      7.07486689e-01 7.78151274e-01 1.39897978e+00 1. 1.25793695e+00
      1.34420991e+00 1.38171399e+00 1.23119903e+00</_>
    <_>
      1.54845500e+00 1.10742188e+00 1.10742188e+00 1.51448882e+00
      6.98970020e-01 7.07486689e-01 1.45072913e+00 1.08513081e+00
      1.15051496e+00 1.38058794e+00 1.39828718e+00 1.04317987e+00</_>
    <_>
      1.64255357e+00 1.35800171e+00 1.35800171e+00 1.63063145e+00
      7.84100890e-01 7.78151274e-01 1.49671817e+00 1.04139268e+00
      1.32418001e+00 1.43868566e+00 1.40104461e+00 1.36213791e+00</_>
    <_>
      1.62883925e+00 1.34287083e+00 1.34287083e+00 1.63146269e+00
      8.45098019e-01 7.84100890e-01 1.45181620e+00 1.07918119e+00
      1.32660627e+00 1.38357794e+00 1.41625440e+00 1.23710811e+00</_>
    <_>
      1.63914812e+00 1.34287083e+00 1.34287083e+00 1.64445984e+00
      6.02060020e-01 6.02060020e-01 1.48377395e+00 1.04139268e+00
      1.36539114e+00 1.44743478e+00 1.46342838e+00 1.27935433e+00</_>
    <_>
      1.61927390e+00 1.28817070e+00 1.28817070e+00 1.62337232e+00
      9.06456649e-01 9.06456649e-01 1.47025824e+00 9.54242527e-01
      1.28114641e+00 1.42285895e+00 1.44183075e+00 1.27935433e+00</_>
    <_>
      1.43636942e+00 9.64709461e-01 9.64709461e-01 1.42866623e+00
      6.02060020e-01 6.02060020e-01 1.43607819e+00 1.00216067e+00 1.
      1.36539114e+00 1.34420991e+00 1.20412004e+00</_>
    <_>
      1.67944312e+00 1.42192769e+00 1.42192769e+00 1.66490221e+00
      8.49484980e-01 9.06456649e-01 1.50194561e+00 1.04139268e+00
      1.43255198e+00 1.45154500e+00 1.42005301e+00 1.36213791e+00</_>
    <_>
      1.46850801e+00 1.09794986e+00 1.09794986e+00 1.57507110e+00
      8.45098019e-01 8.45098019e-01 1.32756925e+00 1.11522448e+00
      1.17705417e+00 1.18460798e+00 1.40104461e+00 1.</_>
    <_>
      1.64445984e+00 1.35164571e+00 1.35164571e+00 1.63949108e+00
      9.06456649e-01 9.06456649e-01 1.46239805e+00 1.11522448e+00
      1.34287083e+00 1.32612312e+00 1.37175488e+00 1.25793695e+00</_>
    <_>
      1.57213140e+00 1.10475755e+00 1.10475755e+00 1.48400784e+00
      8.45098019e-01 8.49484980e-01 1.53110290e+00 1.11522448e+00
      1.14612806e+00 1.42866623e+00 1.14723313e+00 1.17991769e+00</_>
    <_>
      1.62521005e+00 1.32418001e+00 1.32418001e+00 1.61989987e+00
      9.56906915e-01 9.64709461e-01 1.49293768e+00 1.14612806e+00
      1.25793695e+00 1.36939025e+00 1.35164571e+00 1.14723313e+00</_>
    <_>
      1.58527756e+00 1.12883925e+00 1.12883925e+00 1.50536191e+00
      8.45098019e-01 9.06456649e-01 1.50366044e+00 1.17609131e+00
      1.14723313e+00 1.39337575e+00 1.20496655e+00 1.11394334e+00</_>
    <_>
      1.62775683e+00 1.31824398e+00 1.31824398e+00 1.62979698e+00
      9.54242527e-01 9.56906915e-01 1.51265287e+00 1.00216067e+00
      1.32271111e+00 1.41400754e+00 1.44296312e+00 1.38058794e+00</_>
    <_>
      1.57993388e+00 1.22123992e+00 1.22123992e+00 1.61329997e+00
      9.06456649e-01 9.54242527e-01 1.46547449e+00 1.11394334e+00
      1.32221925e+00 1.37175488e+00 1.40645671e+00 1.17705417e+00</_>
    <_>
      1.57993388e+00 1.23564589e+00 1.23564589e+00 1.61329997e+00
      9.03090000e-01 9.56906915e-01 1.45370567e+00 1.11394334e+00
      1.32271111e+00 1.35335886e+00 1.42285895e+00 1.20496655e+00</_>
    <_>
      1.55445158e+00 1.10742188e+00 1.10742188e+00 1.52010334e+00
      8.49484980e-01 8.45098019e-01 1.46239805e+00 1.17609131e+00
      1.17609131e+00 1.31974328e+00 1.32995808e+00 1.08068395e+00</_>
    <_>
      1.65534663e+00 1.36779940e+00 1.36779940e+00 1.63914812e+00
      9.06456649e-01 9.03090000e-01 1.51224279e+00 1.14723313e+00
      1.38058794e+00 1.37602425e+00 1.33325899e+00 1.17705417e+00</_>
    <_>
      1.45181620e+00 1.06676948e+00 1.06676948e+00 1.55913234e+00
      8.45098019e-01 8.45098019e-01 1.33043277e+00 1.11522448e+00
      1.11902308e+00 1.16316795e+00 1.40342903e+00 1.04317987e+00</_>
    <_>
      1.65321255e+00 1.40206969e+00 1.40206969e+00 1.65788019e+00
      9.16254461e-01 9.56906915e-01 1.49338591e+00 1.20412004e+00
      1.36213791e+00 1.34509802e+00 1.36939025e+00 1.25527251e+00</_>
    <_>
      1.57629704e+00 1.12883925e+00 1.12883925e+00 1.46850801e+00
      8.45098019e-01 7.84100890e-01 1.52168119e+00 1.20412004e+00
      1.17991769e+00 1.38652730e+00 1.26122212e+00 1.08068395e+00</_>
    <_>
      1.58068395e+00 1.12883925e+00 1.12883925e+00 1.45154500e+00
      7.78151274e-01 7.07486689e-01 1.49693847e+00 1.04317987e+00
      1.14723313e+00 1.40309000e+00 1.15587687e+00 1.23119903e+00</_>
    <_>
      1.66652203e+00 1.37486815e+00 1.37486815e+00 1.66090274e+00
      9.56906915e-01 9.56906915e-01 1.52246583e+00 1.20412004e+00
      1.40104461e+00 1.37602425e+00 1.38652730e+00 1.39828718e+00</_>
    <_>
      1.57993388e+00 1.22123992e+00 1.22123992e+00 1.62201476e+00
      9.06456649e-01 9.56906915e-01 1.47469497e+00 1.11394334e+00
      1.32271111e+00 1.37602425e+00 1.44183075e+00 1.20496655e+00</_>
    <_>
      1.63358581e+00 1.35841882e+00 1.35841882e+00 1.64390087e+00
      8.49484980e-01 9.06456649e-01 1.48307085e+00 1.14612806e+00
      1.36336362e+00 1.36336362e+00 1.34509802e+00 1.17609131e+00</_>
    <_>
      1.58068395e+00 1.12883925e+00 1.12883925e+00 1.46239805e+00
      8.45098019e-01 8.49484980e-01 1.53110290e+00 1.14612806e+00
      1.17609131e+00 1.40645671e+00 1.17991769e+00 1.17991769e+00</_>
    <_>
      1.65534663e+00 1.38357794e+00 1.38357794e+00 1.63615286e+00
      9.06456649e-01 8.45098019e-01 1.50280476e+00 1.11394334e+00
      1.36213791e+00 1.38320637e+00 1.34948504e+00 1.23044896e+00</_>
    <_>
      1.65587687e+00 1.35800171e+00 1.35800171e+00 1.64445984e+00
      9.56906915e-01 9.56906915e-01 1.48586977e+00 1.11522448e+00
      1.30157220e+00 1.41010070e+00 1.38943720e+00 1.23044896e+00</_>
    <_>
      1.62775683e+00 1.31824398e+00 1.31824398e+00 1.63765574e+00
      9.54242527e-01 9.64709461e-01 1.50280476e+00 1. 1.30157220e+00
      1.41400754e+00 1.44296312e+00 1.34287083e+00</_>
    <_>
      1.52557623e+00 1.15267563e+00 1.15267563e+00 1.54389071e+00
      9.06456649e-01 9.03090000e-01 1.43461585e+00 1.20496655e+00
      1.15587687e+00 1.25594163e+00 1.36539114e+00 1.04317987e+00</_>
    <_>
      1.50451291e+00 1.10475755e+00 1.10475755e+00 1.55035758e+00
      5.00000000e-01 6.02060020e-01 1.43868566e+00 1.14723313e+00
      1.29329360e+00 1.26381493e+00 1.38616085e+00 1.08513081e+00</_>
    <_>
      1.65321255e+00 1.34152353e+00 1.34152353e+00 1.66490221e+00
      1.00216067e+00 1.00216067e+00 1.46006167e+00 1.17705417e+00
      1.34242272e+00 1.36213791e+00 1.32660627e+00 1.11394334e+00</_>
    <_>
      1.63765574e+00 1.34287083e+00 1.34287083e+00 1.63063145e+00
      9.06456649e-01 9.06456649e-01 1.45637667e+00 1.07918119e+00
      1.28114641e+00 1.37175488e+00 1.38943720e+00 1.23119903e+00</_>
    <_>
      1.50851667e+00 1.08659315e+00 1.08659315e+00 1.52010334e+00
      7.84100890e-01 7.78151274e-01 1.40845191e+00 1.17609131e+00
      1.17991769e+00 1.22435319e+00 1.35800171e+00 1.08068395e+00</_>
    <_>
      1.65903163e+00 1.40645671e+00 1.40645671e+00 1.67395759e+00
      9.56906915e-01 1.00216067e+00 1.54984033e+00 1.23119903e+00
      1.39932537e+00 1.38320637e+00 1.40309000e+00 1.38058794e+00</_>
    <_>
      1.66652203e+00 1.36779940e+00 1.36779940e+00 1.67219615e+00
      1.00216067e+00 1.00216067e+00 1.45181620e+00 1.14723313e+00
      1.36172783e+00 1.36213791e+00 1.36539114e+00 1.11394334e+00</_>
    <_>
      1.48977423e+00 1.05697167e+00 1.05697167e+00 1.51387858e+00
      7.84100890e-01 7.78151274e-01 1.45370567e+00 1.17609131e+00
      1.15051496e+00 1.28585446e+00 1.35164571e+00 1.14612806e+00</_>
    <_>
      1.65148997e+00 1.39266491e+00 1.39266491e+00 1.66852987e+00
      9.64709461e-01 9.06456649e-01 1.48307085e+00 1.17705417e+00
      1.38058794e+00 1.32612312e+00 1.35164571e+00 1.25527251e+00</_>
    <_>
      1.48977423e+00 1.05697167e+00 1.05697167e+00 1.50194561e+00
      8.45098019e-01 8.45098019e-01 1.44183075e+00 1.14612806e+00
      1.11522448e+00 1.28585446e+00 1.33325899e+00 1.17705417e+00</_>
    <_>
      1.50451291e+00 1.10475755e+00 1.10475755e+00 1.56371439e+00
      7.84100890e-01 8.45098019e-01 1.40745664e+00 1.15587687e+00
      1.19896996e+00 1.25257504e+00 1.38171399e+00 1.08513081e+00</_>
    <_>
      1.52653921e+00 1.12883925e+00 1.12883925e+00 1.55035758e+00
      6.98970020e-01 6.98970020e-01 1.43868566e+00 1.20496655e+00
      1.22435319e+00 1.24214995e+00 1.38171399e+00 1.04845500e+00</_>
    <_>
      1.57009685e+00 1.10475755e+00 1.10475755e+00 1.50788939e+00
      8.45098019e-01 7.78151274e-01 1.49338591e+00 1.14612806e+00
      1.17705417e+00 1.35883522e+00 1.28410089e+00 1.17705417e+00</_>
    <_>
      1.67609131e+00 1.40845191e+00 1.40845191e+00 1.66090274e+00
      8.45098019e-01 7.84100890e-01 1.46342838e+00 1.14612806e+00
      1.41784525e+00 1.35335886e+00 1.36819828e+00 1.17609131e+00</_>
    <_>
      1.53704238e+00 1.10742188e+00 1.10742188e+00 1.54845500e+00
      8.45098019e-01 8.45098019e-01 1.45370567e+00 1.23044896e+00
      1.18460798e+00 1.27141273e+00 1.36539114e+00 1.04317987e+00</_>
    <_>
      1.57993388e+00 1.12883925e+00 1.12883925e+00 1.50387394e+00
      8.49484980e-01 7.78151274e-01 1.50366044e+00 1.14723313e+00
      1.14723313e+00 1.38096392e+00 1.26122212e+00 1.11522448e+00</_>
    <_>
      1.59600484e+00 1.24286067e+00 1.24286067e+00 1.59600484e+00
      9.06456649e-01 9.06456649e-01 1.47322619e+00 1.14612806e+00
      1.20496655e+00 1.35800171e+00 1.34509802e+00 1.11394334e+00</_>
    <_>
      1.65321255e+00 1.37486815e+00 1.37486815e+00 1.65321255e+00
      1.00216067e+00 9.54242527e-01 1.53977156e+00 1.20748663e+00
      1.36213791e+00 1.37602425e+00 1.41910958e+00 1.38058794e+00</_>
    <_>
      1.53147888e+00 1.11522448e+00 1.11522448e+00 1.54845500e+00
      8.45098019e-01 8.45098019e-01 1.44408977e+00 1.20412004e+00
      1.15051496e+00 1.25594163e+00 1.37175488e+00 1.11522448e+00</_>
    <_>
      1.55913234e+00 1.10742188e+00 1.10742188e+00 1.51387858e+00
      9.06456649e-01 8.45098019e-01 1.49338591e+00 1.14723313e+00
      1.14612806e+00 1.36336362e+00 1.33925915e+00 1.17609131e+00</_>
    <_>
      1.65587687e+00 1.33043277e+00 1.33043277e+00 1.63615286e+00
      9.56906915e-01 1.00216067e+00 1.48586977e+00 1.07918119e+00
      1.30157220e+00 1.39794004e+00 1.41433001e+00 1.27935433e+00</_>
    <_>
      1.48977423e+00 1.05697167e+00 1.05697167e+00 1.50194561e+00
      7.78151274e-01 7.84100890e-01 1.44183075e+00 1.17609131e+00
      1.15051496e+00 1.27815127e+00 1.33925915e+00 1.14612806e+00</_>
    <_>
      1.58291876e+00 1.17219615e+00 1.17219615e+00 1.44069231e+00
      8.49484980e-01 7.84100890e-01 1.52246583e+00 1.15051496e+00
      1.20496655e+00 1.42161644e+00 1.17991769e+00 1.08513081e+00</_>
    <_>
      1.57918119e+00 1.12883925e+00 1.12883925e+00 1.44069231e+00
      8.45098019e-01 7.84100890e-01 1.53222895e+00 1.17705417e+00
      1.17991769e+00 1.40645671e+00 1.20748663e+00 1.11902308e+00</_>
    <_>
      1.65534663e+00 1.35800171e+00 1.35800171e+00 1.64986253e+00
      8.49484980e-01 9.06456649e-01 1.46547449e+00 1.14723313e+00
      1.39932537e+00 1.34948504e+00 1.38616085e+00 1.14723313e+00</_>
    <_>
      1.66852987e+00 1.40745664e+00 1.40745664e+00 1.64445984e+00
      9.06456649e-01 9.06456649e-01 1.51265287e+00 1.11522448e+00
      1.38058794e+00 1.39266491e+00 1.34948504e+00 1.20412004e+00</_>
    <_>
      1.64745343e+00 1.36779940e+00 1.36779940e+00 1.65788019e+00
      9.06456649e-01 9.54242527e-01 1.49293768e+00 1.17609131e+00
      1.36336362e+00 1.36336362e+00 1.36939025e+00 1.25594163e+00</_>
    <_>
      1.47248793e+00 1.11522448e+00 1.11522448e+00 1.57507110e+00
      8.45098019e-01 8.45098019e-01 1.34642351e+00 1.14723313e+00
      1.15051496e+00 1.16316795e+00 1.42005301e+00 1.04317987e+00</_>
    <_>
      1.68133545e+00 1.38762307e+00 1.38762307e+00 1.67609131e+00
      9.06456649e-01 9.06456649e-01 1.49472487e+00 1.14723313e+00
      1.43402815e+00 1.37602425e+00 1.38943720e+00 1.23119903e+00</_>
    <_>
      1.48977423e+00 1.05697167e+00 1.05697167e+00 1.51387858e+00
      8.45098019e-01 8.45098019e-01 1.41910958e+00 1.17609131e+00
      1.14723313e+00 1.24846482e+00 1.33925915e+00 1.11394334e+00</_>
    <_>
      1.62521005e+00 1.35800171e+00 1.35800171e+00 1.64176369e+00
      9.03090000e-01 9.06456649e-01 1.47322619e+00 1.14723313e+00
      1.32221925e+00 1.33925915e+00 1.36819828e+00 1.23119903e+00</_>
    <_>
      1.66090274e+00 1.37755609e+00 1.37755609e+00 1.65756512e+00
      1.04317987e+00 1.00851667e+00 1.45637667e+00 1.17991769e+00
      1.34242272e+00 1.32418001e+00 1.36539114e+00 1.14723313e+00</_>
    <_>
      1.58068395e+00 1.24286067e+00 1.24286067e+00 1.63063145e+00
      4.77121264e-01 6.15224481e-01 1.44183075e+00 1.08068395e+00
      1.32271111e+00 1.32271111e+00 1.43016899e+00 1.41784525e+00</_>
    <_>
      1.56436110e+00 1.19896996e+00 1.19896996e+00 1.60542667e+00
      4.77121264e-01 6.02060020e-01 1.50788939e+00 1.08068395e+00
      1.28114641e+00 1.35800171e+00 1.39794004e+00 1.43166149e+00</_>
    <_>
      1.64445984e+00 1.29497480e+00 1.29497480e+00 1.60165250e+00
      7.84100890e-01 8.49484980e-01 1.51387858e+00 1.11394334e+00
      1.32271111e+00 1.41910958e+00 1.34107256e+00 1.23119903e+00</_>
    <_>
      1.66581488e+00 1.37486815e+00 1.37486815e+00 1.62823856e+00
      8.49484980e-01 7.78151274e-01 1.55035758e+00 1.08068395e+00
      1.32271111e+00 1.47469497e+00 1.32612312e+00 1.20412004e+00</_>
    <_>
      1.59006298e+00 1.21487617e+00 1.21487617e+00 1.61471295e+00
      4.77121264e-01 3.01030010e-01 1.46239805e+00 1.15051496e+00
      1.30157220e+00 1.37602425e+00 1.42005301e+00 1.25594163e+00</_>
    <_>
      1.59049284e+00 1.25052965e+00 1.25052965e+00 1.58920062e+00
      6.98970020e-01 7.07486689e-01 1.46850801e+00 1.00216067e+00
      1.32271111e+00 1.38096392e+00 1.37602425e+00 1.34287083e+00</_>
    <_>
      1.61637104e+00 1.28817070e+00 1.28817070e+00 1.60205996e+00
      6.98970020e-01 6.15224481e-01 1.45181620e+00 9.54242527e-01
      1.34242272e+00 1.39337575e+00 1.37175488e+00 1.36213791e+00</_>
    <_>
      1.49158752e+00 1. 1. 1.50194561e+00 7.78151274e-01 7.78151274e-01
      1.44069231e+00 1.11522448e+00 1.00851667e+00 1.33925915e+00
      1.36819828e+00 1.20412004e+00</_>
    <_>
      1.48307085e+00 1.02653921e+00 1.02653921e+00 1.47832429e+00
      7.07486689e-01 7.07486689e-01 1.33512294e+00 1.04317987e+00
      1.04317987e+00 1.23119903e+00 1.28817070e+00 9.06456649e-01</_>
    <_>
      1.58644736e+00 1.25594163e+00 1.25594163e+00 1.58920062e+00
      6.15224481e-01 6.15224481e-01 1.45637667e+00 9.06456649e-01
      1.32221925e+00 1.40878272e+00 1.34509802e+00 1.34242272e+00</_>
    <_>
      1.45717156e+00 9.95613039e-01 9.95613039e-01 1.50216067e+00
      7.07486689e-01 6.98970020e-01 1.35164571e+00 9.54242527e-01
      9.56906915e-01 1.28410089e+00 1.36819828e+00 1.20496655e+00</_>
    <_>
      1.58920062e+00 1.14277864e+00 1.14277864e+00 1.59049284e+00
      8.49484980e-01 8.49484980e-01 1.50536191e+00 1.08068395e+00
      1.30586171e+00 1.43461585e+00 1.39794004e+00 1.34242272e+00</_>
    <_>
      1.43016899e+00 1.02653921e+00 1.02653921e+00 1.48977423e+00
      7.84100890e-01 7.78151274e-01 1.21487617e+00 1.00216067e+00
      9.64709461e-01 1.14612806e+00 1.34642351e+00 1.00216067e+00</_>
    <_>
      1.60542667e+00 1.28817070e+00 1.28817070e+00 1.62201476e+00
      6.98970020e-01 6.02060020e-01 1.47273433e+00 1.11522448e+00
      1.32271111e+00 1.36939025e+00 1.40645671e+00 1.36539114e+00</_>
    <_>
      1.64634955e+00 1.30639195e+00 1.30639195e+00 1.58513081e+00
      6.02060020e-01 6.02060020e-01 1.54264534e+00 1.08068395e+00
      1.25793695e+00 1.48094773e+00 1.31419444e+00 1.20412004e+00</_>
    <_>
      1.50935030e+00 1. 1. 1.49671817e+00 7.78151274e-01 8.45098019e-01
      1.44069231e+00 1.07918119e+00 1.04845500e+00 1.32612312e+00
      1.39337575e+00 1.23119903e+00</_>
    <_>
      1.46342838e+00 9.95613039e-01 9.95613039e-01 1.49561298e+00
      6.98970020e-01 6.98970020e-01 1.31368291e+00 1.04139268e+00
      1.00851667e+00 1.25594163e+00 1.32418001e+00 7.78151274e-01</_>
    <_>
      1.61329997e+00 1.26953804e+00 1.26953804e+00 1.61070716e+00
      9.06456649e-01 9.56906915e-01 1.50280476e+00 1.00216067e+00
      1.25594163e+00 1.39897978e+00 1.42866623e+00 1.36213791e+00</_>
    <_>
      1.64445984e+00 1.29497480e+00 1.29497480e+00 1.59600484e+00
      7.84100890e-01 6.98970020e-01 1.52634692e+00 1.07918119e+00
      1.32221925e+00 1.44963658e+00 1.31419444e+00 1.17705417e+00</_>
    <_>
      1.38394880e+00 9.95613039e-01 9.95613039e-01 1.52010334e+00
      7.07486689e-01 7.78151274e-01 1.19896996e+00 1. 1.04317987e+00
      1.11522448e+00 1.38171399e+00 9.56906915e-01</_>
    <_>
      1.45690691e+00 1. 1. 1.46342838e+00 7.07486689e-01 6.98970020e-01
      1.34287083e+00 1. 1.04845500e+00 1.24214995e+00 1.29329360e+00
      1.08068395e+00</_>
    <_>
      1.64255357e+00 1.30372751e+00 1.30372751e+00 1.61989987e+00
      9.06456649e-01 9.54242527e-01 1.50194561e+00 1.08068395e+00
      1.30103004e+00 1.43402815e+00 1.34509802e+00 1.30319071e+00</_>
    <_>
      1.49671817e+00 1.02653921e+00 1.02653921e+00 1.52010334e+00
      7.78151274e-01 8.45098019e-01 1.42926860e+00 1.08068395e+00
      1.04845500e+00 1.32612312e+00 1.37175488e+00 1.23119903e+00</_>
    <_>
      1.61083746e+00 1.28817070e+00 1.28817070e+00 1.59558570e+00
      7.07486689e-01 7.07486689e-01 1.46850801e+00 9.54242527e-01
      1.32271111e+00 1.40309000e+00 1.36336362e+00 1.27935433e+00</_>
    <_>
      1.47025824e+00 9.95613039e-01 9.95613039e-01 1.44296312e+00
      6.02060020e-01 6.02060020e-01 1.39266491e+00 1.00216067e+00
      1.07918119e+00 1.30586171e+00 1.26573944e+00 1.14723313e+00</_>
    <_>
      1.48307085e+00 9.95613039e-01 9.95613039e-01 1.42866623e+00
      6.02060020e-01 6.02060020e-01 1.41173708e+00 1.04317987e+00
      1.04317987e+00 1.30954671e+00 1.24846482e+00 1.04845500e+00</_>
    <_>
      1.59006298e+00 1.28351319e+00 1.28351319e+00 1.62201476e+00
      6.02060020e-01 6.15224481e-01 1.47273433e+00 1.07918119e+00
      1.32271111e+00 1.35883522e+00 1.42623997e+00 1.38357794e+00</_>
    <_>
      1.64756358e+00 1.28817070e+00 1.28817070e+00 1.57507110e+00
      9.06456649e-01 9.03090000e-01 1.52940273e+00 1.04139268e+00
      1.23119903e+00 1.46419787e+00 1.34509802e+00 1.39794004e+00</_>
    <_>
      1.62201476e+00 1.26953804e+00 1.26953804e+00 1.61070716e+00
      9.54242527e-01 9.64709461e-01 1.51265287e+00 9.56906915e-01
      1.25527251e+00 1.42192769e+00 1.42866623e+00 1.36213791e+00</_>
    <_>
      1.64756358e+00 1.27572501e+00 1.27572501e+00 1.58644736e+00
      7.07486689e-01 7.78151274e-01 1.54193044e+00 1.11394334e+00
      1.32221925e+00 1.45424247e+00 1.31419444e+00 1.20496655e+00</_>
    <_>
      1.59333694e+00 1.18367791e+00 1.18367791e+00 1.58513081e+00
      8.01029980e-01 7.78151274e-01 1.48863316e+00 1.07918119e+00
      1.30586171e+00 1.41010070e+00 1.40878272e+00 1.39932537e+00</_>
    <_>
      1.64445984e+00 1.27388740e+00 1.27388740e+00 1.61637104e+00
      8.49484980e-01 9.03090000e-01 1.55445158e+00 1.12521005e+00
      1.32271111e+00 1.45397425e+00 1.40309000e+00 1.30157220e+00</_>
    <_>
      1.47736239e+00 9.95613039e-01 9.95613039e-01 1.45690691e+00
      7.78151274e-01 7.78151274e-01 1.36213791e+00 1.08068395e+00
      1.00216067e+00 1.25594163e+00 1.23710811e+00 9.64709461e-01</_>
    <_>
      1.58291876e+00 1.23564589e+00 1.23564589e+00 1.62337232e+00
      8.49484980e-01 9.06456649e-01 1.42986929e+00 1.08513081e+00
      1.30103004e+00 1.33325899e+00 1.44183075e+00 1.38357794e+00</_>
    <_>
      1.48307085e+00 9.28666234e-01 9.28666234e-01 1.51448882e+00
      7.07486689e-01 6.98970020e-01 1.39266491e+00 9.54242527e-01
      1.00216067e+00 1.32995808e+00 1.36819828e+00 1.20496655e+00</_>
    <_>
      1.61083746e+00 1.27388740e+00 1.27388740e+00 1.60542667e+00
      8.45098019e-01 8.45098019e-01 1.49671817e+00 1.08513081e+00
      1.28114641e+00 1.40342903e+00 1.33925915e+00 1.23343384e+00</_>
    <_>
      1.45690691e+00 1. 1. 1.46342838e+00 6.02060020e-01 6.98970020e-01
      1.34642351e+00 1.04139268e+00 1.04845500e+00 1.25793695e+00
      1.30319071e+00 1.04317987e+00</_>
    <_>
      1.60475755e+00 1.28817070e+00 1.28817070e+00 1.60542667e+00
      7.84100890e-01 7.78151274e-01 1.46547449e+00 1.11394334e+00
      1.28114641e+00 1.37175488e+00 1.43868566e+00 1.27935433e+00</_>
    <_>
      1.59049284e+00 1.21487617e+00 1.21487617e+00 1.61471295e+00
      7.07486689e-01 7.84100890e-01 1.47469497e+00 1.17705417e+00
      1.25594163e+00 1.34948504e+00 1.44183075e+00 1.41497338e+00</_>
    <_>
      1.50216067e+00 9.64709461e-01 9.64709461e-01 1.51448882e+00
      6.98970020e-01 7.78151274e-01 1.41173708e+00 1. 1.04317987e+00
      1.33419299e+00 1.38357794e+00 1.27935433e+00</_>
    <_>
      1.49158752e+00 9.34615850e-01 9.34615850e-01 1.50788939e+00
      6.98970020e-01 6.98970020e-01 1.41784525e+00 1. 1.04845500e+00
      1.31419444e+00 1.37602425e+00 1.27935433e+00</_>
    <_>
      1.68865311e+00 1.37486815e+00 1.37486815e+00 1.62859917e+00
      1.04317987e+00 1.04317987e+00 1.59333694e+00 1.20748663e+00
      1.36172783e+00 1.47832429e+00 1.31974328e+00 1.32221925e+00</_>
    <_>
      1.58527756e+00 1.23564589e+00 1.23564589e+00 1.59600484e+00
      6.15224481e-01 6.02060020e-01 1.57072484e+00 1.14723313e+00
      1.28410089e+00 1.40578747e+00 1.38394880e+00 1.44743478e+00</_>
    <_>
      1.49671817e+00 1.03409290e+00 1.03409290e+00 1.50194561e+00
      7.84100890e-01 7.78151274e-01 1.44183075e+00 1.11394334e+00
      1.04317987e+00 1.33419299e+00 1.36539114e+00 1.17705417e+00</_>
    <_>
      1.61927390e+00 1.28817070e+00 1.28817070e+00 1.61700547e+00
      9.56906915e-01 9.56906915e-01 1.51224279e+00 1.00216067e+00
      1.25527251e+00 1.40745664e+00 1.45717156e+00 1.43136382e+00</_>
    <_>
      1.50387394e+00 1.12763619e+00 1.12763619e+00 1.48470795e+00
      6.98970020e-01 6.98970020e-01 1.45154500e+00 1.04139268e+00
      1.20496655e+00 1.34107256e+00 1.30639195e+00 1.30103004e+00</_>
    <_>
      1.63063145e+00 1.32418001e+00 1.32418001e+00 1.61700547e+00
      9.06456649e-01 8.49484980e-01 1.48400784e+00 1.07918119e+00
      1.36336362e+00 1.38652730e+00 1.36336362e+00 1.23119903e+00</_>
    <_>
      1.63765574e+00 1.34642351e+00 1.34642351e+00 1.59836435e+00
      8.49484980e-01 7.84100890e-01 1.50536191e+00 1.08068395e+00
      1.32271111e+00 1.43461585e+00 1.32612312e+00 1.43136382e+00</_>
    <_>
      1.62386394e+00 1.30639195e+00 1.30639195e+00 1.58644736e+00
      6.98970020e-01 7.07486689e-01 1.51387858e+00 1.11522448e+00
      1.34287083e+00 1.43461585e+00 1.33419299e+00 1.41497338e+00</_>
    <_>
      1.44380867e+00 1.06676948e+00 1.06676948e+00 1.44991028e+00
      8.45098019e-01 8.49484980e-01 1.40645671e+00 1.11522448e+00
      1.04317987e+00 1.23269141e+00 1.27815127e+00 1.11394334e+00</_>
    <_>
      1.43016899e+00 1.01265287e+00 1.01265287e+00 1.44296312e+00
      7.84100890e-01 7.78151274e-01 1.36819828e+00 1.07918119e+00
      1.04139268e+00 1.24214995e+00 1.27815127e+00 1.08068395e+00</_>
    <_>
      1.50851667e+00 1.12763619e+00 1.12763619e+00 1.48470795e+00
      7.84100890e-01 8.45098019e-01 1.45208716e+00 1.14612806e+00
      1.17705417e+00 1.30639195e+00 1.31419444e+00 1.14612806e+00</_>
    <_>
      1.68497884e+00 1.42192769e+00 1.42192769e+00 1.63949108e+00
      1.00216067e+00 1. 1.52634692e+00 1.14723313e+00 1.41529429e+00
      1.42623997e+00 1.35164571e+00 1.32271111e+00</_>
    <_>
      1.50851667e+00 1.12763619e+00 1.12763619e+00 1.49671817e+00
      7.78151274e-01 7.78151274e-01 1.48400784e+00 1.14612806e+00
      1.20496655e+00 1.34107256e+00 1.30639195e+00 1.20412004e+00</_>
    <_>
      1.61083746e+00 1.33512294e+00 1.33512294e+00 1.61083746e+00
      9.03090000e-01 9.06456649e-01 1.49338591e+00 1.08068395e+00
      1.30157220e+00 1.39087772e+00 1.47025824e+00 1.46342838e+00</_>
    <_>
      1.65267563e+00 1.35548151e+00 1.35548151e+00 1.66316795e+00
      9.56906915e-01 9.56906915e-01 1.52634692e+00 1.11522448e+00
      1.32660627e+00 1.43016899e+00 1.47469497e+00 1.34287083e+00</_>
    <_>
      1.46342838e+00 1.08659315e+00 1.08659315e+00 1.44380867e+00
      7.07486689e-01 6.98970020e-01 1.44069231e+00 1.04317987e+00
      1.11902308e+00 1.31419444e+00 1.31974328e+00 1.20496655e+00</_>
    <_>
      1.49561298e+00 1.11522448e+00 1.11522448e+00 1.47712123e+00
      8.45098019e-01 8.49484980e-01 1.44069231e+00 1.14723313e+00
      1.15051496e+00 1.27815127e+00 1.30319071e+00 1.20748663e+00</_>
    <_>
      1.68358469e+00 1.42866623e+00 1.42866623e+00 1.67395759e+00
      1.00216067e+00 1.00216067e+00 1.57993388e+00 1.17609131e+00
      1.38357794e+00 1.43461585e+00 1.46006167e+00 1.49226367e+00</_>
    <_>
      1.51387858e+00 1.12763619e+00 1.12763619e+00 1.48977423e+00
      8.45098019e-01 8.45098019e-01 1.45208716e+00 1.14612806e+00
      1.14723313e+00 1.30639195e+00 1.31419444e+00 1.14723313e+00</_>
    <_>
      1.61329997e+00 1.27572501e+00 1.27572501e+00 1.61070716e+00
      9.56906915e-01 9.56906915e-01 1.51265287e+00 1. 1.25594163e+00
      1.41625440e+00 1.45181620e+00 1.44715798e+00</_>
    <_>
      1.64986253e+00 1.40206969e+00 1.40206969e+00 1.65788019e+00
      9.56906915e-01 9.56906915e-01 1.50536191e+00 1.14723313e+00
      1.38357794e+00 1.39337575e+00 1.43016899e+00 1.27935433e+00</_>
    <_>
      1.52010334e+00 1.14277864e+00 1.14277864e+00 1.48470795e+00
      7.78151274e-01 7.78151274e-01 1.48400784e+00 1.14723313e+00
      1.20748663e+00 1.32271111e+00 1.31974328e+00 1.20496655e+00</_>
    <_>
      1.65534663e+00 1.36659861e+00 1.36659861e+00 1.62775683e+00
      9.03090000e-01 9.06456649e-01 1.55155957e+00 1.07918119e+00
      1.39828718e+00 1.47322619e+00 1.34948504e+00 1.39932537e+00</_>
    <_>
      1.67609131e+00 1.38357794e+00 1.38357794e+00 1.65267563e+00
      9.56906915e-01 9.56906915e-01 1.51387858e+00 1.11522448e+00
      1.36213791e+00 1.40309000e+00 1.33325899e+00 1.20496655e+00</_>
    <_>
      1.61329997e+00 1.28817070e+00 1.28817070e+00 1.63358581e+00
      9.54242527e-01 1.00851667e+00 1.54049349e+00 1.00216067e+00
      1.25594163e+00 1.43461585e+00 1.48470795e+00 1.49158752e+00</_>
    <_>
      1.48470795e+00 1.11394334e+00 1.11394334e+00 1.48307085e+00
      7.78151274e-01 6.98970020e-01 1.44069231e+00 1.11522448e+00
      1.17705417e+00 1.29939520e+00 1.31974328e+00 1.11394334e+00</_>
    <_>
      1.52010334e+00 1.15587687e+00 1.15587687e+00 1.51529992e+00
      8.45098019e-01 7.78151274e-01 1.46342838e+00 1.14612806e+00
      1.17991769e+00 1.31419444e+00 1.31974328e+00 1.17705417e+00</_>
    <_>
      1.59558570e+00 1.26381493e+00 1.26381493e+00 1.63063145e+00
      9.56906915e-01 1. 1.50788939e+00 1.11394334e+00 1.30319071e+00
      1.42623997e+00 1.44548976e+00 1.25527251e+00</_>
    <_>
      1.64445984e+00 1.38762307e+00 1.38762307e+00 1.65267563e+00
      9.56906915e-01 9.03090000e-01 1.48307085e+00 1.11522448e+00
      1.38357794e+00 1.35164571e+00 1.40878272e+00 1.34287083e+00</_>
    <_>
      1.67395759e+00 1.39266491e+00 1.39266491e+00 1.65534663e+00
      1.00216067e+00 1.04317987e+00 1.52246583e+00 1.08068395e+00
      1.41625440e+00 1.41497338e+00 1.42161644e+00 1.38021123e+00</_>
    <_>
      1.66316795e+00 1.35164571e+00 1.35164571e+00 1.62883925e+00
      9.06456649e-01 9.03090000e-01 1.48586977e+00 1.11522448e+00
      1.34242272e+00 1.37602425e+00 1.33325899e+00 1.20412004e+00</_>
    <_>
      1.62201476e+00 1.34642351e+00 1.34642351e+00 1.64176369e+00
      9.03090000e-01 9.56906915e-01 1.47712123e+00 1.07918119e+00
      1.32418001e+00 1.39337575e+00 1.43868566e+00 1.30319071e+00</_>
    <_>
      1.50387394e+00 1.14390087e+00 1.14390087e+00 1.47736239e+00
      8.49484980e-01 7.78151274e-01 1.46239805e+00 1.08068395e+00
      1.20496655e+00 1.32271111e+00 1.32271111e+00 1.23044896e+00</_>
    <_>
      1.67091501e+00 1.42866623e+00 1.42866623e+00 1.64745343e+00
      1.00216067e+00 1. 1.52246583e+00 1.07918119e+00 1.38171399e+00
      1.43016899e+00 1.39266491e+00 1.41529429e+00</_>
    <_>
      1.49671817e+00 1.09794986e+00 1.09794986e+00 1.45181620e+00
      7.07486689e-01 6.98970020e-01 1.44183075e+00 1.08068395e+00
      1.20496655e+00 1.31974328e+00 1.27141273e+00 1.20412004e+00</_>
    <_>
      1.63914812e+00 1.34152353e+00 1.34152353e+00 1.62533200e+00
      9.06456649e-01 9.16254461e-01 1.48307085e+00 1.14612806e+00
      1.36336362e+00 1.36336362e+00 1.35800171e+00 1.14723313e+00</_>
    <_>
      1.65534663e+00 1.37486815e+00 1.37486815e+00 1.63146269e+00
      1.08068395e+00 1.04317987e+00 1.56110799e+00 1.14723313e+00
      1.32271111e+00 1.41173708e+00 1.43868566e+00 1.47736239e+00</_>
    <_>
      1.59836435e+00 1.25594163e+00 1.25594163e+00 1.59558570e+00
      9.56906915e-01 1.00216067e+00 1.50280476e+00 1. 1.23044896e+00
      1.40745664e+00 1.45181620e+00 1.44715798e+00</_>
    <_>
      1.43016899e+00 1.01265287e+00 1.01265287e+00 1.44296312e+00
      7.84100890e-01 7.78151274e-01 1.36819828e+00 1.07918119e+00
      1.07918119e+00 1.22435319e+00 1.27815127e+00 1.11394334e+00</_>
    <_>
      1.60205996e+00 1.24286067e+00 1.24286067e+00 1.59836435e+00
      1.00216067e+00 1.04317987e+00 1.47469497e+00 1.07918119e+00
      1.30319071e+00 1.38096392e+00 1.43461585e+00 1.30157220e+00</_>
    <_>
      1.41910958e+00 1.12763619e+00 1.12763619e+00 1.52010334e+00
      8.45098019e-01 7.78151274e-01 1.23119903e+00 9.56906915e-01
      1.11522448e+00 1.10205996e+00 1.38616085e+00 1.11522448e+00</_>
    <_>
      1.46470952e+00 1.09794986e+00 1.09794986e+00 1.44991028e+00
      7.78151274e-01 8.45098019e-01 1.41784525e+00 1.11522448e+00
      1.14723313e+00 1.25594163e+00 1.25594163e+00 1.11394334e+00</_>
    <_>
      1.50851667e+00 1.09794986e+00 1.09794986e+00 1.47736239e+00
      7.78151274e-01 7.78151274e-01 1.45154500e+00 1.08068395e+00
      1.20496655e+00 1.31419444e+00 1.34509802e+00 1.32221925e+00</_>
    <_>
      1.48047304e+00 1.09794986e+00 1.09794986e+00 1.48977423e+00
      7.78151274e-01 7.78151274e-01 1.42986929e+00 1.11394334e+00
      1.20412004e+00 1.28585446e+00 1.31419444e+00 1.23119903e+00</_>
    <_>
      1.48977423e+00 1.13358581e+00 1.13358581e+00 1.46850801e+00
      8.45098019e-01 8.49484980e-01 1.41784525e+00 1.11394334e+00
      1.11902308e+00 1.27815127e+00 1.28817070e+00 1.23119903e+00</_>
    <_>
      1.48470795e+00 1.08217645e+00 1.08217645e+00 1.45717156e+00
      6.98970020e-01 6.98970020e-01 1.43166149e+00 1.04317987e+00
      1.17609131e+00 1.31974328e+00 1.29329360e+00 1.23044896e+00</_>
    <_>
      1.48470795e+00 1.09794986e+00 1.09794986e+00 1.45717156e+00
      6.02060020e-01 6.98970020e-01 1.40845191e+00 1.08068395e+00
      1.20496655e+00 1.28817070e+00 1.28410089e+00 1.14612806e+00</_>
    <_>
      1.62775683e+00 1.37755609e+00 1.37755609e+00 1.65267563e+00
      9.03090000e-01 8.49484980e-01 1.48307085e+00 9.56906915e-01
      1.36336362e+00 1.41400754e+00 1.46342838e+00 1.44715798e+00</_>
    <_>
      1.60742188e+00 1.35841882e+00 1.35841882e+00 1.63914812e+00
      9.03090000e-01 9.06456649e-01 1.49338591e+00 1.04317987e+00
      1.32271111e+00 1.39897978e+00 1.46470952e+00 1.46265602e+00</_>
    <_>
      1.44380867e+00 1.03409290e+00 1.03409290e+00 1.45717156e+00
      7.78151274e-01 6.98970020e-01 1.40578747e+00 1.14723313e+00
      1.04139268e+00 1.24214995e+00 1.32995808e+00 1.08068395e+00</_>
    <_>
      1.49226367e+00 1.12763619e+00 1.12763619e+00 1.46470952e+00
      8.45098019e-01 7.78151274e-01 1.41910958e+00 1.11394334e+00
      1.17705417e+00 1.26445830e+00 1.27815127e+00 1.20412004e+00</_>
    <_>
      1.40845191e+00 1.12763619e+00 1.12763619e+00 1.52557623e+00
      8.49484980e-01 8.45098019e-01 1.25052965e+00 1.00216067e+00
      1.08513081e+00 1.10205996e+00 1.40645671e+00 1.14723313e+00</_>
    <_>
      1.41173708e+00 1.04845500e+00 1.04845500e+00 1.49561298e+00
      9.06456649e-01 8.45098019e-01 1.30103004e+00 1.04317987e+00
      1.08068395e+00 1.14390087e+00 1.38943720e+00 1.23119903e+00</_>
    <_>
      1.50194561e+00 1.12763619e+00 1.12763619e+00 1.49671817e+00
      8.49484980e-01 8.45098019e-01 1.47469497e+00 1.20496655e+00
      1.17705417e+00 1.32612312e+00 1.31419444e+00 1.14612806e+00</_>
    <_>
      1.48977423e+00 1.08217645e+00 1.08217645e+00 1.47736239e+00
      7.78151274e-01 6.98970020e-01 1.45208716e+00 1.11394334e+00
      1.20496655e+00 1.31419444e+00 1.31419444e+00 1.17705417e+00</_>
    <_>
      1.62883925e+00 1.38762307e+00 1.38762307e+00 1.64756358e+00
      1.00216067e+00 1.00216067e+00 1.48047304e+00 1.04317987e+00
      1.28817070e+00 1.42623997e+00 1.43607819e+00 1.32271111e+00</_>
    <_>
      1.42532313e+00 1.08217645e+00 1.08217645e+00 1.50851667e+00
      8.45098019e-01 7.78151274e-01 1.33043277e+00 1.07918119e+00
      1.11522448e+00 1.14390087e+00 1.36819828e+00 1.20496655e+00</_>
    <_>
      1.45181620e+00 1.03409290e+00 1.03409290e+00 1.44991028e+00
      7.84100890e-01 7.78151274e-01 1.39373028e+00 1.07918119e+00
      1.07918119e+00 1.27141273e+00 1.27815127e+00 1.11394334e+00</_>
    <_>
      1.65267563e+00 1.38762307e+00 1.38762307e+00 1.65267563e+00
      9.06456649e-01 9.03090000e-01 1.50366044e+00 1.17705417e+00
      1.36819828e+00 1.41010070e+00 1.40645671e+00 1.23044896e+00</_>
    <_>
      1.42532313e+00 1.09794986e+00 1.09794986e+00 1.50851667e+00
      7.84100890e-01 7.78151274e-01 1.28351319e+00 1.00216067e+00
      1.11902308e+00 1.14390087e+00 1.38943720e+00 1.20496655e+00</_>
    <_>
      1.50387394e+00 1.14390087e+00 1.14390087e+00 1.48977423e+00
      7.84100890e-01 7.84100890e-01 1.46239805e+00 1.08068395e+00
      1.20496655e+00 1.32271111e+00 1.33325899e+00 1.25594163e+00</_>
    <_>
      1.49472487e+00 1.14390087e+00 1.14390087e+00 1.52010334e+00
      8.49484980e-01 8.49484980e-01 1.35548151e+00 1.14723313e+00
      1.23119903e+00 1.15587687e+00 1.29939520e+00 1.07918119e+00</_>
    <_>
      1.61700547e+00 1.25594163e+00 1.25594163e+00 1.64546227e+00
      1.08068395e+00 1.08068395e+00 1.49472487e+00 1.11394334e+00
      1.32418001e+00 1.39794004e+00 1.44548976e+00 1.41529429e+00</_>
    <_>
      1.50788939e+00 1.16922820e+00 1.16922820e+00 1.48470795e+00
      7.78151274e-01 7.78151274e-01 1.44069231e+00 1.11394334e+00
      1.25527251e+00 1.31974328e+00 1.31974328e+00 1.27875364e+00</_>
    <_>
      1.50280476e+00 1.18460798e+00 1.18460798e+00 1.56820178e+00
      8.01029980e-01 7.84100890e-01 1.44183075e+00 1.17991769e+00
      1.26122212e+00 1.23269141e+00 1.36213791e+00 1.41784525e+00</_>
    <_>
      1.47736239e+00 1.11522448e+00 1.11522448e+00 1.44743478e+00
      8.49484980e-01 7.78151274e-01 1.40745664e+00 1.11394334e+00
      1.17991769e+00 1.19896996e+00 1.20832026e+00 1.23119903e+00</_>
    <_>
      1.67395759e+00 1.42192769e+00 1.42192769e+00 1.64546227e+00
      9.56906915e-01 1.00216067e+00 1.49293768e+00 1.07918119e+00
      1.39932537e+00 1.38320637e+00 1.32271111e+00 1.27875364e+00</_>
    <_>
      1.63146269e+00 1.34152353e+00 1.34152353e+00 1.64390087e+00
      1.04317987e+00 1.04317987e+00 1.50536191e+00 1.00216067e+00
      1.30319071e+00 1.38394880e+00 1.46006167e+00 1.51871324e+00</_>
    <_>
      1.62337232e+00 1.28817070e+00 1.28817070e+00 1.65903163e+00
      1.00216067e+00 1.04317987e+00 1.50280476e+00 1.17609131e+00
      1.36213791e+00 1.36939025e+00 1.43461585e+00 1.30103004e+00</_>
    <_>
      1.50366044e+00 1.16316795e+00 1.16316795e+00 1.51990533e+00
      8.49484980e-01 8.49484980e-01 1.45370567e+00 1.11522448e+00
      1.27935433e+00 1.28410089e+00 1.36213791e+00 1.39932537e+00</_>
    <_>
      1.52246583e+00 1.18274403e+00 1.18274403e+00 1.51529992e+00
      9.06456649e-01 9.03090000e-01 1.40845191e+00 1.17609131e+00
      1.25594163e+00 1.22435319e+00 1.25594163e+00 1.04317987e+00</_>
    <_>
      1.67395759e+00 1.43607819e+00 1.43607819e+00 1.66367948e+00
      1.04139268e+00 1.04317987e+00 1.57751608e+00 1.11522448e+00
      1.41784525e+00 1.44408977e+00 1.43461585e+00 1.55647004e+00</_>
    <_>
      1.50536191e+00 1.15587687e+00 1.15587687e+00 1.48470795e+00
      7.84100890e-01 8.45098019e-01 1.42926860e+00 1.07918119e+00
      1.27875364e+00 1.30639195e+00 1.30639195e+00 1.30103004e+00</_>
    <_>
      1.45208716e+00 1.13358581e+00 1.13358581e+00 1.49671817e+00
      6.02060020e-01 6.98970020e-01 1.38096392e+00 1.07918119e+00
      1.27935433e+00 1.24846482e+00 1.29939520e+00 1.25594163e+00</_>
    <_>
      1.62775683e+00 1.28351319e+00 1.28351319e+00 1.64390087e+00
      1.00216067e+00 1.04317987e+00 1.51387858e+00 9.56906915e-01
      1.34242272e+00 1.48563790e+00 1.49338591e+00 1.41625440e+00</_>
    <_>
      1.50788939e+00 1.14277864e+00 1.14277864e+00 1.47736239e+00
      8.49484980e-01 7.78151274e-01 1.36819828e+00 1.04317987e+00
      1.20496655e+00 1.22435319e+00 1.27388740e+00 1.20496655e+00</_>
    <_>
      1.70420480e+00 1.44380867e+00 1.44380867e+00 1.69055760e+00
      1.08068395e+00 1.08068395e+00 1.54880214e+00 1. 1.43255198e+00
      1.46006167e+00 1.45370567e+00 1.67219615e+00</_>
    <_>
      1.67219615e+00 1.41173708e+00 1.41173708e+00 1.69055760e+00
      9.56906915e-01 1.00216067e+00 1.50788939e+00 1.23044896e+00
      1.43255198e+00 1.41625440e+00 1.44743478e+00 1.30157220e+00</_>
    <_>
      1.63063145e+00 1.39266491e+00 1.39266491e+00 1.63765574e+00
      9.54242527e-01 9.56906915e-01 1.46547449e+00 1.07918119e+00
      1.34420991e+00 1.32418001e+00 1.39932537e+00 1.44826317e+00</_>
    <_>
      1.49226367e+00 1.12763619e+00 1.12763619e+00 1.52226985e+00
      8.45098019e-01 7.78151274e-01 1.41625440e+00 1.11522448e+00
      1.23119903e+00 1.24286067e+00 1.33325899e+00 1.27875364e+00</_>
    <_>
      1.44183075e+00 1.12521005e+00 1.12521005e+00 1.48977423e+00
      7.07486689e-01 7.07486689e-01 1.36819828e+00 1.04139268e+00
      1.23044896e+00 1.23269141e+00 1.28585446e+00 1.27935433e+00</_>
    <_>
      1.69378388e+00 1.45181620e+00 1.45181620e+00 1.68133545e+00
      1.04139268e+00 1.04317987e+00 1.62883925e+00 1.17609131e+00
      1.38357794e+00 1.48307085e+00 1.48586977e+00 1.70765364e+00</_>
    <_>
      1.67395759e+00 1.41625440e+00 1.41625440e+00 1.63949108e+00
      1.00216067e+00 1.00216067e+00 1.50280476e+00 1.11394334e+00
      1.39828718e+00 1.38320637e+00 1.34948504e+00 1.25527251e+00</_>
    <_>
      1.50536191e+00 1.17219615e+00 1.17219615e+00 1.53147888e+00
      9.06456649e-01 9.03090000e-01 1.45637667e+00 1.11394334e+00
      1.25527251e+00 1.29497480e+00 1.35164571e+00 1.36213791e+00</_>
    <_>
      1.42986929e+00 1.09234571e+00 1.09234571e+00 1.47025824e+00
      7.07486689e-01 7.07486689e-01 1.35463500e+00 1.04139268e+00
      1.23119903e+00 1.22435319e+00 1.30639195e+00 1.23119903e+00</_>
    <_>
      1.53316295e+00 1.16922820e+00 1.16922820e+00 1.51871324e+00
      9.06456649e-01 8.45098019e-01 1.47736239e+00 1.14612806e+00
      1.28114641e+00 1.28351319e+00 1.29497480e+00 1.32221925e+00</_>
    <_>
      1.44408977e+00 1.08217645e+00 1.08217645e+00 1.44991028e+00
      6.15224481e-01 6.15224481e-01 1.34107256e+00 1.08068395e+00
      1.23119903e+00 1.16316795e+00 1.23269141e+00 1.11394334e+00</_>
    <_>
      1.48586977e+00 1.11394334e+00 1.11394334e+00 1.49671817e+00
      7.07486689e-01 6.98970020e-01 1.36819828e+00 1. 1.25527251e+00
      1.24214995e+00 1.28585446e+00 1.27935433e+00</_>
    <_>
      1.64390087e+00 1.38357794e+00 1.38357794e+00 1.62533200e+00
      1.04845500e+00 1.00216067e+00 1.47469497e+00 1.14723313e+00
      1.36172783e+00 1.35335886e+00 1.35800171e+00 1.27875364e+00</_>
    <_>
      1.64986253e+00 1.38762307e+00 1.38762307e+00 1.63626885e+00
      9.56906915e-01 9.64709461e-01 1.50536191e+00 1.11522448e+00
      1.38171399e+00 1.38357794e+00 1.33185041e+00 1.44743478e+00</_>
    <_>
      1.50788939e+00 1.15587687e+00 1.15587687e+00 1.47736239e+00
      7.78151274e-01 7.78151274e-01 1.42926860e+00 1.07918119e+00
      1.25594163e+00 1.30639195e+00 1.30639195e+00 1.30103004e+00</_>
    <_>
      1.63914812e+00 1.39266491e+00 1.39266491e+00 1.65148997e+00
      9.56906915e-01 1.00216067e+00 1.48863316e+00 1.07918119e+00
      1.34948504e+00 1.34642351e+00 1.41400754e+00 1.46342838e+00</_>
    <_>
      1.44408977e+00 1.08217645e+00 1.08217645e+00 1.43607819e+00
      7.07486689e-01 6.98970020e-01 1.31419444e+00 9.56906915e-01
      1.20496655e+00 1.19100857e+00 1.24214995e+00 1.11522448e+00</_>
    <_>
      1.61927390e+00 1.31824398e+00 1.31824398e+00 1.62337232e+00
      1.04317987e+00 1.04845500e+00 1.51265287e+00 9.56906915e-01
      1.27875364e+00 1.41173708e+00 1.46006167e+00 1.49136174e+00</_>
    <_>
      1.66367948e+00 1.37486815e+00 1.37486815e+00 1.63949108e+00
      1.08068395e+00 1.08068395e+00 1.51871324e+00 1.24214995e+00
      1.34287083e+00 1.36336362e+00 1.38616085e+00 1.17609131e+00</_>
    <_>
      1.68865311e+00 1.43016899e+00 1.43016899e+00 1.65534663e+00
      9.56906915e-01 9.56906915e-01 1.51265287e+00 1.14612806e+00
      1.39932537e+00 1.38320637e+00 1.34948504e+00 1.30103004e+00</_>
    <_>
      1.51590610e+00 1.15587687e+00 1.15587687e+00 1.49671817e+00
      7.84100890e-01 8.45098019e-01 1.41784525e+00 1.07918119e+00
      1.27935433e+00 1.28585446e+00 1.30639195e+00 1.27875364e+00</_>
    <_>
      1.58659315e+00 1.27572501e+00 1.27572501e+00 1.61637104e+00
      7.84100890e-01 8.45098019e-01 1.44183075e+00 1.11522448e+00
      1.32221925e+00 1.35335886e+00 1.39794004e+00 1.36213791e+00</_>
    <_>
      1.65105724e+00 1.34642351e+00 1.34642351e+00 1.61637104e+00
      7.84100890e-01 7.84100890e-01 1.50366044e+00 1.04317987e+00
      1.34420991e+00 1.39932537e+00 1.37602425e+00 1.14723313e+00</_>
    <_>
      1.59502566e+00 1.20748663e+00 1.20748663e+00 1.57507110e+00
      8.49484980e-01 7.78151274e-01 1.49338591e+00 1.14723313e+00
      1.25793695e+00 1.36336362e+00 1.37602425e+00 1.25527251e+00</_>
    <_>
      1.62883925e+00 1.35164571e+00 1.35164571e+00 1.62521005e+00
      6.98970020e-01 7.84100890e-01 1.47322619e+00 1.11522448e+00
      1.32660627e+00 1.35883522e+00 1.37602425e+00 1.27875364e+00</_>
    <_>
      1.65788019e+00 1.39087772e+00 1.39087772e+00 1.65534663e+00
      9.06456649e-01 9.54242527e-01 1.47248793e+00 1.17991769e+00
      1.36336362e+00 1.36213791e+00 1.32660627e+00 1.04317987e+00</_>
    <_>
      1.55360496e+00 1.08068395e+00 1.08068395e+00 1.54845500e+00
      7.84100890e-01 8.45098019e-01 1.50000000e+00 1.20496655e+00
      1.17609131e+00 1.39932537e+00 1.38171399e+00 9.56906915e-01</_>
    <_>
      1.56962466e+00 1.15903163e+00 1.15903163e+00 1.53759098e+00
      8.45098019e-01 8.49484980e-01 1.42161644e+00 1.14723313e+00
      1.14723313e+00 1.30319071e+00 1.34642351e+00 1.07918119e+00</_>
    <_>
      1.61522448e+00 1.31368291e+00 1.31368291e+00 1.62201476e+00
      8.62137914e-01 9.06456649e-01 1.47712123e+00 1.08068395e+00
      1.34287083e+00 1.37602425e+00 1.43954790e+00 1.46239805e+00</_>
    <_>
      1.62386394e+00 1.30639195e+00 1.30639195e+00 1.61989987e+00
      4.77121264e-01 6.98970020e-01 1.48470795e+00 1.04139268e+00
      1.32660627e+00 1.42285895e+00 1.39337575e+00 1.38021123e+00</_>
    <_>
      1.62201476e+00 1.33185041e+00 1.33185041e+00 1.62883925e+00
      7.84100890e-01 7.78151274e-01 1.47273433e+00 1.11394334e+00
      1.30319071e+00 1.35164571e+00 1.35883522e+00 1.23119903e+00</_>
    <_>
      1.60475755e+00 1.10475755e+00 1.10475755e+00 1.57507110e+00
      9.03090000e-01 9.06456649e-01 1.53222895e+00 1.20496655e+00
      1.14612806e+00 1.41010070e+00 1.40645671e+00 1.20412004e+00</_>
    <_>
      1.61637104e+00 1.33512294e+00 1.33512294e+00 1.61070716e+00
      8.49484980e-01 7.84100890e-01 1.48047304e+00 1.08068395e+00
      1.32271111e+00 1.38943720e+00 1.37175488e+00 1.08068395e+00</_>
    <_>
      1.59049284e+00 1.18367791e+00 1.18367791e+00 1.56484497e+00
      9.06456649e-01 8.45098019e-01 1.48307085e+00 1.20412004e+00
      1.23119903e+00 1.33925915e+00 1.33419299e+00 1.17609131e+00</_>
    <_>
      1.64745343e+00 1.39932537e+00 1.39932537e+00 1.64745343e+00
      9.56906915e-01 9.54242527e-01 1.47712123e+00 1.14723313e+00
      1.32271111e+00 1.36819828e+00 1.33419299e+00 1.36213791e+00</_>
    <_>
      1.63288045e+00 1.25594163e+00 1.25594163e+00 1.60165250e+00
      9.06456649e-01 9.03090000e-01 1.54193044e+00 1.25594163e+00
      1.30319071e+00 1.35883522e+00 1.38943720e+00 1.20496655e+00</_>
    <_>
      1.64176369e+00 1.34107256e+00 1.34107256e+00 1.64745343e+00
      9.06456649e-01 9.56906915e-01 1.46547449e+00 1.14723313e+00
      1.32271111e+00 1.34948504e+00 1.32995808e+00 1.38021123e+00</_>
    <_>
      1.60966122e+00 1.33512294e+00 1.33512294e+00 1.62337232e+00
      7.78151274e-01 7.84100890e-01 1.46239805e+00 1.11394334e+00
      1.32418001e+00 1.33325899e+00 1.37175488e+00 1.28114641e+00</_>
    <_>
      1.59006298e+00 1.15267563e+00 1.15267563e+00 1.56484497e+00
      9.06456649e-01 9.03090000e-01 1.50366044e+00 1.20496655e+00
      1.17705417e+00 1.37175488e+00 1.36539114e+00 1.</_>
    <_>
      1.66367948e+00 1.42440236e+00 1.42440236e+00 1.67366505e+00
      1.00851667e+00 1.00216067e+00 1.54984033e+00 1.20496655e+00
      1.41625440e+00 1.39087772e+00 1.40745664e+00 1.39828718e+00</_>
    <_>
      1.59006298e+00 1.15051496e+00 1.15051496e+00 1.59049284e+00
      7.78151274e-01 6.02060020e-01 1.48047304e+00 1.17609131e+00
      1.23119903e+00 1.39932537e+00 1.41529429e+00 1.</_>
    <_>
      1.65587687e+00 1.37755609e+00 1.37755609e+00 1.65944886e+00
      6.02060020e-01 4.77121264e-01 1.49693847e+00 1.17609131e+00
      1.40342903e+00 1.40342903e+00 1.40342903e+00 1.17609131e+00</_>
    <_>
      1.66408777e+00 1.34642351e+00 1.34642351e+00 1.64756358e+00
      9.03090000e-01 9.06456649e-01 1.50280476e+00 1.11522448e+00
      1.34287083e+00 1.37602425e+00 1.38096392e+00 1.11522448e+00</_>
    <_>
      1.60979223e+00 1.12883925e+00 1.12883925e+00 1.58644736e+00
      9.54242527e-01 9.03090000e-01 1.51387858e+00 1.23044896e+00
      1.11522448e+00 1.40342903e+00 1.41625440e+00 1.14612806e+00</_>
    <_>
      1.66367948e+00 1.42440236e+00 1.42440236e+00 1.65105724e+00
      9.64709461e-01 9.54242527e-01 1.55713868e+00 1.23343384e+00
      1.39932537e+00 1.40309000e+00 1.39897978e+00 1.38058794e+00</_>
    <_>
      1.59006298e+00 1.15267563e+00 1.15267563e+00 1.58513081e+00
      6.98970020e-01 6.02060020e-01 1.49693847e+00 1.20496655e+00
      1.25793695e+00 1.38357794e+00 1.40104461e+00 9.54242527e-01</_>
    <_>
      1.62823856e+00 1.19369495e+00 1.19369495e+00 1.58644736e+00
      9.03090000e-01 7.78151274e-01 1.54984033e+00 1.27875364e+00
      1.25793695e+00 1.38652730e+00 1.38616085e+00 1.23119903e+00</_>
    <_>
      1.59006298e+00 1.10475755e+00 1.10475755e+00 1.56962466e+00
      7.07486689e-01 7.84100890e-01 1.49671817e+00 1.17705417e+00
      1.20496655e+00 1.41529429e+00 1.41625440e+00 1.08068395e+00</_>
    <_>
      1.64255357e+00 1.31824398e+00 1.31824398e+00 1.65105724e+00
      6.02060020e-01 6.98970020e-01 1.49226367e+00 1.11394334e+00
      1.36539114e+00 1.42005301e+00 1.43402815e+00 1.25594163e+00</_>
    <_>
      1.63615286e+00 1.36779940e+00 1.36779940e+00 1.63393772e+00
      8.49484980e-01 8.45098019e-01 1.48400784e+00 1.20412004e+00
      1.34420991e+00 1.32612312e+00 1.36939025e+00 1.20412004e+00</_>
    <_>
      1.58527756e+00 1.05360496e+00 1.05360496e+00 1.57993388e+00
      8.49484980e-01 8.45098019e-01 1.52634692e+00 1.17705417e+00
      1.11522448e+00 1.42285895e+00 1.45154500e+00 1.17609131e+00</_>
    <_>
      1.61637104e+00 1.32418001e+00 1.32418001e+00 1.61927390e+00
      9.56906915e-01 9.56906915e-01 1.50280476e+00 9.56906915e-01
      1.28114641e+00 1.40745664e+00 1.44991028e+00 1.36213791e+00</_>
    <_>
      1.58527756e+00 1.05360496e+00 1.05360496e+00 1.59502566e+00
      8.45098019e-01 8.45098019e-01 1.53409290e+00 1.20412004e+00
      1.11522448e+00 1.43868566e+00 1.45154500e+00 1.20412004e+00</_>
    <_>
      1.57993388e+00 1.15903163e+00 1.15903163e+00 1.55913234e+00
      7.78151274e-01 8.45098019e-01 1.49338591e+00 1.23119903e+00
      1.20496655e+00 1.34948504e+00 1.36539114e+00 1.04139268e+00</_>
    <_>
      1.60742188e+00 1.32418001e+00 1.32418001e+00 1.58659315e+00
      7.78151274e-01 8.49484980e-01 1.47712123e+00 1.11394334e+00
      1.34242272e+00 1.38943720e+00 1.33419299e+00 1.11394334e+00</_>
    <_>
      1.56962466e+00 1.15267563e+00 1.15267563e+00 1.54389071e+00
      8.49484980e-01 8.49484980e-01 1.44069231e+00 1.17609131e+00
      1.17705417e+00 1.30954671e+00 1.34642351e+00 1.11394334e+00</_>
    <_>
      1.64634955e+00 1.31824398e+00 1.31824398e+00 1.62521005e+00
      7.78151274e-01 7.84100890e-01 1.50280476e+00 1.11394334e+00
      1.32418001e+00 1.39266491e+00 1.36939025e+00 1.14612806e+00</_>
    <_>
      1.63765574e+00 1.36213791e+00 1.36213791e+00 1.63358581e+00
      7.84100890e-01 7.84100890e-01 1.48307085e+00 1.14612806e+00
      1.34642351e+00 1.35164571e+00 1.37175488e+00 1.25793695e+00</_>
    <_>
      1.61471295e+00 1.30103004e+00 1.30103004e+00 1.61989987e+00
      4.77121264e-01 4.77121264e-01 1.49693847e+00 1.11522448e+00
      1.34420991e+00 1.42623997e+00 1.41010070e+00 1.39794004e+00</_>
    <_>
      1.61902308e+00 1.22123992e+00 1.22123992e+00 1.59049284e+00
      9.06456649e-01 8.45098019e-01 1.54049349e+00 1.27935433e+00
      1.30319071e+00 1.36336362e+00 1.35800171e+00 1.14612806e+00</_></support_vectors>
  <decision_functions>
    <_>
      <sv_count>45</sv_count>
      <rho>2.5186492423242157e-01</rho>
      <alpha>
        2.3447074578636001e-01 2.6699999999999999e+00
        4.4618478275688289e-01 5.2287418460774260e-01
        2.6699999999999999e+00 2.6699999999999999e+00
        2.6699999999999999e+00 2.6699999999999999e+00
        2.6699999999999999e+00 2.6699999999999999e+00
        8.0509589766826295e-01 2.6699999999999999e+00
        2.6699999999999999e+00 5.6417686807522993e-01
        9.5432073138129292e-01 7.7674924253966759e-01
        2.6699999999999999e+00 2.6699999999999999e+00
        1.2794035629794758e+00 2.6699999999999999e+00
        1.8419330059910499e-01 2.6699999999999999e+00
        2.6699999999999999e+00 4.5653992840385421e-01
        -3.7349821479201811e-01 -2.6699999999999999e+00
        -2.6699999999999999e+00 -2.6699999999999999e+00
        -2.6699999999999999e+00 -2.6699999999999999e+00
        -2.6699999999999999e+00 -2.6699999999999999e+00
        -2.6699999999999999e+00 -2.6699999999999999e+00
        -2.6699999999999999e+00 -1.2754235721071774e+00
        -2.6699999999999999e+00 -2.6699999999999999e+00
        -1.7697087251040642e+00 -1.5032074726786321e-01
        -1.1365636626632936e+00 -1.0415516823401936e+00
        -4.7694264052326257e-01 -2.6699999999999999e+00
        -2.6699999999999999e+00</alpha>
      <index>
        0 1 3 5 12 15 16 17 18 19 20 22 23 24 28 29 31 33 35 36 37 41 43
        45 46 51 59 61 64 65 66 68 70 72 74 77 78 80 82 84 87 88 91 92
        95</index></_>
    <_>
      <sv_count>60</sv_count>
      <rho>2.0569459302560317e-01</rho>
      <alpha>
        2.6699999999999999e+00 2.6699999999999999e+00
        2.6699999999999999e+00 2.0092759068757990e+00
        2.2249503515750511e+00 1.9061882816145017e+00
        2.6699999999999999e+00 2.6699999999999999e+00
        1.1229859915856999e+00 2.6699999999999999e+00
        8.7691147581321505e-01 1.6911365365178836e+00
        2.6699999999999999e+00 2.6699999999999999e+00
        1.0118383689706631e+00 2.5930871292947950e+00
        7.2308421664717959e-01 1.0523036905018186e+00
        2.5453952248356471e+00 2.6699999999999999e+00
        2.6699999999999999e+00 2.6699999999999999e+00
        2.6699999999999999e+00 2.0971645525463747e+00
        4.0544876085902870e-01 1.0372191846086447e+00
        2.6699999999999999e+00 2.6699999999999999e+00
        2.6699999999999999e+00 2.6699999999999999e+00
        -6.4662290598646044e-01 -4.0264494004879403e-01
        -2.6699999999999999e+00 -2.6699999999999999e+00
        -8.5499604092357473e-01 -2.6699999999999999e+00
        -2.6699999999999999e+00 -2.6699999999999999e+00
        -1.8036845453241499e+00 -3.8369330456730971e-01
        -2.6699999999999999e+00 -2.6699999999999999e+00
        -2.6699999999999999e+00 -2.6699999999999999e+00
        -2.6699999999999999e+00 -2.6699999999999999e+00
        -2.6699999999999999e+00 -1.4081748627255182e+00
        -6.9307217612811856e-01 -1.4020093005729775e+00
        -2.5846997144893291e+00 -2.6699999999999999e+00
        -2.6699999999999999e+00 -2.0346962775325679e+00
        -2.6699999999999999e+00 -2.6699999999999999e+00
        -2.6699999999999999e+00 -1.9851629611562482e+00
        -2.6699999999999999e+00 -1.7575326427912568e+00</alpha>
      <index>
        0 1 2 3 4 6 7 9 10 12 13 14 17 18 20 22 23 24 25 27 28 29 30 31
        32 33 40 42 43 44 99 100 101 102 103 104 105 108 109 110 116 117
        122 123 124 125 127 128 129 130 132 133 134 135 136 138 139 140
        142 143</index></_>
    <_>
      <sv_count>53</sv_count>
      <rho>-3.2074537140087556e-01</rho>
      <alpha>
        2.4334770432928403e+00 2.6699999999999999e+00
        4.1123336835096214e-01 2.3134571726641570e-01
        2.2179955524813657e+00 1.6221570940510421e+00
        2.6699999999999999e+00 2.6699999999999999e+00
        2.6699999999999999e+00 2.6699999999999999e+00
        2.6699999999999999e+00 1.4855754959524339e+00
        5.0213221784489293e-01 2.6699999999999999e+00
        2.6699999999999999e+00 2.0464180031241863e+00
        4.6583367960690431e-01 2.6699999999999999e+00
        2.6699999999999999e+00 2.6699999999999999e+00
        2.6699999999999999e+00 2.6699999999999999e+00
        2.6699999999999999e+00 2.1887986761536671e+00
        1.1551434853930067e+00 2.6699999999999999e+00
        -2.6699999999999999e+00 -2.6699999999999999e+00
        -9.4842547876726069e-01 -2.6699999999999999e+00
        -6.4062653276391091e-01 -1.4454927857558177e+00
        -2.6699999999999999e+00 -2.6699999999999999e+00
        -6.0159789206592729e-01 -7.3961382411810517e-01
        -2.6699999999999999e+00 -2.6699999999999999e+00
        -1.9755145141189241e+00 -2.6699999999999999e+00
        -2.6699999999999999e+00 -2.6699999999999999e+00
        -2.6699999999999999e+00 -2.6699999999999999e+00
        -8.9745666594513407e-01 -2.0762832745651445e+00
        -2.6699999999999999e+00 -2.6699999999999999e+00
        -2.6699999999999999e+00 -1.0564568238518821e+00
        -9.3476949191772973e-01 -7.7387304964787840e-01
        -2.6699999999999999e+00</alpha>
      <index>
        1 2 3 8 9 11 12 15 16 17 18 19 20 22 23 27 28 29 31 33 35 36 40
        41 43 45 144 145 146 147 149 150 154 155 157 159 160 162 163 165
        167 170 171 175 180 185 186 187 188 189 194 195 198</index></_>
    <_>
      <sv_count>34</sv_count>
      <rho>1.6452482264575768e-01</rho>
      <alpha>
        6.4074214389804596e-02 5.4815081743382765e-01
        4.0804465405915719e-01 8.2031198467770750e-01
        2.6699999999999999e+00 2.6699999999999999e+00
        3.7585846809782175e-01 1.6220086541881997e+00
        6.8122452241171105e-01 2.3819622033796142e-02
        2.6699999999999999e+00 1.4858884299873245e+00
        3.5915043113135592e-01 2.2825414273783724e+00
        2.6699999999999999e+00 2.6699999999999999e+00
        2.6699999999999999e+00 5.2348128152905904e-01
        -2.6699999999999999e+00 -2.6699999999999999e+00
        -1.3713486082481363e+00 -6.1160061366345020e-01
        -1.4453880755580422e+00 -2.6699999999999999e+00
        -1.7621791542139137e-02 -2.6699999999999999e+00
        -2.9224749888920565e-01 -5.0514756473849853e-01
        -1.7984402155261743e+00 -1.3799136604459259e+00
        -2.2920476060147457e+00 -1.0625618568775892e+00
        -1.0882370158142316e+00 -2.6699999999999999e+00</alpha>
      <index>
        1 3 8 9 15 16 17 18 20 21 22 23 28 29 33 35 38 45 203 206 208
        210 213 214 216 217 218 221 222 227 230 232 233 235</index></_>
    <_>
      <sv_count>48</sv_count>
      <rho>3.4012611081087790e-01</rho>
      <alpha>
        2.6699999999999999e+00 2.6699999999999999e+00
        2.6699999999999999e+00 1.7967844450488990e+00
        2.1689599015169763e+00 2.6699999999999999e+00
        5.6403549592919977e-01 2.2268358455027868e+00
        1.1087005303855748e+00 2.6699999999999999e+00
        2.6699999999999999e+00 2.6699999999999999e+00
        2.6699999999999999e+00 2.6699999999999999e+00
        2.6699999999999999e+00 6.5142134486428593e-01
        1.7689987197550461e+00 1.2378935135350175e+00
        1.5333796096231997e+00 2.6699999999999999e+00
        7.4566269681514619e-01 2.6699999999999999e+00
        2.6699999999999999e+00 2.6699999999999999e+00
        -1.7409880419123107e+00 -2.6699999999999999e+00
        -2.0548100652293755e+00 -1.1869300398796592e+00
        -1.6505663898728433e+00 -2.4079541642752633e+00
        -2.6699999999999999e+00 -2.6699999999999999e+00
        -2.6699999999999999e+00 -2.6699999999999999e+00
        -2.6414111384961714e-01 -2.6699999999999999e+00
        -2.6699999999999999e+00 -1.0901112513508697e+00
        -2.6699999999999999e+00 -2.6699999999999999e+00
        -2.6699999999999999e+00 -2.6699999999999999e+00
        -1.0265031606555148e+00 -2.6699999999999999e+00
        -2.7928887953844198e-02 -2.6699999999999999e+00
        -2.6699999999999999e+00 -2.3527389879968368e+00</alpha>
      <index>
        0 1 3 4 7 12 14 15 16 17 18 19 22 23 24 26 29 31 34 36 39 40 41
        42 237 238 239 241 242 243 244 245 246 248 253 255 256 257 258
        260 263 264 266 267 270 272 273 274</index></_>
    <_>
      <sv_count>35</sv_count>
      <rho>2.3994717289056297e-01</rho>
      <alpha>
        1.0383412697401742e+00 2.6699999999999999e+00
        1.7771533276693354e+00 2.6699999999999999e+00
        2.6699999999999999e+00 2.6699999999999999e+00
        2.6699999999999999e+00 2.6699999999999999e+00
        2.4330955213155927e+00 2.6699999999999999e+00
        2.2882628405896392e+00 2.6699999999999999e+00
        1.5759426239830212e+00 1.3390316994741374e+00
        2.6699999999999999e+00 -2.6699999999999999e+00
        -2.6699999999999999e+00 -1.2257700647540444e+00
        -2.5203612120899199e-01 -6.9620197448053367e-01
        -3.1587119166374528e-01 -2.3974824324325281e-02
        -4.3863499205105583e-01 -2.6699999999999999e+00
        -2.6699999999999999e+00 -1.0441821081614096e+00
        -2.6699999999999999e+00 -2.6043898114906816e-01
        -1.7825337655755471e+00 -2.6699999999999999e+00
        -2.6699999999999999e+00 -1.7421832594031779e+00
        -2.6699999999999999e+00 -2.6699999999999999e+00
        -2.6699999999999999e+00</alpha>
      <index>
        48 51 56 59 60 61 64 66 68 70 74 76 80 86 87 101 102 103 106 107
        114 116 118 120 121 123 127 130 131 132 134 136 140 142 143</index></_>
    <_>
      <sv_count>66</sv_count>
      <rho>-3.7981807115079602e-01</rho>
      <alpha>
        2.6699999999999999e+00 2.6699999999999999e+00
        2.6699999999999999e+00 2.6699999999999999e+00
        2.6699999999999999e+00 2.6699999999999999e+00
        2.4738412792921323e+00 1.8933415458679212e+00
        2.6699999999999999e+00 2.6699999999999999e+00
        2.6699999999999999e+00 2.1689845516333253e+00
        2.6699999999999999e+00 2.6699999999999999e+00
        2.6699999999999999e+00 2.6699999999999999e+00
        2.6699999999999999e+00 1.1438499670784046e+00
        2.6699999999999999e+00 6.7800646806723985e-01
        2.6699999999999999e+00 2.6699999999999999e+00
        2.6699999999999999e+00 2.6699999999999999e+00
        1.6276295576325222e+00 7.6768233231435012e-01
        2.6699999999999999e+00 2.6699999999999999e+00
        2.6699999999999999e+00 2.6699999999999999e+00
        1.9459078924200079e+00 -2.6699999999999999e+00
        -1.5462191283794475e+00 -9.1845996847991995e-01
        -2.1036424691220268e+00 -3.0734972121646159e-01
        -2.6699999999999999e+00 -2.6699999999999999e+00
        -2.6699999999999999e+00 -2.6699999999999999e+00
        -2.6699999999999999e+00 -1.7485214662795592e+00
        -2.6699999999999999e+00 -2.6699999999999999e+00
        -2.6699999999999999e+00 -1.0544747418827278e+00
        -2.6699999999999999e+00 -2.6699999999999999e+00
        -2.6699999999999999e+00 -2.6699999999999999e+00
        -2.6699999999999999e+00 -1.0279162123140149e+00
        -2.6699999999999999e+00 -2.6699999999999999e+00
        -2.6699999999999999e+00 -1.1966575395750010e+00
        -2.6699999999999999e+00 -3.7971132217645615e-01
        -7.9439583310473771e-01 -2.6699999999999999e+00
        -1.3045314020325636e+00 -3.1736378974298607e-01
        -2.6699999999999999e+00 -2.6699999999999999e+00
        -2.6699999999999999e+00 -2.6699999999999999e+00</alpha>
      <index>
        47 51 53 56 59 60 61 63 64 65 66 68 70 71 72 74 76 78 79 82 84
        86 87 88 89 90 92 93 95 96 97 145 146 147 148 149 150 151 152
        154 156 157 158 160 161 162 163 165 166 167 168 169 170 171 175
        177 179 181 186 189 191 192 193 194 195 198</index></_>
    <_>
      <sv_count>43</sv_count>
      <rho>7.0837743941719031e-02</rho>
      <alpha>
        1.4899503157874296e+00 8.5976848643795389e-01
        2.6699999999999999e+00 5.0166268669170344e-01
        2.6699999999999999e+00 2.6699999999999999e+00
        2.6699999999999999e+00 5.6150217284139836e-01
        2.6699999999999999e+00 2.1801482646341586e+00
        6.0733203601157226e-01 2.6699999999999999e+00
        2.6699999999999999e+00 2.1949813518115491e+00
        2.6699999999999999e+00 1.6158460272382760e+00
        2.6699999999999999e+00 2.6699999999999999e+00
        4.4705305736235573e-01 7.7647007268295865e-01
        1.2717966482612195e+00 2.6699999999999999e+00
        -2.6699999999999999e+00 -1.4695799468090676e-01
        -2.6699999999999999e+00 -2.6699999999999999e+00
        -2.6699999999999999e+00 -2.6699999999999999e+00
        -2.6699999999999999e+00 -2.6699999999999999e+00
        -2.6699999999999999e+00 -2.6699999999999999e+00
        -3.7592760650361867e-01 -2.6699999999999999e+00
        -1.3497733760222283e-01 -6.5219832342367401e-01
        -2.6044071527551984e+00 -2.6699999999999999e+00
        -2.2128139985813693e+00 -5.8809535590439266e-01
        -4.5113335030919066e-01 -2.6699999999999999e+00
        -2.6699999999999999e+00</alpha>
      <index>
        46 47 51 53 57 59 60 63 66 68 69 71 72 73 75 76 84 87 93 94 96
        98 201 202 203 206 208 210 214 217 218 219 221 222 223 225 226
        228 229 230 231 234 235</index></_>
    <_>
      <sv_count>57</sv_count>
      <rho>-3.0152410306691017e-02</rho>
      <alpha>
        3.9095805520477783e-01 1.5952376065395610e+00
        7.8471424352394958e-01 2.6699999999999999e+00
        2.6699999999999999e+00 2.6699999999999999e+00
        2.6699999999999999e+00 2.6699999999999999e+00
        2.6699999999999999e+00 2.6699999999999999e+00
        2.6699999999999999e+00 2.6699999999999999e+00
        3.8033410912996768e-01 1.6050638011474276e+00
        9.9911987232247723e-01 2.6699999999999999e+00
        2.6189683775308872e+00 2.6699999999999999e+00
        1.6465509897564515e-01 2.6699999999999999e+00
        2.6699999999999999e+00 2.6699999999999999e+00
        2.6699999999999999e+00 2.6699999999999999e+00
        1.4014939449179313e+00 2.6699999999999999e+00
        3.3936374846798728e-01 2.6699999999999999e+00
        2.6699999999999999e+00 -2.4960112805566301e-01
        -1.7422793959195484e+00 -2.6699999999999999e+00
        -2.6699999999999999e+00 -2.6699999999999999e+00
        -2.6699999999999999e+00 -2.6699999999999999e+00
        -2.6699999999999999e+00 -2.6699999999999999e+00
        -2.6699999999999999e+00 -2.6699999999999999e+00
        -2.6699999999999999e+00 -2.6699999999999999e+00
        -2.6699999999999999e+00 -2.6699999999999999e+00
        -2.6699999999999999e+00 -1.2286892506548708e+00
        -2.6699999999999999e+00 -8.7287679131484930e-01
        -2.6699999999999999e+00 -6.2374626464246918e-01
        -2.6699999999999999e+00 -2.6699999999999999e+00
        -2.6699999999999999e+00 -2.6699999999999999e+00
        -2.2107871673562376e+00 -1.9926490413816427e-02
        -6.6200236940315849e-01</alpha>
      <index>
        47 49 50 51 52 54 55 58 60 61 62 64 66 67 68 70 72 78 79 80 81
        82 83 84 85 86 89 91 97 237 238 239 241 242 243 244 247 248 249
        250 251 252 254 255 258 259 260 261 265 266 267 269 270 271 273
        274 275</index></_>
    <_>
      <sv_count>51</sv_count>
      <rho>-2.3898419874167071e-01</rho>
      <alpha>
        4.3238290005099916e-01 2.1999617579272570e+00
        2.6699999999999999e+00 3.6656965546364689e-01
        7.2310051914804041e-01 1.9529715445175222e+00
        5.8612413530093610e-02 1.9869369563218027e+00
        3.4968342041342132e-01 1.4922300144424175e-01
        2.6699999999999999e+00 2.6699999999999999e+00
        2.6699999999999999e+00 2.6699999999999999e+00
        2.6699999999999999e+00 2.6699999999999999e+00
        2.6699999999999999e+00 1.6664903675888958e+00
        2.6699999999999999e+00 2.6699999999999999e+00
        2.6699999999999999e+00 2.6699999999999999e+00
        2.6699999999999999e+00 2.6699999999999999e+00
        6.6797862283862086e-01 2.6699999999999999e+00
        2.6699999999999999e+00 -2.6699999999999999e+00
        -2.6699999999999999e+00 -2.6699999999999999e+00
        -2.6699999999999999e+00 -2.6699999999999999e+00
        -1.3799513413702309e+00 -1.0799044949420897e+00
        -2.0359869021970796e+00 -2.6699999999999999e+00
        -2.6699999999999999e+00 -2.6699999999999999e+00
        -2.6699999999999999e+00 -2.6699999999999999e+00
        -2.6699999999999999e+00 -2.2496085808320871e+00
        -2.6699999999999999e+00 -2.2467172401171838e+00
        -1.6034281203470391e+00 -1.1095869987929621e+00
        -2.3375059171499273e+00 -2.6699999999999999e+00
        -2.6699999999999999e+00 -8.5136305333096984e-01
        -9.9985851016497640e-01</alpha>
      <index>
        100 101 102 103 105 106 107 111 112 114 116 119 120 121 123 126
        127 129 130 131 132 134 136 140 141 142 143 144 145 146 147 149
        152 153 155 159 162 164 167 170 171 175 177 178 179 180 182 189
        197 198 200</index></_>
    <_>
      <sv_count>32</sv_count>
      <rho>-2.4214874786250493e-02</rho>
      <alpha>
        3.6081010920790818e-01 8.2571105372671949e-01
        2.9381690175447761e-01 4.7454715243818113e-02
        8.3676796962566680e-01 6.4311817125992832e-01
        9.6902550026283762e-01 9.2860729447399459e-01
        2.6699999999999999e+00 1.3691995396062207e+00
        1.8215351661034378e+00 2.6699999999999999e+00
        2.6699999999999999e+00 8.1962498725115374e-01
        7.7842051074445817e-01 2.6699999999999999e+00
        6.3063371405888427e-02 2.6699999999999999e+00
        -2.6699999999999999e+00 -5.2544988993268971e-01
        -1.0276885608906356e+00 -2.6699999999999999e+00
        -1.1613967952548958e+00 -2.6699999999999999e+00
        -1.3953487862314709e-01 -2.6699999999999999e+00
        -9.7904265714227057e-01 -1.3870921356186088e+00
        -2.3042191632139857e+00 -2.6699999999999999e+00
        -2.1823153777261875e-01 -2.0144996722176618e+00</alpha>
      <index>
        99 103 107 108 110 116 118 119 120 121 123 127 132 134 137 140
        142 143 203 204 206 208 209 214 221 223 226 229 232 233 234 235</index></_>
    <_>
      <sv_count>45</sv_count>
      <rho>-3.9716699144235125e-02</rho>
      <alpha>
        1.9125448694684595e+00 2.6699999999999999e+00
        2.6699999999999999e+00 1.3580914649133975e+00
        2.6699999999999999e+00 1.5503554726229112e+00
        8.1603169865638325e-01 9.2733055757538096e-01
        3.2153748531531912e-01 2.6699999999999999e+00
        2.6699999999999999e+00 2.6699999999999999e+00
        2.6699999999999999e+00 2.6699999999999999e+00
        2.6699999999999999e+00 2.6699999999999999e+00
        2.6699999999999999e+00 2.1142937425753803e+00
        2.6699999999999999e+00 2.6699999999999999e+00
        2.6699999999999999e+00 -2.6699999999999999e+00
        -2.6699999999999999e+00 -2.6699999999999999e+00
        -4.6737111880601351e-01 -2.2793952513814592e-01
        -2.6699999999999999e+00 -2.6699999999999999e+00
        -2.6699999999999999e+00 -2.0574753827713161e+00
        -8.0854785796754236e-01 -2.6699999999999999e+00
        -2.6699999999999999e+00 -1.3622222079332429e+00
        -3.1144118634603052e-01 -1.3418859282517757e+00
        -7.7555335018253002e-01 -1.8629264880879846e+00
        -2.1419808890346634e+00 -2.6699999999999999e+00
        -1.8360898417885467e+00 -2.6699999999999999e+00
        -1.1467515148194365e+00 -2.6699999999999999e+00
        -2.6699999999999999e+00</alpha>
      <index>
        99 101 102 103 112 113 114 115 116 117 120 125 128 130 132 134
        136 137 140 142 143 237 238 239 240 243 244 245 246 247 250 252
        253 255 256 257 260 262 263 264 266 267 270 272 274</index></_>
    <_>
      <sv_count>61</sv_count>
      <rho>2.7592776187443524e-01</rho>
      <alpha>
        2.6699999999999999e+00 2.1460003789946472e-01
        2.6699999999999999e+00 8.7379805618738082e-01
        1.0061090039239753e+00 2.6699999999999999e+00
        2.6699999999999999e+00 2.6699999999999999e+00
        2.6699999999999999e+00 2.6699999999999999e+00
        2.6699999999999999e+00 1.5229682545891061e+00
        2.1560788921235177e+00 2.6699999999999999e+00
        2.3638267083946123e+00 2.6699999999999999e+00
        2.6699999999999999e+00 2.6699999999999999e+00
        2.6699999999999999e+00 2.6699999999999999e+00
        2.1865909075070578e+00 2.6699999999999999e+00
        2.6699999999999999e+00 8.0707602141571877e-01
        2.6699999999999999e+00 2.6699999999999999e+00
        2.6699999999999999e+00 2.6072168601583745e+00
        2.6600199819183157e+00 1.1018247756062276e+00
        -2.6699999999999999e+00 -6.5521999636773154e-01
        -2.6699999999999999e+00 -2.6699999999999999e+00
        -2.6699999999999999e+00 -2.6699999999999999e+00
        -2.6699999999999999e+00 -6.7486693870091030e-01
        -1.8908899221553779e+00 -2.6699999999999999e+00
        -1.2029420034210727e+00 -2.6699999999999999e+00
        -2.6699999999999999e+00 -2.6699999999999999e+00
        -2.6699999999999999e+00 -2.6699999999999999e+00
        -1.0979674213229476e+00 -1.2787092755801943e+00
        -2.6699999999999999e+00 -2.6699999999999999e+00
        -2.6699999999999999e+00 -9.2556489364165917e-01
        -2.6699999999999999e+00 -2.6699999999999999e+00
        -2.6699999999999999e+00 -2.6699999999999999e+00
        -2.6699999999999999e+00 -2.6699999999999999e+00
        -1.7102219946554380e+00 -2.6699999999999999e+00
        -5.3727053878417835e-02</alpha>
      <index>
        144 147 151 153 156 157 160 163 164 168 169 170 172 173 174 175
        176 177 179 180 181 182 183 184 186 188 190 195 196 199 201 202
        203 205 206 207 208 210 211 212 213 214 215 217 218 219 220 221
        222 223 224 226 228 229 230 231 232 233 234 235 236</index></_>
    <_>
      <sv_count>44</sv_count>
      <rho>1.8320089507899537e-01</rho>
      <alpha>
        2.6699999999999999e+00 2.6699999999999999e+00
        2.6699999999999999e+00 1.9598827282700113e+00
        2.6699999999999999e+00 2.5476230707014849e+00
        2.6699999999999999e+00 7.4058109937188976e-01
        2.6699999999999999e+00 2.6699999999999999e+00
        2.6699999999999999e+00 2.6699999999999999e+00
        2.6699999999999999e+00 2.6699999999999999e+00
        2.6699999999999999e+00 2.6699999999999999e+00
        7.0455431523780820e-01 3.5431213422824592e-01
        6.1119534743255288e-01 2.6699999999999999e+00
        2.6699999999999999e+00 -2.6699999999999999e+00
        -2.6699999999999999e+00 -2.6699999999999999e+00
        -2.6699999999999999e+00 -8.4611811039202589e-01
        -2.6699999999999999e+00 -2.6699999999999999e+00
        -1.0709664200740876e-01 -1.9891260882135271e+00
        -2.6699999999999999e+00 -2.6699999999999999e+00
        -8.4306600399597076e-01 -2.6699999999999999e+00
        -2.6699999999999999e+00 -2.6699999999999999e+00
        -2.6699999999999999e+00 -2.6699999999999999e+00
        -6.2433851296931009e-01 -2.6699999999999999e+00
        -1.9806715151046220e-01 -2.6699999999999999e+00
        -1.3118792226400033e+00 -9.9845696351328461e-01</alpha>
      <index>
        145 146 147 150 153 157 158 160 161 163 166 167 168 170 171 175
        177 179 180 193 198 237 238 239 241 242 243 244 245 247 249 250
        251 252 253 255 258 260 266 267 270 271 273 274</index></_>
    <_>
      <sv_count>33</sv_count>
      <rho>-5.1886500892015464e-01</rho>
      <alpha>
        7.5921308580980085e-01 2.6699999999999999e+00
        2.0066285089211475e+00 2.1368946213534521e+00
        2.6699999999999999e+00 2.6699999999999999e+00
        1.4585775531493999e+00 2.6699999999999999e+00
        2.6699999999999999e+00 3.2874473354780065e-01
        5.9058178703207154e-01 1.2428690634503767e+00
        2.6699999999999999e+00 1.7679326876146498e-01
        9.3039178401663458e-01 5.5202099749270905e-01
        2.6699999999999999e+00 4.6806075973363823e-02
        -2.2676183661056917e+00 -2.6699999999999999e+00
        -1.3656304948976359e+00 -2.6699999999999999e+00
        -2.5583640904256040e+00 -2.6699999999999999e+00
        -2.6699999999999999e+00 -2.6699999999999999e+00
        -1.2147673307113110e-02 -2.6699999999999999e+00
        -1.8594305981944353e-01 -2.6699999999999999e+00
        -2.4270259358564205e-02 -2.6699999999999999e+00
        -1.1455475355941704e+00</alpha>
      <index>
        201 203 204 206 208 210 214 217 218 221 223 225 229 230 231 234
        235 236 237 241 243 244 249 250 252 255 257 260 261 267 268 271
        274</index></_></decision_functions></my_svm>
</opencv_storage>
