<?xml version="1.0"?>
<opencv_storage>
<my_nn type_id="opencv-ml-ann-mlp">
  <layer_sizes type_id="opencv-matrix">
    <rows>1</rows>
    <cols>4</cols>
    <dt>i</dt>
    <data>
      12 100 100 6</data></layer_sizes>
  <activation_function>SIGMOID_SYM</activation_function>
  <f_param1>6.6666666666666663e-01</f_param1>
  <f_param2>1.7159000000000000e+00</f_param2>
  <min_val>-9.4999999999999996e-01</min_val>
  <max_val>9.4999999999999996e-01</max_val>
  <min_val1>-9.7999999999999998e-01</min_val1>
  <max_val1>9.7999999999999998e-01</max_val1>
  <training_params>
    <train_method>BACKPROP</train_method>
    <dw_scale>1.0000000000000000e-03</dw_scale>
    <moment_scale>0.</moment_scale>
    <term_criteria><epsilon>1.1920928955078125e-07</epsilon>
      <iterations>300</iterations></term_criteria></training_params>
  <input_scale>
    1.2084045582844714e+01 -1.8923851662724434e+01
    7.1896574962148447e+00 -8.5609418742386438e+00
    7.1896574962148447e+00 -8.5609418742386438e+00
    1.2901846941846571e+01 -2.0159279907842667e+01
    7.7097624007704457e+00 -6.2092707448508913e+00
    8.0076237376742938e+00 -6.4707606289781321e+00
    1.1975014047043793e+01 -1.7457383464742897e+01
    1.0706332358525930e+01 -1.1937057211076899e+01
    7.8700073530195542e+00 -9.7264991903027163e+00
    1.0184363537379067e+01 -1.3644869762509771e+01
    1.2699151701504354e+01 -1.7349092935243984e+01
    6.2951330467535165e+00 -7.6637147007757944e+00</input_scale>
  <output_scale>
    5.2631578947368418e-01 4.9999999999999994e-01 5.2631578947368418e-01
    4.9999999999999994e-01 5.2631578947368418e-01 4.9999999999999994e-01
    5.2631578947368418e-01 4.9999999999999994e-01 5.2631578947368418e-01
    4.9999999999999994e-01 5.2631578947368418e-01 4.9999999999999994e-01</output_scale>
  <inv_output_scale>
    1.8999999999999999e+00 -9.4999999999999996e-01
    1.8999999999999999e+00 -9.4999999999999996e-01
    1.8999999999999999e+00 -9.4999999999999996e-01
    1.8999999999999999e+00 -9.4999999999999996e-01
    1.8999999999999999e+00 -9.4999999999999996e-01
    1.8999999999999999e+00 -9.4999999999999996e-01</inv_output_scale>
  <weights>
    <_>
      -3.9095492839655072e-01 8.3492427228896549e-02
      1.5689039200843655e-01 -7.2866309644186444e-02
      -1.1442544942988787e-01 -1.2632529240124171e-01
      -4.4355220998801279e-02 1.2979348961418238e-01
      -1.3207458043002435e-01 -2.5390519677775408e-01
      3.9045030815391055e-03 1.5547251516795668e-01
      8.6290082310349084e-02 7.5633776789030285e-02
      3.5976878536692342e-01 -1.9621038739248273e-01
      -9.8523730427741985e-02 5.3078465376546438e-02
      1.5547533957009871e-01 2.9625062085449305e-01
      -5.4584169382340198e-03 1.4795280751578196e-01
      1.6540937793669777e-01 7.6813057247241565e-02
      1.9934568328467397e-01 2.4089455996015474e-01
      1.6384728014825023e-01 -2.1816151009252580e-01
      1.1612280053023642e-01 1.5736774726944103e-01
      -1.1188216038321776e-01 -2.1923161060027613e-01
      1.6043795653540852e-01 4.6714300965832296e-02
      -2.0347743616399777e-01 -2.5308968448221673e-02
      -1.7641523988132074e-01 -4.7643525271254629e-02
      2.4447702583187006e-01 -4.4986762983758088e-01
      2.7950565562218307e-02 1.9936507557937122e-01
      9.3912335202735370e-02 2.6885204090655523e-01
      4.3020434650649375e-01 -3.3582915755270587e-01
      -3.3813110897149889e-02 -2.2584916590069709e-01
      -1.8733604126501421e-01 1.9867124557770502e-01
      6.1860844516770812e-02 1.3482980257215416e-01
      -2.0352861236417541e-01 1.2831757521551929e-02
      2.9982057604052775e-01 -1.4589617343016477e-02
      7.7105538365061663e-02 -2.7764822867869393e-01
      -4.5742613439208983e-02 9.7173382477894144e-02
      3.2959059319102459e-02 1.4086194291074533e-01
      -6.9885887450132661e-02 -5.8401964605764405e-02
      -4.0560582968183302e-02 -1.2116451078221675e-01
      -7.9883373595818999e-02 -2.0122673887912737e-01
      -1.9798508813780127e-01 -1.7443246799477202e-01
      2.2819684252311151e-01 2.5313845315178202e-01
      2.0592606901013966e-01 1.5026785448434726e-01
      1.0146468795611593e-01 -2.6078327718831486e-02
      1.1017475017033490e-01 2.5150074241617504e-01
      -3.6890716852269509e-02 1.3519906411442223e-01
      2.5480934808912989e-02 7.7803894204935789e-02
      -9.5937661131360791e-02 2.4764573673162651e-01
      -2.3468029646544894e-01 9.0427920357714409e-02
      2.0976246461921880e-02 -7.4554331402486920e-02
      -6.6073071166752761e-02 3.7600054481105379e-02
      -3.8869020116397279e-01 -1.3700684269289481e-01
      8.2095964454329073e-01 1.2931000396453271e-01
      1.0638449521997197e-02 -7.8095549359340002e-02
      -1.7755695443286670e-01 -9.2426045137507379e-02
      2.1205316444143429e-01 -3.6992307781017704e-02
      1.9011895599546502e-01 -6.7994274343484958e-03
      1.1442942669657240e-01 -8.0592066256251732e-02
      -1.7436525581786264e-01 9.0941946986744224e-02
      -6.4134662742413162e-01 -4.0287343593437143e-02
      -1.3173992962264072e-01 7.3569372002707162e-02
      7.2473509520970078e-02 2.3219684543850069e-01
      -6.6146785687193899e-02 -7.7198320104792217e-02
      2.3178102401801867e-01 2.9905768495334859e-02
      -1.6160141608938039e-01 -1.9745146042924333e-01
      1.0301822945518166e-01 1.3030329959921982e-01
      1.3646414664968243e-01 8.3868816428299228e-02
      1.4741044702232817e-01 -1.0673098640736374e-01
      -2.3581137281771983e-01 2.6096414173394217e-01
      1.1164798711922290e-01 5.5946272142236048e-02
      6.1238948518831160e-02 1.6455834516853102e-01
      -2.5505942268118420e-01 -9.9222611998414242e-02
      -1.4598570321880044e-01 -1.3900034837129735e-01
      1.8574342691707590e-01 3.0122844084889222e-01
      -1.5811541183491407e-01 7.6236669000346521e-02
      -2.8183745768276386e-01 1.4259750999606793e-01
      -1.8324696747998714e-01 -1.2501161196749855e-01
      1.0542320961108290e-01 2.2846909228910268e-02
      2.7394930381542149e-01 -1.2848932363179452e-01
      -1.9054794194968021e-02 8.9285345541644218e-02
      -3.4003370326011924e-02 -4.0550146967067990e-02
      -1.3706821390525167e-01 5.9103333877876169e-02
      1.2561304884224070e-01 -1.2357919282105526e-01
      5.0208545952545878e-03 -1.7212500112779940e-02
      1.7991193196271404e-01 -2.0436377318687157e-01
      5.2479849075417501e-02 8.1441932212797247e-02
      -7.8405816232684666e-02 1.2103296691607328e-01
      -1.4615648709584808e-01 -6.5185702801985337e-02
      -1.0131642561089951e-01 1.8841273308703682e-01
      1.3592458227920415e-01 5.8761523741670488e-03
      -1.1363434268727993e-01 1.9505430808939513e-02
      5.7534371998990141e-02 1.1145855302611053e-01
      -1.4791058122491169e-01 1.0823953296437223e-01
      -6.2002277959686131e-02 1.7172792447089547e-01
      -3.2768999338680860e-01 -5.4456781077082059e-02
      1.5364556257415415e-01 -1.8982743218285406e-01
      2.1490738019990410e-01 9.2563950227393305e-02
      1.8132510870892701e-01 2.0037887242645022e-01
      1.2796956083657554e-01 1.1247432195214842e-01
      -8.7747810862925671e-02 8.9113338619192919e-02
      6.5861569331732511e-02 -1.6215490189763115e-01
      -6.7923293661361128e-02 4.5611354068741040e-02
      7.7386259165842741e-01 -1.2232690326835383e-01
      -2.2041363845038998e-03 2.1460324679068368e-01
      -4.6868073689273135e-02 1.3192365713564902e-01
      -1.1155371347643686e-01 -2.6798957782501015e-01
      2.0076910483550181e-01 1.3650137179032459e-01
      9.4236783388524911e-02 7.2754438428344587e-02
      2.9747528622014692e-02 -1.2263705602436333e-01
      -6.4326503158327986e-01 1.1682120580523231e-01
      -9.9654312533810616e-02 3.0912401104892965e-02
      -3.8363364292962297e-02 1.7515375057331437e-01
      1.6759764939697819e-01 -3.4485792613296352e-02
      4.9052208758884032e-02 -6.5063006913545149e-02
      -1.1307575539053570e-01 -1.8957726626701332e-01
      1.8743892527889788e-01 -3.6161436400368396e-02
      1.1199014621568674e-01 -1.6326698569483364e-02
      7.2722563655528899e-02 -1.5617210637380199e-01
      -2.1639127660114607e-01 1.7084878693326100e-01
      6.9734183567960198e-02 -8.9953022621484621e-02
      2.1063602290289245e-02 1.1215346963780139e-01
      4.1754206436051065e-02 4.5419410863708834e-02
      -1.8901180222431013e-01 5.1207722986834001e-02
      5.6525075380787958e-02 2.8496799806219519e-01
      -1.6046977890756188e-02 1.2156633793372491e-01
      -3.0516893147600815e-01 -8.4177390388371839e-02
      -9.2183356508756378e-02 -8.7090637149335376e-02
      4.0315575573510204e-02 9.0379241083989828e-02
      3.4328228456008503e-01 -2.1394422799903007e-01
      -2.2837218642753362e-01 -8.0935277404012240e-02
      -4.2393616736198493e-02 1.1403431913755198e-01
      1.0985044820479403e-01 1.0271539603911425e-01
      -2.6771495663740302e-02 -1.3995955480984701e-01
      -1.4940576130955441e-01 -1.0013927252742533e-01
      2.3622662983828241e-01 2.2338479203739294e-02
      1.2991481684230557e-01 -5.2418563576126689e-02
      -9.3536319828563474e-02 1.2418919667349358e-01
      -9.3809358385612551e-02 1.0571334012520618e-01
      -1.1981014527401662e-01 2.4639482354899073e-02
      -3.6846644086287296e-03 -4.6232023396683676e-02
      6.7823327718304904e-02 -1.3265543510981190e-01
      8.8666046880644250e-02 9.3896393265421832e-02
      -1.6919782764804425e-01 -5.4460943169800442e-02
      -6.9154270260854883e-02 1.3733508346345868e-01
      -1.5498148455521807e-01 -8.4101796167380560e-02
      1.3694708674375730e-01 -7.6118049958163209e-02
      -7.0187665849938685e-02 2.7647275493921746e-02
      1.1442762841279105e-01 1.9496492103758759e-01
      9.6563447002064429e-02 -9.5601052856663801e-02
      -3.7625230801420731e-02 2.2986972591645234e-02
      6.2686176355774892e-02 -2.6413241100776375e-01
      6.7238943124124401e-02 5.4350858579659385e-02
      7.7450832926796731e-01 -9.5610251088543763e-02
      1.2521297642083642e-01 9.9974498199092987e-02
      -4.6959488118900661e-02 -2.3931945623557493e-02
      -2.6112823052063511e-01 7.0214732912435400e-03
      -1.4173669714696832e-01 -1.5962123510065124e-02
      1.9118516574697800e-01 1.4755024408328837e-01
      1.1225776038149370e-01 -2.2244244521500350e-01
      -4.1048901465134896e-01 -2.8462724699671031e-02
      1.1002218454440153e-01 -1.2476411481832049e-01
      1.7137950762885143e-01 2.8768526695551355e-01
      -2.9037395007669595e-02 1.4267678740141967e-01
      3.1089741912444741e-01 -2.2316864327851765e-01
      1.3321659510847231e-01 -1.9326361686747037e-01
      -5.7295828398857190e-02 2.1488199682495268e-01
      2.1571337313650299e-01 2.0009115671623287e-01
      -1.9302398864747877e-01 1.1312914857290182e-01
      1.6935321506762377e-01 1.2734858859815928e-01
      3.2979445418443457e-02 9.0898561179165033e-02
      2.7315648904269579e-01 2.0237992969942697e-01
      6.3864428249186542e-03 1.8662852511181635e-01
      5.0923144641024896e-02 1.4482888979668682e-01
      -5.4425706020239904e-02 -1.2614793639251931e-01
      -1.9645363872283303e-01 1.0344092214074110e-01
      -4.8296596884779393e-02 -6.8825508448958295e-01
      -1.1602692338886438e-01 -2.1007623001178359e-02
      1.2648523038436957e-01 1.6090301950312652e-01
      2.0703733734634516e-01 -2.0754692445798578e-01
      -1.3465508161185089e-01 -1.5359806931875938e-01
      -4.7051729968714491e-02 2.2413709731251763e-01
      1.3874255011096726e-01 -1.9664704861434040e-01
      -6.5462769125808909e-02 -1.1395241934736620e-01
      -7.8552730523666611e-02 -2.2726397252966480e-02
      -1.3494393089997903e-01 -3.0503136449010210e-01
      -7.2393790076506301e-02 2.3417547446072384e-01
      1.7790218056112809e-02 -1.5914757307790725e-02
      2.4860491273058803e-02 -2.0706269254966247e-01
      2.2751962026968831e-02 -1.5751243134568085e-01
      -1.2720446872090069e-01 1.0809694435742047e-01
      -2.4692423208409847e-01 -1.3479959318789989e-01
      -9.8123263537451863e-02 1.4277482908122729e-01
      -8.2042693652820325e-02 1.9180604455851299e-01
      -7.1251351387325204e-02 1.4445231475686962e-01
      -2.7532157476932584e-01 1.9107451554701241e-01
      3.6302132924117048e-02 -1.9514891061355379e-02
      1.8413433062997486e-01 -2.6549872802034854e-02
      1.5122580083169956e-01 3.0391128932465478e-01
      -7.9371567024019374e-02 6.8804176269670198e-02
      2.5681893227304536e-01 8.2230777894100548e-02
      -2.1302779140943842e-01 1.7043811660522039e-02
      -1.5133825839979387e-01 -5.6993224372102490e-02
      1.0296551079140823e+00 4.8092496374523647e-02
      -1.8409122198752398e-01 -1.1212071825897664e-01
      -6.4236065672004058e-02 1.1313507360315343e-01
      -1.1147711445925294e-01 2.5654249971461485e-01
      1.0074164582906381e-01 3.8274353782987103e-02
      9.7226778090579474e-02 -1.4007552050327057e-01
      1.5699867245848428e-02 -2.8169055992487299e-02
      -2.0620189678872933e-01 -1.6344901187587776e-01
      1.0946509122534065e-01 3.0152325001517627e-01
      -8.4240967082118590e-02 1.3741978402440863e-01
      -1.9365238752559760e-01 -1.0943121882357255e-01
      3.5214204360952833e-01 -1.8554623352091656e-01
      -1.1908907321115227e-01 -5.1220465382140118e-02
      1.7524334355433424e-01 1.5533820155113576e-01
      1.0657455275497722e-01 1.3469576863434551e-01
      -4.8921839118218020e-02 1.5368640613391818e-01
      -9.4974814379950229e-02 1.5037029183735548e-01
      -1.3626392470310143e-02 -2.4175359209415655e-02
      2.3686047529366253e-01 5.7153146215080768e-02
      -3.0330980766905793e-02 -1.0168685646797647e-01
      -1.7682532203989534e-01 3.8272771018230921e-02
      -1.1042156168073373e-01 1.6156321031024246e-01
      -1.6924223719620651e-01 1.6623925615410459e-01
      -4.1981217122687264e-01 -1.4479149547675779e-01
      7.3241243008038887e-02 7.2500386058722360e-02
      -1.5457219964310837e-01 5.6822208697673363e-02
      -4.5254771406832234e-01 -6.3071174100405733e-02
      -7.1956607560699756e-02 -5.3134025662181006e-02
      -2.8795590141115902e-03 2.7770289547619842e-02
      1.3599052062509116e-02 8.8297257051085168e-02
      3.9004015275679052e-02 -1.2828650024785393e-01
      6.2455612089843612e-02 1.3021543918048403e-01
      7.5169646517001934e-02 -2.1876641214361484e-01
      -4.6068518937477911e-02 -2.0972696615784406e-01
      1.6531021537100343e-01 -7.1154564805561329e-02
      6.7911635264616020e-03 -2.0138016160243499e-01
      9.6409788489670190e-02 -1.1780992343847181e-01
      1.9832600238612588e-01 1.0452556334833329e-01
      -6.6958236846529254e-02 -1.0548357690788197e-01
      3.1531040999156691e-02 -1.4082828720061505e-01
      1.5239763510526838e-01 -9.2295164814177558e-02
      1.6215297899005007e-03 1.8228650588796594e-01
      -1.7467314669473508e-01 1.9367439558135019e-01
      -1.6976812416287554e-01 2.4188123255824007e-03
      -1.7366229510623443e-01 4.7853886233625027e-02
      -8.9705803634405161e-03 1.0333633250619292e-03
      -7.1494754911067562e-02 -1.0942310877250655e-01
      -7.8353996348359170e-02 -9.1972846494138213e-02
      -2.1819280158017951e-01 -2.0850638438291810e-01
      -1.9087946738859396e-01 1.7147140093420790e-01
      -4.8570798156486461e-02 -1.2844326329500799e-01
      2.4931726667414145e-01 -1.0109240156877333e-02
      6.6463958061454262e-02 3.9968786574147284e-02
      -1.5412670034154249e-01 -5.0807261736042830e-02
      1.2184053760170295e-01 1.2464856829236222e-01
      -5.1958460354716823e-02 -1.8157653418578390e-01
      -1.3995969066511968e-01 -1.3364119113689227e-01
      -4.8538016390009660e-02 2.7642862985659102e-03
      2.7915651691926672e-02 8.3435413085683516e-02
      4.8442466925496315e-02 1.9163457724992342e-02
      -1.5175788176929639e-01 -7.5706882104901049e-02
      5.0783361290084050e-01 -9.1343187039348475e-02
      1.3846582956910439e-01 1.0900281289881368e-01
      1.6601440756682317e-01 2.2739502902553158e-01
      1.3962142162674407e-01 -5.6554227454830464e-02
      -2.2185886101140216e-02 1.6248065666823380e-01
      2.2578564976962725e-02 -8.4301785554444328e-02
      2.5755161187013959e-01 5.0266206106293891e-02
      1.5713646110917576e-01 -1.2582111054651429e-01
      -6.7523484663514627e-02 -8.8513394219144573e-02
      -9.8808682247594162e-02 5.1321164861315924e-02
      1.6800088530372775e-02 3.4632537688318657e-02
      -2.0791528743307000e-01 1.4788390701397514e-01
      -2.4027903370595632e-01 -1.6577923072613174e-01
      -4.7706601083988692e-02 -1.0617044277638385e-01
      1.2708410355942693e-01 -7.2897097639885153e-02
      -2.6925037488370751e-01 -1.8002803497976033e-01
      -6.9507843837186861e-02 6.9958326298181592e-02
      1.2012780067071556e-01 1.8222617972565711e-01
      1.1572600356318942e-01 1.3922788148471535e-01
      1.5728666141262840e-01 8.6559678047871513e-02
      -3.4096381579078475e-02 -1.7626209930294240e-01
      1.9566575175256968e-02 -2.4033233964534989e-01
      1.3634524073965934e-01 -1.2378949367321758e-02
      8.5119653838686943e-02 7.9591935233017400e-02
      -4.9698307161164586e-02 -1.7493337895918984e-01
      -2.1722098935993325e-01 -1.2990697900804521e-01
      3.6539363726461452e-02 -5.0762308847721017e-02
      -5.2633338105649699e-02 -1.3502506038925721e-01
      1.1041150508889065e-01 -8.6448292190549905e-02
      1.4598158835474742e-01 9.6509924281927076e-02
      1.6644287528344717e-01 1.4191024000537600e-01
      -2.3064688399132269e-02 -6.3795820387396007e-02
      1.6865721861898009e-01 8.7986933336819256e-03
      -8.7490765304966980e-02 1.3788801900256742e-01
      -1.3388054690147996e-01 -9.8587141188295993e-02
      -5.2399439174285051e-02 8.0953360795034041e-02
      5.3930170170146015e-02 1.2415779986938172e-01
      -3.7915341838807549e-02 -3.0226788534510896e-01
      -2.0002017444868697e-01 1.3090659739041161e-01
      1.6861935131760231e-01 -5.7668462068555554e-02
      1.3062287798220851e-01 2.0949449552125264e-02
      -1.4505169049911878e-01 -8.3353529544108615e-02
      -2.5395749456080419e-01 -1.7579933510163578e-01
      -8.9088056632080803e-02 -1.8746741162131697e-01
      -1.8433132770764610e-03 -8.3309109070554027e-02
      2.1040054728955160e-01 -2.0388637543692020e-01
      -4.7480405235399115e-01 -7.8389835197665819e-02
      1.6490910858407115e-01 -1.9653523417814978e-01
      -7.2704174417189751e-02 1.0347017518534425e-01
      1.6062275802825760e-01 -2.1485731189418625e-01
      1.8357868766427579e-01 6.1671291625016042e-02
      -2.3982714003337367e-02 -8.0985091302173753e-02
      6.5386032934351523e-02 -1.6960994706038474e-02
      3.0460516112824149e-01 1.2182879569362698e-01
      -1.9619381996316387e-01 -8.0446619413612527e-03
      3.9461828364324818e-02 1.4516712889714573e-01
      1.0894800988978369e-01 -1.4160160982426681e-01
      2.1277909706075102e-01 1.0166283726142374e-01
      1.4977438956350297e-01 2.0791186404711184e-02
      4.8751508232658176e-02 -5.6655759001822674e-02
      -1.4529025332890444e-01 1.0377903463010217e-01
      -4.5048589664886673e-02 2.4701491395287828e-01
      -1.0595985910429485e-01 -5.8998983862616350e-01
      -3.3386276349049088e-02 5.2142131250234043e-02
      3.7931532766544880e-02 -1.3571362455289768e-01
      3.6524214728889198e-01 -2.2426111476789377e-02
      -2.2464091016554808e-02 6.0440179475315985e-02
      -1.7346466419475706e-01 -5.0442599689185019e-02
      6.4577288855910228e-02 -1.0039232562571289e-01
      1.3723257376131612e-01 -1.5810075441750288e-01
      -1.1818868010790165e-01 -3.3264480068314006e-02
      1.5503420566552020e-01 -3.7983895233429088e-01
      1.2325405826088384e-01 3.7836385119927485e-02
      -8.8729620476885263e-02 7.5015451061396982e-02
      1.7031979864227300e-02 9.4882423106332672e-02
      -2.0714563001720113e-01 9.8465461316672262e-02
      -2.0641755095563252e-01 7.6999075186981361e-02
      3.7437528652563723e-02 8.6148911332827524e-02
      1.8852679671780552e-02 2.2798334274785392e-01
      -1.0537841520110786e-01 -5.5877095158490597e-02
      1.4855902370294349e-01 -1.2142903925636514e-01
      -1.7679527308586608e-02 -2.5782756516796585e-02
      -3.9829225506651363e-02 -7.1314368067622300e-02
      1.7910911531290631e-02 1.3616806876677867e-01
      -1.3918473457007560e-01 -1.9873090332672441e-02
      -2.3028814839958769e-01 -1.0316027967447250e-01
      1.9907540915161065e-01 -3.1644843535126789e-02
      1.8517156452694036e-01 -3.1863840304636548e-01
      -2.8078721240350868e-01 -1.5855443895608431e-01
      8.3047825863326075e-01 -5.5003069601728100e-02
      1.0901774683686168e-01 2.3334535846541694e-02
      1.5322966564866447e-01 -9.5660764541428203e-02
      -2.0893611712149646e-01 -9.5535839141926166e-03
      1.4771499346902459e-01 2.8145883632211754e-01
      1.4596341245249200e-01 1.3003422004995607e-01
      -5.0134049770225335e-02 6.1119102674525597e-02
      1.0527832020765812e-01 4.4409914663604264e-02
      -7.4821392475328846e-02 -1.1393224648188253e-01
      -6.8083842801265476e-02 -2.0614923605244892e-01
      -4.8691285621928773e-02 -5.4807615148917667e-02
      2.0690479464699726e-01 9.2729759123600791e-02
      2.7587639140031942e-02 -1.8467355407132496e-01
      -3.1651329305814310e-02 2.2330669367621939e-01
      2.2959605100452932e-01 -8.3889475002276725e-02
      1.2156600764444254e-01 1.7240106651665599e-01
      1.2138215474976958e-02 1.5926953321651940e-01
      1.8256698338320076e-01 -1.3311211082160987e-01
      -6.5279430202015353e-03 -1.8450492363699611e-01
      -9.3445087862865872e-02 -3.2362597752598622e-02
      -1.0570866033496516e-01 -5.0471497755611786e-02
      1.5868730162425626e-01 1.9948851139904905e-01
      -2.5545053180621086e-01 -2.1632662582234027e-01
      -2.2446953689507507e-01 -3.4709914372974965e-01
      1.8298512300593994e-01 1.5586326575682391e-01
      3.6834860646767928e-02 4.8545694390643858e-02
      5.1499827792230202e-01 -1.2569086876135482e-01
      1.4303553837695755e-02 1.4498018565444051e-01
      -2.2580168224857321e-03 -1.8894093400978539e-02
      -1.9881849490022065e-02 1.4286501749275071e-01
      -5.8219496715844712e-02 -1.6921871354772738e-01
      -5.5704076909249077e-02 3.7382669827843155e-02
      -2.4125761516811735e-02 -2.1857611953949976e-01
      9.1086008663675472e-02 -2.0993556611635079e-02
      2.2341302288728787e-01 -1.0221991928532202e-01
      1.0067428466394812e-01 1.4977063849959185e-01
      -2.1556628936354832e-01 9.5090241485811064e-02
      7.9570595408327532e-02 -2.2806405059723828e-01
      4.7087025121603183e-02 -1.1380832345095832e-01
      -4.9069410724962098e-02 1.8030622861244645e-02
      7.2202113262729864e-02 -1.0303307382971739e-01
      2.4959421586327418e-01 9.7792856185057842e-02
      6.1001029717356298e-02 1.2570874184512101e-01
      -1.8889968949785929e-01 1.3346593519011177e-01
      -5.5892315354049392e-02 -9.4015961264108758e-02
      1.9866394537657411e-01 -3.4752240109221663e-02
      1.4046269503613401e-02 8.1102852474642231e-02
      -1.2004561207329549e-01 -2.1604608606711509e-01
      -5.3787904684387586e-02 -4.4892713436535131e-01
      -2.0116147289752828e-01 2.1485655044864337e-02
      6.1778321665045322e-01 9.2310027059939750e-02
      -1.5418073401301184e-02 2.2299471343818333e-02
      4.6408085980046025e-02 -9.5787209863150730e-02
      -2.7372465803408186e-01 -1.5677852320422112e-02
      -4.2309447850022976e-02 5.8748938707934115e-02
      -8.5163523682263483e-03 1.0334026147561211e-01
      -1.7853000625089807e-01 1.7904834265591998e-01
      -6.3440681944996224e-01 -1.2303876686032063e-01
      -3.7842175783102852e-02 4.9167686908885906e-02
      1.4655368982755757e-01 -2.2991235639499209e-02
      -7.8778413481809792e-02 -2.0087405359255975e-01
      3.7103985932950256e-01 -3.0297915362226957e-01
      -2.0997808308865978e-02 1.9031672020304408e-01
      2.2926240279358148e-01 2.5895482017051885e-01
      1.3446124685329205e-01 -1.7301002775237742e-01
      9.2416867864228314e-02 -1.8024161177525413e-01
      -2.2509576289867361e-01 4.8935350912058063e-02
      1.3278440954820109e-01 -7.8867886683392063e-02
      1.4855805564406907e-01 3.3276406184773774e-02
      -4.9794820313560979e-02 -7.8819177286336764e-02
      -2.3290928403854066e-01 -1.7552863051025916e-01
      8.8841480770755002e-02 7.2688083928220348e-02
      1.0163627281608706e-01 -6.0195994115564859e-02
      5.0685486130092067e-03 -9.7984468528312607e-02
      -1.4231652864384953e-01 2.0799552034106136e-01
      -1.7896891611882576e-01 2.5463939562519861e-01
      3.1702292799445408e-01 -3.3540815277082381e-01
      -2.7550903176195862e-01 -1.2550290724494814e-01
      4.5992605837728018e-02 1.7716775051222344e-01
      2.6277378770372511e-01 2.3869684849475706e-01
      1.1313109963456004e-01 5.4670919764408632e-02
      2.1700852122821984e-01 -2.3104213690105788e-01
      -9.2773964170514076e-02 -1.1087064685066220e-01
      1.6111258157605629e-01 -8.0712516920302707e-02
      9.6768388435558461e-02 1.6645092656205279e-01
      -6.1234523972548534e-02 6.3475545916412647e-03
      9.2276297465130594e-02 1.2267379429799199e-01
      -1.8052181419144142e-01 -2.9794249661792551e-03
      -1.1921265487048040e-01 -2.2641261680489588e-01
      2.5615656785194552e-01 1.3490792990953102e-01
      -3.2383868935681979e-02 2.2178032249836307e-01
      7.9832400687812985e-02 9.0627099751511772e-02
      -4.1825139111237142e-02 1.4763615786636716e-01
      1.7172105070987323e-01 -1.9742686001006271e-01
      -1.3467753561846402e-02 -2.4466018138484991e-01
      1.5234270578143749e-01 -8.5684521793127119e-02
      -1.7339384771479496e-01 -9.9847052897583249e-02
      7.7996023492838545e-02 -3.0502066337181183e-01
      1.1360793156588304e-01 1.7296631838234176e-02
      -2.7687384120553327e-01 -1.0362239586795838e-01
      5.5948070580855924e-01 -1.4359537799320335e-01
      2.2148432391009626e-01 1.2628293105745567e-01
      7.2023429703627517e-02 -1.6491547664435940e-01
      1.3499470367750849e-01 -2.3332590512251121e-03
      3.8857778555998361e-02 2.5149535965061609e-01
      -1.0896516866655588e-01 -4.3770016571603711e-02
      -2.1756129436049634e-01 9.1384493501183120e-02
      -3.8416333700431921e-01 -6.6333616901286779e-02
      1.8329190549679203e-01 -1.7598487744256391e-01
      1.8572924707166011e-01 1.4939129151568806e-01
      -3.5316512918006353e-02 2.3066062931708883e-01
      -2.4844804948605852e-02 -2.2794404737156518e-01
      -4.1002017223106930e-02 -1.0239439113318285e-01
      -3.3319435240144246e-02 -1.0672580391661690e-01
      -1.5869598962782075e-01 -1.0397298473140275e-01
      1.5056007926069295e-01 -2.2745270883448111e-02
      -1.4569482336125553e-01 3.6202112685949983e-01
      1.1258764594452123e-01 -1.3542335216095328e-01
      2.7051203079404562e-01 8.8976179391959689e-02
      -2.7680827549759351e-01 2.0739038068060228e-01
      7.6597750687855154e-02 -1.4775075034238350e-01
      1.2907127354662618e-01 2.8346505850946130e-01
      1.4714886677309438e-01 -3.4933467954848148e-02
      -2.7821345876675502e-01 -2.8834459639461546e-02
      -1.5167925914219946e-01 -1.0312022877344064e-01
      1.1250391013660042e-01 1.6158048030452973e-01
      5.1806801566241334e-01 1.9201388254599860e-01
      -2.4634916217239294e-01 -1.3572500047242456e-01
      2.9412322565941873e-01 -7.9726429698178947e-02
      -4.8209348286716797e-03 -1.4020671959534226e-01
      -1.5840275935131290e-01 -1.3501268500331634e-01
      -1.3106123705659056e-01 -2.0953183888773930e-01
      2.9595123380119348e-01 -2.7201784630160442e-01
      -1.8812009362315876e-01 9.6779963061777677e-02
      1.1787826841656550e-01 1.8154924904103531e-01
      2.1259769707395773e-01 -4.0708776856893954e-02
      2.2902608866428240e-01 3.2176376066166329e-02
      -1.5702456852811991e-02 6.7095886476872285e-02
      1.1377531217500264e-01 -1.0142504358381030e-01
      1.5910923679615041e-01 -6.7026726021137725e-02
      -7.7708394857842505e-02 -8.4695028377019844e-03
      4.3728043655467258e-02 -2.8100629344341061e-02
      -3.7343341670119606e-01 1.8015892514754903e-03
      2.2973343534056043e-02 5.7568201304530331e-02
      1.2073608970312316e-01 -7.9697996533971444e-02
      1.8793937810246514e-01 7.2653584679128205e-02
      -3.0646629953293158e-02 -7.9449327352424853e-02
      -2.8812145437515357e-01 -1.2640680599719992e-01
      -1.5367953620984648e-01 1.4013754553902980e-01
      -1.6228689056229643e-02 1.0271151783812862e-01
      9.8537768765309808e-01 -1.1017499324292121e-01
      2.8187739980949120e-02 1.4061389849917130e-02
      -4.5895765036610116e-02 -1.7113339519335855e-01
      -1.1305273296426276e-01 -2.1755965600531535e-01
      -1.0086421344685575e-01 1.3954886598260957e-01
      -1.1805940232577615e-01 -2.5974638352483228e-02
      -8.5661017165721720e-02 -5.9367235350668207e-02
      -2.8385404620211285e-01 1.5157238819175098e-01
      1.1481118243871652e-02 -6.1349394791251760e-02
      -7.9546854011259827e-02 -4.2341843735812894e-02
      2.5432248918142941e-01 2.4286258896016394e-01
      -1.8014424853748490e-02 5.0874317710060950e-02
      1.0291996419865995e-01 7.6470902555137096e-02
      2.8378425081042973e-02 -7.8957226321577340e-02
      -1.1688202822233103e-01 1.2895135772158511e-01
      1.9299291740291130e-01 5.4264614399640920e-02
      -1.7330017344125609e-01 3.7851346251065221e-01
      -1.3929993253082684e-01 -2.2302103585906138e-01
      1.5267881713701997e-01 1.7243653659594030e-01
      -1.9665561906723822e-01 1.3923066743870965e-01
      7.2174467742490880e-02 -1.8217382925012207e-01
      -9.3024963689326251e-02 2.8658165596887286e-01
      -1.4054763743361672e-02 1.0484836470325144e-01
      -5.4600048393014897e-02 -6.9630858169223417e-02
      -1.8213776655511241e-01 1.3135132266026670e-01
      1.5592702333041485e-02 -9.3609965610767162e-02
      6.5412273855647096e-01 1.5066192932667119e-01
      8.3821628169856499e-02 -1.6116773241079152e-01
      1.9311012513822567e-01 -5.5546679379272351e-02
      1.7588017755891294e-01 -2.2064197488973310e-02
      -1.7287033094705059e-01 1.7078065946812829e-01
      1.1773509000057147e-01 -1.8898844990140601e-01
      1.4012042516143264e-01 -7.5138804078535085e-02
      -1.3224584318695845e-01 -1.1802697455216009e-01
      -1.3304704210049803e-01 -1.5259501631409973e-02
      2.1997347434829811e-01 -9.7305408566633486e-02
      1.3792011546007341e-01 9.7805313906238298e-02
      -2.2045257019981548e-01 1.4542414653124808e-01
      4.3431497790900518e-02 -1.3705941935629967e-01
      8.1913070183363454e-02 1.3717361526091454e-01
      1.2796228439381385e-01 1.0492392805196614e-01
      -1.2573880063057216e-01 1.4207380049541751e-01
      -3.9503391688654077e-01 -5.0873101422773070e-02
      -1.6721201791222988e-02 -2.0506126644399658e-01
      -1.8652968751474117e-01 1.2150989527235895e-01
      3.0029560224802077e-01 2.5209031195788087e-02
      -1.7479716689059632e-01 1.2943154481053482e-01
      3.0488333981053235e-02 -1.7196112340843864e-01
      -1.2408799038843396e-01 -1.0400953972989301e-02
      -7.7758237589348009e-02 1.4993298061865096e-01
      9.5287241146847013e-01 6.9923563705576952e-02
      -2.4038424829086486e-02 2.3638486759319788e-01
      7.5671252926157812e-02 -2.6410726333864185e-02
      1.3210165148787648e-01 -1.2178757571190400e-01
      -2.2675631454630180e-01 2.5069588725053793e-01
      -3.4398250575221390e-02 -9.5711889870553957e-02
      3.0795174820539574e-03 -4.3688647549155558e-02
      -6.9272332739991815e-01 1.5864875332282616e-01
      -1.8139352828362226e-01 -1.5856585361661502e-01
      1.0445336339906568e-01 1.0860385734546981e-02
      3.8036411462641820e-02 -5.1986261753637311e-02
      -2.5891774264207529e-01 -2.4706229007497492e-02
      1.8629633977725890e-01 1.2108443964251404e-01
      5.2335644012610955e-02 3.9505189953222664e-02
      6.3193455668145590e-02 -4.7692168898677730e-02
      7.7276204166359955e-02 1.7866025690436665e-01
      -9.5271469136368650e-02 1.4453326499733843e-01
      1.9301703523597932e-02 1.6547279658135478e-01
      2.2001677986294568e-01 1.4622655787187866e-01
      -1.6548415004851022e-01 -2.6759894539081824e-01
      -2.0340851674578284e-01 -8.6243712903392347e-02
      -1.1581479420844641e-01 1.5643568621671405e-01
      1.5479286180744976e-02 -8.1719485786514626e-02
      -2.5466997170093258e-01 -1.3835458182088712e-02
      -1.6705812409545695e-01 1.8698098440122624e-01
      -2.0940594827960787e-01 2.1777762200858727e-01
      8.7155524452003409e-04 -1.0420079603149295e-01
      -8.7786404187188416e-02 1.8456287528322379e-01
      4.0651408665699579e-02 -7.1457826888710607e-02
      1.3816333168255177e-01 2.9140693090105885e-01
      1.7747650986397329e-02 -1.2196174418876136e-01
      2.1121665713735216e-01 -4.1038280770664785e-02
      1.2342278419673350e-01 1.0414915678949918e-01
      -5.0089704741799003e-02 -2.6132401003341982e-01
      9.9526106393592467e-02 -1.6032956851666436e-01
      7.1057688977712821e-02 6.1070324966405451e-02
      -6.3417766196845693e-02 -1.5155258042641268e-01
      1.3539882970755990e-01 -1.9887704606660964e-01
      -2.1390874146463382e-01 1.0379820672430651e-01
      1.3716118883414632e-01 2.4980937006861212e-01
      1.9185523261005707e-01 1.3339928459167794e-01
      -1.0455403975057656e-02 3.1777263550672522e-02
      -1.7162940688222406e-01 4.0560870509057052e-02
      5.2625819269804995e-02 6.7206190945266864e-02
      -1.5061566709305606e-02 -1.1359665747253048e-01
      -1.2776777755046528e-01 5.9886173752214632e-02
      -1.2024258420130718e-01 -4.0507636509333478e-02
      2.7935885364100288e-01 -1.8362941871496480e-02
      5.1250663300148221e-03 -4.0303540373605057e-01
      1.3862299038588577e-01 1.7369804203633005e-01
      7.3700014100122613e-02 -1.7797801579119715e-01
      -8.8363881584881843e-02 2.9966174865867456e-01
      2.1591492448170516e-01 -8.1104490076917529e-02
      -1.5045042644597062e-01 -4.8162483138354119e-02
      -5.3116344297766779e-02 -7.3913306344045193e-02
      7.0373389477505252e-02 5.1744152545921143e-02
      -1.7447227338835483e-02 -2.1126042820150116e-02
      6.3983388678766007e-01 1.4899400938836252e-01
      8.0596475818030533e-02 -2.4380652199437372e-02
      8.1982649726569087e-02 3.7220754131203966e-02
      8.2366258137768322e-02 1.1938472893962458e-01
      1.0613690625226901e-01 1.6284760210051451e-02
      4.5339175784925884e-02 -3.8293623270321741e-03
      1.6659047370540331e-02 -7.1119299696705954e-02
      1.6208924923468296e-01 3.2204552047442776e-02
      1.3868879165673779e-02 -1.1339767435060984e-02
      -1.1387985652499771e-01 1.5416988104274157e-01
      -4.7019679346667405e-02 -4.2290452599704716e-02
      -1.1171086017915598e-01 2.0298230551258966e-02
      -1.6744428084023624e-02 8.5903923022290996e-02
      -1.0067050002957543e-02 -7.5747134997984052e-03
      6.6890270362010970e-03 7.4265313824477722e-02
      -1.0356046951674558e-01 3.0707733106837630e-02
      -2.1182333891588503e-01 -3.9607598668112226e-01
      6.5927725457450908e-03 -3.7614730123321592e-03
      3.9071662925396759e-02 3.7844941692118966e-02
      -5.1414861892069452e-01 2.2124017965802930e-02
      6.3322324701205104e-04 -3.3707024227067214e-02
      6.0102005815066356e-03 5.0356330274731863e-03
      -1.5050153127654702e-03 -1.0527744475516830e-01
      -1.0820298331213240e-02 8.7848174381497662e-05
      1.0788939631734261e-02 -2.7927907201482530e-02
      6.3318177440367079e-02 -2.3015374506017314e-01
      1.0877801377030413e-02 4.8789099118005545e-02
      -1.9055552658518295e-02 3.1061038145825049e-02
      1.3005397306955047e-02 -2.2522888655543187e-02
      -7.2601492940349108e-02 9.8780451689851629e-03
      -9.3540431754013526e-03 -5.8421541492076429e-02
      -2.2168952868686868e-02 -9.2900166956987641e-03
      5.5901408435664664e-02 -3.5331500313725964e-02
      6.1961876166791954e-02 5.9544780757703107e-02
      1.0362979165034504e-01 -3.6091395935077035e-02
      -7.3308458612046629e-02 -6.9212940761489775e-02
      4.3033783569557192e-04 5.4310393847046418e-02
      9.4855391214455895e-02 1.0435187355270474e-01
      7.1033599336843375e-02 -5.9114948854563205e-02
      -7.5000810512250660e-02 8.1930947652050612e-02
      -1.0851743315538401e-01 -8.7428496916673537e-02
      -1.4344058775513066e-01 -3.9689170189862977e-01
      -1.3805649605643125e-01 3.7828449934208044e-02
      2.4746347371783980e-01 8.7725803835692288e-03
      -7.8003282437325268e-03 7.3041699236288338e-02
      2.6583881473915626e-02 -6.9821963273409681e-03
      -1.9737691041692396e-01 -9.2655032898055253e-02</_>
    <_>
      7.3339044817900146e-03 3.0865239795737052e-02
      1.1969043228761956e-02 -2.3400155751528321e-02
      1.3618368606433783e-04 2.1889504054302143e-02
      -4.0727768042168582e-03 3.0098297543755190e-02
      -3.2374660099172892e-02 -2.9603838571871086e-02
      -3.5557779850755436e-02 -6.2371728232898200e-03
      -2.5092242356432079e-02 3.0860859167182640e-02
      2.8796741272373187e-02 -2.7599991619941075e-02
      1.6179625229784462e-02 4.3154456234691836e-02
      1.3246129837401436e-03 -5.1551024698448168e-02
      5.9900078824467887e-03 2.3517307991895737e-02
      -1.7489478754313184e-02 2.1588641592951888e-02
      3.5538214128095623e-02 -2.6735656627905023e-02
      -2.6736158260120140e-02 2.3442453156131769e-02
      -1.6693214090481587e-03 7.1544205239540718e-04
      1.7902580626846163e-02 2.4591023356095823e-02
      3.4651999665497091e-02 -9.7128689380379055e-03
      -5.2376636214879480e-03 -3.1747971495489538e-02
      -8.1295186644085287e-03 1.6125820115634286e-02
      -3.6582115563595800e-02 4.3113327659191264e-02
      -2.3514164798974526e-02 -9.7767768532493176e-03
      2.1455809199950483e-02 -2.4399099461487508e-02
      -4.6940455380188560e-02 4.3206970354619352e-02
      -3.3082697715984946e-02 3.0113767748653458e-02
      -8.9265409788991720e-03 -5.0048507154584893e-02
      4.2384943086693258e-02 -7.5630265421003373e-03
      6.5893605966699980e-03 -4.0455503693029249e-02
      4.4715528783269190e-02 -3.1467146156197369e-02
      -2.6530070177291202e-02 -2.5434170387792065e-02
      1.0623888447129805e-02 5.9900620109492528e-02
      -1.2347117704663029e-02 1.0408181378355783e-02
      4.3375488762633689e-02 -1.5375036847482246e-02
      -3.1339112288420409e-03 -1.0104889941164690e-02
      3.1900464354282752e-02 2.2029142560461370e-02
      -3.8056340999562482e-02 3.0031925331692712e-02
      4.3874367755575176e-02 -2.8201253346959430e-03
      6.2906147825048442e-02 1.1628539328318945e-02
      -1.9282269850320607e-02 2.8752394808164671e-02
      1.1458674901458091e-02 -2.3825306279758582e-02
      -5.7809623169405551e-03 -1.6742969027098522e-03
      1.1628876945792130e-02 -2.6100475459506125e-04
      1.9840467846520937e-02 2.9539718599225055e-04
      -3.5189042289254194e-02 1.7073235431945843e-02
      -1.1240021198149387e-02 8.9791567662782651e-03
      -7.0501315918933327e-02 1.9476881172953407e-02
      2.5791317447090779e-02 -2.9468330111776499e-02
      8.2790491030232290e-03 1.8895855618107062e-02
      8.2835115674984763e-02 4.1842869131078549e-02
      3.1989319338491244e-02 2.6514239920416006e-02
      -2.7658171619402611e-02 3.1164606672662357e-02
      -7.0231124674603636e-03 3.0708118436007369e-02
      -1.1605529009237081e-03 4.0697182709740045e-03
      6.0870228888135021e-03 2.1700118885016537e-02
      -2.3265727013690264e-02 1.4580373990233052e-02
      5.8523179517224737e-02 -3.5657685831719937e-02
      -5.2040447710790950e-02 -4.7501221255663983e-03
      -3.0656728027829101e-02 -1.0770839864345511e-02
      3.5325108180433606e-02 -5.5426515487104984e-02
      3.3920170364875893e-02 5.9625578702728436e-02
      -1.3128196935772172e-02 -3.7279711505240599e-02
      -1.9816509720231006e-02 -8.1529378503119709e-03
      -2.8115786768234469e-02 -6.5308397852890023e-03
      1.3822535121822370e-02 -5.6726772106164829e-02
      -4.9833145878852202e-02 -3.9295787774475774e-02
      5.8648278407403059e-03 -2.4807329614646757e-02
      1.1525526637211157e-02 2.9076819164736301e-02
      7.7108209113679292e-03 7.5841150915844216e-02
      9.7606119325946222e-04 2.1467821376976837e-02
      -2.1431492721169509e-02 4.2104532446533220e-02
      -6.6431427813327974e-03 2.7372740547706862e-02
      -2.4692989138235720e-02 1.1013692764687185e-02
      -2.5299855762142068e-02 5.9946822967143279e-03
      -2.9037361448377787e-02 2.7502978725054512e-03
      -3.0888394783777889e-02 3.9426592981380215e-03
      4.5742793913042631e-02 -4.1577786984496948e-02
      3.4663986015689166e-02 -3.3040332930937964e-02
      5.3399784109204505e-02 6.6299548088094781e-02
      1.8557657154626584e-02 2.1585191888652697e-02
      2.8673825529214773e-02 2.3267419660121923e-02
      2.6409540727887676e-02 1.7968853463759617e-02
      3.6343012669456110e-02 -4.5547652572097946e-02
      -3.8547746121613630e-02 3.9538453956875864e-02
      1.0323230105197884e-02 -6.8426403428957491e-02
      6.4726321364932352e-02 -1.3103034729451219e-03
      -3.4753314445850059e-02 3.4127455297460912e-03
      2.2253881681302688e-03 2.2159548113676108e-02
      5.9890373042582920e-02 -2.8662443881509608e-02
      -2.3039153225581754e-02 3.6599918269923745e-02
      -4.4466463575941369e-02 2.3997273808180605e-02
      -1.4154969515921748e-02 2.1205656627608701e-02
      -9.9624288347891811e-03 -2.7065228659531725e-02
      -2.1063908934362403e-02 1.2254939323981383e-02
      -1.0743058079098432e-02 1.0219055405422761e-01
      -5.2913966040963420e-02 -3.3791267863858984e-02
      -1.8367561725489916e-02 2.7129097087311597e-02
      -1.2216651136596823e-02 2.7406942842905957e-02
      -4.5746815458744990e-02 -2.0578150544418576e-02
      3.5623370858736340e-02 -1.8018099894955435e-02
      -1.5832548178072021e-02 8.4158729154235248e-03
      -2.7279876763616717e-02 2.2385214155604995e-02
      -2.8595424981658336e-02 -1.8167463802959877e-02
      -6.0313218719407107e-03 9.8724921967727856e-03
      -1.1705192182703859e-02 1.9355329353621779e-02
      -5.2468091202727647e-03 -2.4861064647666596e-02
      -1.2531467400886887e-02 -6.7496400143207264e-03
      -4.7788791385170275e-03 9.6299182883488078e-03
      -1.5593702145089101e-02 1.3912225672392892e-02
      1.4646093577025157e-02 3.7880305209578784e-03
      -2.8164184290952979e-02 6.7375608428570958e-03
      1.5523475412858843e-02 2.3256935292263931e-02
      -1.9273042379193483e-02 -7.8717100796429681e-03
      1.9223079443028226e-02 3.8049654379341299e-03
      7.6845048616800884e-03 3.1739349426759614e-02
      8.5074481034201066e-03 2.2766221921189302e-02
      -1.2076482042633438e-02 2.2418131299382512e-03
      -2.1209774905841139e-02 -4.1910518886965793e-02
      -1.0119704559630257e-02 -3.6187928044074942e-03
      -4.2997166065070064e-03 2.2909876184777109e-02
      1.3276000313410877e-02 9.7723929801802730e-05
      2.2661626844189854e-03 -8.8956811158002955e-03
      2.7441725295197089e-02 7.1365598798697912e-04
      -8.3463319789776978e-03 -5.9732067434184561e-03
      3.1133014849656867e-03 2.9641334757820277e-02
      1.7311593299088244e-02 6.8594342663821873e-04
      1.4468490316363507e-02 9.5437985252929489e-03
      -2.1511207159804296e-02 -1.3810162599162483e-02
      -2.5728558839297833e-03 -9.3771479494007496e-03
      -2.9491977549329675e-02 -1.4921283662724291e-02
      2.1358517835370076e-02 -1.0983913803319718e-02
      -9.2949580886544664e-04 -6.8057175401499510e-03
      -1.5503594932928097e-02 2.1929429760951195e-02
      -6.0664311926479355e-03 -6.4366916927199760e-04
      -2.4889743783644776e-02 3.1290607839054361e-03
      -2.4868271865121621e-02 -1.0179185956076343e-02
      -1.4375915393138096e-02 -1.0240312272942418e-02
      -1.7538684619550902e-02 -2.9009367278230266e-02
      -1.9450881331865340e-03 6.4162107500916306e-03
      1.3403923006771455e-02 -1.3055693612289315e-02
      1.8616846625726349e-02 -1.8088725723917106e-03
      4.6125555350005724e-03 1.2103913541053238e-02
      1.2780932902415068e-02 1.7600189105724719e-02
      3.8916228217296435e-02 -2.0864954569818121e-02
      7.9758164745354493e-03 -2.5472950160332773e-03
      1.4805126607065105e-02 5.7594234104305217e-03
      3.4395694653391864e-03 1.4155974749005720e-02
      -8.1526904783267764e-03 7.9116641175402853e-03
      1.2367963854345878e-02 9.9334632573511179e-03
      7.3810925331332516e-03 -8.2967205738259889e-03
      4.2617951459153827e-03 -2.8534181007523165e-02
      -2.6570545651281689e-02 4.4601491182098968e-03
      4.6710956619979193e-03 -2.2765403282229854e-02
      -2.8148244578479580e-02 -1.6305944283017910e-02
      2.1480741868179984e-02 1.6035756698020008e-02
      -1.7760483670662203e-02 -1.5749626243634664e-02
      -1.6166903410401098e-02 -1.5995980660979479e-02
      2.3699061656613066e-02 -3.1800078398619959e-02
      1.1694619883975299e-02 1.6260011153892244e-02
      1.9117797679556941e-02 -4.8430480128045404e-03
      -1.8611351412440246e-03 1.4483959527117249e-02
      3.2801512454202264e-02 -1.0707798099119471e-02
      2.7175924673776827e-02 1.5520705831624243e-02
      -1.3394201809135640e-02 1.6313567737899600e-02
      -1.1149506966449681e-02 4.1604413215240131e-02
      -2.5493620965483299e-02 4.0203368049515457e-02
      -1.6251104424033394e-02 2.7389637479894122e-02
      -1.0417495141764868e-02 -4.3624666747637281e-03
      1.5415133934009164e-02 4.8309860491302318e-03
      4.3988740448766767e-03 2.8819613308602053e-03
      7.6506921595066993e-03 1.1630723557784148e-02
      -3.2148705922779609e-02 -5.4380518064152932e-03
      1.1288258768683418e-02 -6.0145848137694450e-03
      2.5090030861935116e-02 -7.9636008880131590e-03
      -6.3426405326841664e-04 5.9248129444901430e-03
      1.2169972639516956e-03 1.5326468354297230e-02
      -1.7883809047923773e-02 9.5334947690450334e-04
      -3.5270387626746315e-03 -5.9600540450006493e-03
      1.3146715933388429e-02 -1.1777451496446210e-02
      1.1466377414690960e-02 1.4280021546088107e-02
      -8.4208789776817998e-03 -1.7833292407374024e-02
      4.7062676384910613e-03 -1.1450512437303472e-02
      -2.3234303329565345e-02 7.2774270095941462e-03
      -3.2293587336867553e-03 -1.7006774991527225e-03
      1.8278542334070877e-02 4.6471141612455920e-02
      2.0274527785157408e-02 5.1610168617479265e-03
      -1.4504847828772462e-02 1.7327720600534710e-02
      5.4356894944083761e-04 -2.8507912356080141e-02
      2.0625995953104936e-02 1.5037976977445879e-02
      6.8642467616183353e-03 1.9452138361259062e-02
      1.7141242326647533e-02 -1.5654674669877584e-02
      1.8704923056458071e-03 -2.1315053149151993e-02
      3.4864824312971763e-03 -1.3147468505043501e-02
      1.0387613703176221e-02 -2.8844409054116681e-02
      -6.3247398988510364e-03 -3.3406137697687910e-02
      2.1106454111886764e-02 -5.1305371858228832e-03
      -3.2546713256781108e-02 3.5710479614224584e-04
      -1.0574761351550602e-03 -1.6875880054276676e-02
      1.6947805663469821e-02 4.8846769932473439e-03
      3.2733305621675736e-02 3.9420160650815279e-02
      8.2642384009880207e-03 -1.4070735735072505e-02
      -1.5202341856720380e-02 6.9398763671272342e-03
      -4.7217542980742870e-02 -2.0012524669343751e-02
      -4.0469134249109164e-03 -3.6606690535668064e-03
      -3.2842410061137875e-02 -2.1172201216477140e-02
      -1.9698450735327407e-03 9.0276953861108469e-03
      -3.0555053525388964e-02 -1.6749089457771132e-05
      2.1146872849510053e-02 1.3793165084164170e-02
      -1.2147935771950277e-02 -9.2800102547349519e-03
      -4.3938265954694307e-02 3.6651158189560107e-02
      -2.2813916336903311e-02 1.9425175018344353e-02
      6.6891273689375945e-03 2.7626996640910381e-02
      -1.1897056091241752e-02 -1.4526244033099782e-02
      5.4663493524167453e-02 2.8959725156647038e-02
      -7.2033014390184722e-03 5.0416548189094891e-02
      -1.0918462728153836e-02 4.3944912089644975e-02
      -1.4099709070181243e-02 -5.7002771187179948e-03
      -2.5492082820584322e-02 -4.2237896312368114e-02
      5.6534525904084225e-03 -6.9550960723632455e-02
      -1.4623573425003417e-03 1.8914304688660837e-02
      2.4368267894620793e-02 -4.9406664987046503e-02
      -3.7831853831971872e-02 -1.2067954495080658e-02
      2.4055525769790417e-02 1.0547317029767194e-02
      1.3865932355005745e-02 -4.1138919902378557e-02
      1.9319440328708710e-02 2.6700038282502281e-02
      3.6451627855077766e-02 -1.7240728152145397e-02
      -3.6900880118680680e-02 2.6590952050393420e-02
      -1.5760913508960344e-02 2.4079666750821040e-02
      -2.5230372959105064e-02 -4.4765438702782878e-02
      -3.2614335118510314e-02 -2.5911294320667057e-02
      9.1288736886272238e-03 -9.8158896299113483e-03
      -2.6328952283583233e-02 -2.6964904827463523e-02
      -3.5789225943309515e-02 2.7582559662050723e-02
      1.4443684550383298e-02 -3.4342733324081304e-02
      -2.2457298536686977e-02 2.2303079236144916e-02
      -3.6018429121795217e-02 2.9512432126174624e-02
      7.8042781967266875e-03 2.1355974429862829e-02
      -1.7354575356953887e-02 -3.5462876017164059e-02
      -1.5821126764916836e-02 3.8847263851546521e-02
      4.9994987036165667e-03 -3.7297331411921812e-02
      2.8874406483036227e-02 -1.8598483074041921e-02
      -1.7981525604010208e-02 2.2001208007310875e-02
      -9.4209628610708550e-03 3.6667004954266731e-02
      3.2771230306077447e-02 -4.0787908325835981e-02
      -1.0900486213234459e-02 -6.4110333307622128e-02
      2.9953822143157938e-02 2.0124685381934296e-02
      2.7518448266263072e-02 -2.0528903902287073e-02
      -1.2422991988480537e-02 -2.2387864652743502e-02
      3.9613387421485353e-02 1.2411561303726299e-02
      -4.9688319797856727e-02 -1.5224899774603224e-02
      1.8853741709847424e-02 -8.8890980972886318e-03
      -1.9819841699817833e-02 1.9730619939743798e-02
      3.6490537080390621e-02 2.0662129385747123e-02
      -1.8326231055501050e-02 -2.0123323732301256e-02
      2.9609900141615360e-02 8.9000242540540012e-03
      1.9485640121196773e-03 1.4580734173827983e-02
      1.0570498492080797e-02 4.2027827365021392e-03
      -2.7726877024950865e-02 -2.9487760412588833e-02
      -2.3332794438315575e-02 6.8391638192792249e-03
      3.1611820123704733e-02 -2.1742171026010684e-02
      1.3294847937247832e-02 4.5178783038032633e-03
      2.1658164529852763e-02 -6.6031390019738387e-02
      4.9026190093022426e-03 2.6070316731243326e-02
      -7.1268393734531893e-02 -3.3525985751596001e-03
      3.5224066677216274e-02 -1.1205380360841507e-02
      -2.2772250710897345e-02 -1.7395456562124316e-02
      -5.5356965793317914e-03 3.8932071179706457e-02
      1.0187817771484694e-02 3.8557173956141493e-02
      4.8505518621663139e-03 5.5545790111169814e-02
      -1.3244817783592605e-02 9.5610404223804672e-03
      -2.7062298987764768e-02 3.0278801694199692e-02
      -1.0254092104121635e-03 3.9409461044295345e-02
      -3.1065960397097601e-02 4.7141490633508202e-03
      -2.0356585765239753e-02 2.2264595098158181e-02
      -2.3471146187808361e-02 -1.7923686298648062e-02
      -6.3291053682750675e-02 2.9865485658145254e-02
      2.4367088046724186e-02 -3.1886393800426828e-02
      3.8720259020726157e-02 -1.9012466086821545e-02
      1.8816434775736936e-02 -4.9337637032556151e-03
      6.0635159634039579e-02 -1.8650115159359087e-02
      3.7664610955183081e-03 -1.6373809711752698e-02
      4.2596086831769150e-03 3.4427753512958521e-02
      3.4746559901316899e-02 -1.2399120173584742e-02
      -5.8764747449852033e-03 -5.0394679677597991e-03
      2.7286041061815772e-02 -1.5491105393715395e-02
      6.6372349654347629e-02 7.7884974533064142e-03
      -3.6179937437882954e-02 3.9844536631330587e-03
      3.3670211458337838e-02 2.0795625901501295e-02
      2.4137005961680020e-02 -2.4460880914373379e-04
      -6.7630486150398747e-03 1.2802239300900032e-02
      -3.3396049754230411e-02 2.6624562638612088e-02
      1.4734689181283936e-02 -3.5351473551531211e-02
      -9.0723539612603816e-04 -5.8654230964442309e-03
      -1.9201770481094806e-02 3.1309477587851728e-02
      4.1336399046849664e-03 2.0964417076621656e-02
      -1.8152403580328106e-02 -2.2364098673398079e-02
      -4.5027708214092986e-02 2.2410538927119899e-02
      1.0152941673907389e-02 -7.5197790016693616e-03
      -1.0601087657054581e-02 -3.0070245343246328e-03
      5.3718433937766159e-02 4.9858413564666290e-02
      9.8760560998065027e-03 6.7074776894635365e-03
      7.8929669673134060e-03 1.6469349562052537e-03
      3.0428916727295866e-02 2.7821074597214734e-02
      1.8263113801894930e-02 -3.9513275590672421e-02
      1.3424005952680798e-01 -1.4227482378122436e-01
      -5.0747098260002163e-02 1.1648741638662016e-02
      8.4387185921718205e-02 2.2175185426722346e-01
      -1.8484342853053906e-01 -4.0574621625232156e-02
      -6.4223838465133770e-02 2.5411737743806745e-03
      -1.8705459075727918e-02 -5.1395591175253448e-02
      1.0356583162527810e-01 -1.8514782672206417e-01
      2.2879800477339649e-02 -1.6359629668456865e-01
      2.4514708035658851e-02 1.1920946157906588e-01
      -7.8966523525350746e-02 -1.1777484008085667e-01
      7.6308964411222924e-02 -6.6541839582540147e-02
      6.5142016583125892e-02 -7.3728402954582273e-02
      -1.1114008647430704e-01 1.3192355820857846e-01
      -1.2579310420298337e-01 8.4643708612180679e-02
      1.9043541393647428e-02 4.5175889922572550e-02
      1.1359710019200189e-01 -1.7763879400421057e-02
      -2.0011919174797566e-01 -1.0420854843432249e-01
      2.6504639255993662e-01 1.6323601782878391e-01
      9.5103549529975944e-03 3.1671471011317516e-02
      -6.9565652794871966e-02 5.3715520736359594e-02
      1.2384777358887002e-01 -1.3182424654673727e-01
      -4.1643413376141733e-02 1.2693551650696405e-01
      -1.0673432835519716e-02 1.7443734332223615e-01
      -3.6867893173828194e-02 4.7199689969658933e-02
      -4.8325878617359298e-02 -3.6217958231123240e-02
      8.8828579984543632e-02 -7.6438242332899739e-02
      -8.8453226220834832e-02 -9.0086491396129106e-02
      -7.4145569945733514e-02 2.2838969265548643e-02
      1.5720894648930445e-01 -1.5539913575327552e-01
      1.2451390625213077e-01 -9.6240559908064544e-02
      4.5775504504835252e-02 -2.2445039684471799e-02
      -8.5854261415680005e-02 7.2726692691315459e-02
      8.1957134547410326e-02 3.3618733110511084e-02
      1.8116505281534881e-01 -8.3907672039993011e-02
      -1.0305677995852164e-01 9.5436631731960903e-02
      6.3431903812873492e-03 2.0046158883268092e-02
      -1.8723199083571507e-01 3.1057073515814982e-02
      -4.0842264373108367e-02 -2.0031223979705706e-02
      1.7117155355440411e-01 -1.9218453989079801e-02
      -1.1890236897046798e-01 1.7350556279321430e-01
      -3.2803656708434117e-02 -1.3392988358035998e-01
      -4.5050153331740922e-02 -3.3915129151559795e-02
      -4.0697145209580711e-02 1.3712029967714065e-01
      -8.6013512246217491e-02 -4.3898640455475528e-02
      -1.2527203628450589e-01 1.1639650863356110e-01
      -2.8373478721710851e-02 -3.1633640268965611e-02
      1.4172038994372693e-01 -9.2737951860291212e-02
      1.6397537652875271e-01 -5.9615593042417585e-02
      -2.8061104112345202e-02 1.9527812187713035e-02
      1.5783240843239031e-02 -1.2103318568167159e-02
      -1.2411418598271573e-02 -3.0503088496419119e-02
      -1.9710786564235395e-02 1.5303200342216260e-02
      3.2526634786665849e-02 -1.4957466349823103e-03
      4.1381738798990982e-03 -4.0483994105666044e-03
      -2.7011172078253052e-04 -1.5804963033868250e-02
      -3.1684541647512745e-03 -1.3273633384956355e-02
      -8.1608054336818649e-03 -8.9496539985956629e-03
      1.0532557393048609e-02 2.5809303862857014e-02
      -3.5711992167567000e-02 -2.1720261655751794e-02
      2.3339313962938327e-02 -1.4644681828917042e-02
      1.8658315732511147e-02 -1.2029005216637099e-03
      -1.3946074678847595e-02 8.6232092642093364e-04
      -2.4279715869060465e-03 -9.4672851181294617e-03
      -2.5441328726378786e-02 5.4718417598030953e-03
      -7.6798625470312460e-04 1.6019170951339905e-02
      9.5350593441489214e-03 8.4344127619774435e-03
      5.0904062064399038e-03 -1.5035813164649985e-02
      2.9263942715649770e-02 1.3670420421862567e-02
      6.4850938943178090e-03 1.4770304922868920e-02
      -2.1064214841120518e-02 -1.1624618520163553e-02
      8.5000970806188830e-03 -5.8728503940763737e-03
      1.7421554103267820e-02 -2.6586311501760603e-02
      1.6143727339364648e-02 1.0706324032008201e-02
      5.5156257611912634e-03 6.8661783846996668e-03
      -6.4609227023772198e-03 2.1876436473216573e-02
      -1.6073899976764193e-02 1.1491591790117347e-02
      1.5987134239834940e-02 3.4635802574464547e-03
      -5.1556018097620266e-03 -6.4724259372075906e-03
      6.7937550713007520e-04 -3.6534531875642241e-02
      -9.3568544795718522e-03 -8.4523727157879321e-03
      -2.7128617420344690e-02 -2.9270436864063214e-02
      -1.5545362127348354e-02 3.9340181451878401e-03
      2.0320827320142905e-02 1.3267540824961899e-03
      9.1322647905980638e-03 9.5878522056196697e-03
      -8.3036218600114587e-04 1.9122160708814017e-02
      6.6055308000406287e-04 4.7094917457666408e-03
      -1.6653857768231809e-02 -6.6873064386455683e-03
      -1.5633860549862343e-02 1.2438021607324523e-02
      -4.3488307244223499e-04 2.2202966272004104e-02
      2.3607780818214627e-04 1.5610306838135470e-02
      -4.1056026916167585e-03 -2.4322079894895265e-02
      -8.7924759185165383e-04 3.5144745501952605e-03
      4.2090052161671651e-02 -1.4344304388480996e-03
      -1.1764119092190179e-02 2.1618888508382169e-02
      -3.7528026529134687e-02 -5.7519813368173732e-03
      -4.5643008710177756e-02 -3.2797939940302043e-02
      9.8589842930451341e-04 -2.1287811541761424e-02
      -8.8578132530967614e-03 3.8820849825788560e-03
      -3.5928813269665828e-02 -1.3556660239168560e-02
      1.6857751846211740e-02 5.9337872692612073e-03
      -3.2895587149591607e-02 1.7483331593322819e-02
      -8.4076968536662012e-03 3.5333751063870247e-03
      -2.6728942514357153e-02 -1.4240032763640354e-02
      2.7385955010161573e-02 1.8196339832647374e-02
      5.2847910272881299e-02 -1.1934367617932805e-02
      -2.1413264099979488e-02 5.1068765183179279e-02
      -1.1688830098286741e-02 -8.5877064281220626e-03
      2.3791703227511170e-03 -1.4706704949030197e-02
      1.9368817924728630e-02 1.7131983537619039e-03
      2.1621710975474454e-02 3.9089503134766536e-02
      -2.8242549731820294e-02 3.8966158440881769e-02
      6.8323123813806971e-03 3.4721358357846501e-03
      2.5110931225719120e-02 -2.3545695052340831e-02
      1.9026671142937934e-02 2.0124034265782808e-02
      2.0573413673668581e-02 -3.4442306096361071e-02
      -2.6735274774203666e-02 1.1008838971358188e-02
      7.1227506492635506e-03 1.9545856746537214e-02
      -7.6051316558143726e-03 -1.9567721929533044e-02
      -1.2129038126292258e-02 -1.6418425117150928e-02
      3.1704748927360760e-03 1.5999650246697843e-02
      -8.2538659208349942e-03 2.2577558786794905e-02
      3.5642213793821310e-03 2.2777388124338261e-02
      5.0228997694993080e-03 -1.5300170832171844e-02
      -2.7629352975968146e-02 1.8735678711722041e-02
      4.1643704811683578e-02 -4.9908796854760490e-02
      1.9975242864185977e-02 2.5304441280387568e-02
      -1.6905195301590511e-02 -4.0649655884664399e-03
      4.9429478720630646e-03 -1.0411650200877448e-02
      -2.3925772093336666e-02 3.2016804882217254e-02
      1.6301608433479825e-04 2.9265549098662628e-02
      4.5190133989705056e-03 3.8325629167863466e-02
      -1.8853400631410271e-02 -5.0766753345477485e-02
      -2.1099539551550296e-02 -5.4058629256399940e-02
      -1.4077681927108629e-02 2.2182166469469900e-02
      8.2916510696439821e-03 -3.1114284840746916e-02
      3.0760330624668215e-02 4.0344763442740272e-03
      3.1932982247810875e-02 -7.3387351030467845e-03
      9.3637695276403039e-03 1.9242971482256756e-02
      -2.4163536491239396e-02 3.3196806204414286e-02
      -1.4679994830628536e-02 1.0676087798079572e-02
      3.1052815645579625e-02 -2.0619552964537054e-02
      2.2143024727013631e-02 3.5510740214524297e-03
      -4.3479284564353488e-02 -3.7832098566956643e-02
      2.0423109745600420e-02 -1.0033617890556183e-02
      3.5576366224000899e-02 7.0901464728208271e-03
      1.9945593177271632e-02 5.5985426672716665e-02
      8.2860222553612570e-03 -4.8505140641070012e-03
      -1.6285825360146952e-03 -7.3495929495957643e-03
      4.0900441820909711e-02 -4.4859362609345138e-03
      -8.1363823800107062e-03 5.0831828369249992e-03
      4.7196475381120241e-02 3.9295580539484093e-02
      -1.3121307302750814e-02 -4.1023359998599096e-03
      -5.4014682343495801e-03 -3.1412209799476891e-02
      4.8350023273655240e-04 4.1856185788910401e-04
      -2.2973441545459491e-02 2.5115126407484676e-02
      6.7182362275378465e-02 -3.9805298083663419e-02
      4.2049955472051514e-03 3.6584261105069169e-02
      2.8316081171551696e-02 -2.4255976345247551e-02
      1.5165112429319595e-04 4.6578232112373011e-02
      -2.9291866005317652e-02 6.0558303811320321e-03
      5.6187065996932319e-03 -7.1899013845769279e-03
      -3.1210009381621665e-02 1.3096158517316228e-02
      -1.0743650464697628e-02 2.7841311052963915e-02
      -8.6489415077988692e-03 -2.6612372681832679e-02
      3.3284042575961674e-02 1.2648413846583108e-02
      -4.3165205302590139e-02 -1.7676053336085479e-02
      -2.5618333353482859e-03 3.7155478172217184e-02
      -3.0598145013968053e-02 1.2531978148665617e-02
      -1.4533855757582459e-02 -4.5043027211103337e-03
      2.2157573792042022e-02 -6.3704913080218717e-03
      -5.2796364545618833e-02 1.1735706531812581e-03
      -4.6258936543580258e-02 2.0581690076922749e-02
      2.0065931670322949e-02 -1.4867823842449978e-02
      5.4383036991951336e-02 -5.4633258116789228e-02
      2.7462423046853653e-02 4.5138026416836445e-03
      4.1860998371329193e-02 -3.7848701290232066e-02
      2.6956794630218387e-05 -1.3896292821296488e-02
      7.3646222036656559e-03 1.5774059236137370e-02
      1.2368326212607687e-02 -1.8071811530524537e-04
      -1.4126149158078333e-02 -1.5897958951111235e-02
      2.1636407962164154e-02 -3.3453013820371122e-03
      4.0506872362590977e-02 6.9628116669187947e-03
      -3.3775266793722454e-02 1.8260254599837381e-02
      1.9178866646415087e-02 2.8638158424153095e-02
      6.1153762156146547e-02 -4.9855479674703954e-03
      -3.6887133871590261e-02 4.1884602649280067e-02
      5.3104837344094763e-03 1.9898523016458572e-02
      1.2596824183505240e-02 -3.3184941080816210e-02
      1.2828157014592691e-02 -7.7489786824060589e-03
      -1.9932858848650530e-02 -1.9623615525649118e-02
      4.9643685315210167e-03 2.3751786216252974e-02
      -4.5105602094014418e-03 -2.4267530157900410e-02
      -5.4869257773217522e-02 1.8284131230223280e-02
      3.2360892944883063e-02 -2.7014437202978341e-02
      1.0970992646118742e-02 -1.1110685242232366e-02
      6.4762673958003836e-02 5.6038102323842758e-02
      1.5951855374869071e-02 4.2674953925474143e-03
      -3.4199841954666355e-02 8.6923064020971528e-03
      -3.7380441282641119e-02 -4.2472651031642848e-02
      9.5499978368982375e-03 -1.4387093802499131e-02
      -6.9208003041412542e-03 -3.4537807790223640e-03
      -4.8431247792644202e-03 -1.7643860714407676e-02
      -5.2212030408531199e-04 1.5813462356827873e-02
      2.7722580172993047e-02 4.4661989993467228e-03
      2.1982569978539129e-02 -1.1211092103316422e-02
      3.0206770727967354e-02 1.1768030416500418e-03
      1.4565944106806811e-02 7.6856572824524185e-03
      -4.4394779667036643e-04 -2.4834856048714035e-02
      2.9268572306134031e-03 9.4353332929609270e-03
      -5.3190832888579042e-03 -1.2650532688881876e-02
      -1.5856796159463098e-02 -2.9815706273545401e-03
      9.9969449094553728e-03 -1.1483121195886795e-04
      -2.0442570771561385e-03 1.2902663563204303e-02
      -7.2994418233329013e-03 -3.4400096584818358e-03
      2.1406447981908477e-02 1.7615313673889473e-02
      -1.1753919357720738e-02 2.7865002120880653e-02
      4.7471020962079500e-03 6.1657743214416014e-03
      2.2014323426382126e-02 6.6735048263258023e-03
      1.6681871967251446e-02 -6.2535642636615037e-03
      -1.5470609085084231e-02 2.9077205085267944e-02
      1.9014365904027369e-02 -2.7378046782762462e-02
      9.7877235611344461e-03 3.0147544413910665e-02
      2.8377012226049905e-02 -6.5930457265411255e-03
      2.2862507385842366e-02 -6.0319078716034166e-04
      1.9566423166715342e-02 2.4392936952972490e-02
      1.8218899482281687e-02 2.8539762624852253e-02
      1.9449994902148045e-02 2.0748346004713339e-03
      2.2754896784638597e-02 2.9621500179854627e-03
      2.9110329375085758e-02 -4.2153142392388132e-03
      -2.2866023178201519e-02 1.7903636113433489e-03
      2.4581763453943296e-02 3.6089955277852637e-02
      1.8211542237312729e-02 -1.1375029854500354e-02
      -1.0320031225843943e-02 -2.1330354867849396e-02
      9.9078564211317350e-03 -1.5270593653449824e-02
      4.6290498277146794e-03 -2.4596865161743420e-03
      3.7217185987715444e-02 -1.7397617590660130e-03
      2.4045167397800855e-03 5.6156856524145820e-03
      1.7774788845202383e-02 -1.0921373070086716e-02
      7.2287374011505510e-03 -6.8675672208134714e-03
      -1.9159743324638808e-03 8.8661054282076161e-03
      8.7666733988786168e-03 -2.8725300548737408e-03
      1.5325776450466316e-02 -7.6010118367812619e-03
      -3.1179889538855730e-02 -1.4054688836605557e-02
      -2.2510027867019911e-03 -8.7995811500052000e-03
      2.3437675558766538e-02 1.8664178871809142e-02
      1.8915227173268778e-02 1.5553837590866683e-02
      -8.7657201085314211e-03 -1.1305843209104943e-02
      -1.1107457873792243e-03 4.4264151322957841e-03
      -2.6350412915079804e-02 -6.6384732156775216e-03
      3.5536276531544980e-02 -5.7508832551791803e-04
      -1.8624042415864808e-02 1.1537072604669109e-02
      1.4214159282927139e-02 -1.4929395703524946e-02
      -3.6390533354364429e-02 1.3062487791635265e-02
      2.0305476308312493e-02 -3.8671423779785973e-03
      5.5709268784921800e-02 1.8303878066243784e-02
      4.0397578612461731e-03 2.5398054528411592e-02
      -6.3063757339213312e-04 -3.7782907403857938e-02
      1.9204137834908406e-02 -7.1057401077511007e-03
      1.3617468433426504e-02 -2.0762486396968212e-02
      7.8665279891044718e-03 -3.1594012960382369e-03
      -4.6135250750955148e-02 2.0334053609889366e-02
      4.1943801645362808e-02 6.1552790850034874e-03
      3.4539284025503061e-02 -3.1210972672027527e-03
      3.4742509636528578e-02 -1.5311261426639515e-02
      5.6642275732484010e-03 -2.8756815767258387e-02
      -2.2751404092462877e-02 1.3062329152557874e-02
      3.7586317432401400e-02 -1.2178337138978384e-02
      1.3711279700174946e-02 -1.3741331203174774e-03
      1.8708413546374914e-02 -3.9533903805321048e-02
      2.4269814340418621e-02 4.8629228785657414e-03
      3.4397586057409543e-02 -2.2899027149684719e-03
      -9.0654619947512834e-03 1.8204123553308034e-02
      -3.7384134887130979e-02 3.2897248481490566e-03
      -3.3445587271973998e-02 1.3810742010484192e-02
      -1.2151076794270435e-03 -2.0256352180092557e-02
      1.8509097653308514e-02 4.4623813740086914e-02
      -1.5918998604198611e-02 -9.7892962320240799e-03
      -2.7252561299696346e-02 -3.5342216449132016e-03
      -3.0783256248067017e-02 4.2505480728745160e-02
      -4.3169410961379476e-04 9.5762465199811745e-03
      -6.0240992913490159e-03 3.4616463247705481e-02
      -2.6076828492949240e-02 -3.8799484197773307e-02
      1.1539979099969261e-02 -7.6348983600682983e-03
      7.3705350218000807e-04 -8.4234690572862671e-03
      3.0711076893767345e-03 2.0380907952110213e-04
      1.7354417805115654e-03 -5.0346381910093213e-03
      3.4792909819573663e-02 -2.3290296382651858e-03
      1.7989963244745421e-04 -2.1781974111502081e-02
      7.6789257729227419e-03 3.0423740250661326e-02
      4.3928598347415084e-03 1.8517853691537727e-02
      1.3642083810159055e-02 -3.0681904621507852e-02
      2.9911730787877382e-02 1.2646075320472235e-02
      -2.2742238639985504e-02 -4.6207414404441621e-02
      1.8214012273177628e-02 8.8269007667272723e-03
      6.2845476658883723e-02 1.4548180682248941e-03
      -1.9171265998652640e-02 3.4130341673469289e-02
      1.0356861282098808e-02 -2.4386886744040336e-02
      2.5782627771279234e-02 3.9414483756406646e-03
      2.3390362484522299e-04 -1.6899258970162260e-02
      7.3478946659734220e-03 9.7588517245769495e-03
      9.4248590483716858e-03 -4.4030902134929426e-02
      -1.7953451671445030e-02 -2.8984195193941461e-02
      -2.3681235418253805e-02 2.6560051861541568e-02
      -1.5433870380734450e-02 2.2958315084896990e-03
      1.8908440710221539e-04 2.4132749766886139e-04
      -5.2527559436536912e-02 2.5493204496171023e-02
      -7.1551307111826969e-03 -3.5758761147859086e-02
      7.5439944450960096e-03 1.0921681992803462e-02
      -9.5612928712853033e-03 -1.3464462871639379e-02
      1.4073594648325409e-02 -3.0102058170840648e-02
      8.3625445611542198e-03 9.1312390315793739e-03
      3.6868304493557914e-02 8.1652434716398443e-03
      -2.0611111752122619e-02 1.5975758226499243e-02
      -1.2346951593910051e-02 1.7443205899241622e-02
      8.7995683624666008e-03 -4.5989697319808613e-02
      3.9550685058933152e-02 1.0515889633670518e-02
      9.4235342217474094e-03 -2.6481382629268330e-02
      2.6513398929643547e-02 9.2856698745437446e-03
      3.6902154273874819e-03 8.6909816179916340e-03
      -1.0773510486181559e-02 -1.7968074866064238e-02
      5.4749562967229042e-02 -4.1290098526867861e-04
      2.5791815172617142e-03 -9.3449797641433664e-03
      -2.2630006911648990e-02 4.2840796242996595e-02
      -5.5780777248406264e-02 2.7983153416674570e-02
      -1.8487454212481581e-02 -1.7888779271425834e-02
      -9.9462947564463930e-03 1.2411831364696396e-02
      -1.3759802799947695e-02 -1.3702297197426232e-02
      -5.0033943323356984e-02 -1.9307969365908689e-03
      -1.6634260185443242e-02 -2.2908964866035861e-03
      1.1498117043691277e-02 -4.5839692602546592e-03
      -4.1889511900858559e-02 3.3690097841054145e-02
      -5.7001615354691122e-02 2.2638994377969027e-02
      3.6885490908644049e-02 2.7168455666781124e-02
      -1.3351408669604147e-02 -2.8643035878559212e-02
      -5.7040074746759130e-02 1.7308636820898469e-02
      -1.4674775093970050e-02 -6.7410375005252819e-03
      -9.5140626228006776e-03 -1.5113380591155553e-02
      -1.7762524596739607e-02 -5.9761581725447960e-04
      3.4351774056897259e-02 2.0724781142386042e-02
      -1.3786757149163654e-02 3.8029119216391578e-02
      -2.6500568620570373e-03 -5.1266373503232307e-02
      7.9019436011987798e-03 1.0420711378403455e-02
      2.0053512957020091e-02 1.6266867282553603e-02
      -3.0935898405101980e-02 7.6407079697997076e-03
      8.8736760578093741e-03 1.2240403684339559e-02
      -2.6686642396081657e-02 -1.4660283217023050e-02
      9.2915836535665888e-03 -1.8914443701472196e-02
      3.0611188947629486e-02 3.6154847668747043e-03
      -1.7400430972932385e-02 -1.0677662447269315e-02
      2.2449420003489439e-02 -4.8722906500365040e-04
      -3.5409627040231255e-02 1.4544901120971994e-02
      2.6623897211341029e-02 -3.4964941827548448e-03
      7.5073803312923470e-03 1.4404553743883899e-02
      3.2835895701917257e-02 -1.6001399935986732e-03
      4.9944596578884705e-02 -1.9672601590796247e-02
      -1.2252399353831454e-02 2.3412695415368490e-02
      3.7388583134745162e-03 -9.4645190469795724e-03
      8.0453793093399496e-03 -3.4583111647937141e-02
      1.1392839767583800e-02 4.1517721576341086e-03
      5.3501866150687961e-03 4.8670630010998368e-03
      -2.2042700851040677e-02 -1.7591733092912874e-02
      3.1014250480144164e-02 -2.0478331441225933e-02
      2.4621361315059959e-02 -6.4048365363528334e-03
      4.7225549034267351e-02 5.1640854039649631e-02
      2.9718107842573858e-02 -1.8659005541319117e-02
      -1.7158426086480758e-02 7.7548467864800635e-03
      -3.0538086868650033e-02 5.8150028418159361e-03
      -1.0914778912819282e-02 2.8828816365330603e-02
      -2.0466733863901822e-02 -1.8346064285515849e-02
      -1.6986020388368070e-03 2.4596547979724749e-02
      8.7863806007659976e-03 -8.3838771279940161e-03
      1.4251926783868225e-02 2.0488838458293572e-02
      -6.2226601335224696e-03 -2.9164008406691276e-02
      -9.3274175234870065e-03 4.4812359693119898e-02
      6.0089431988590507e-02 -2.5288583035868679e-02
      3.5503033273681629e-02 6.8730967003334822e-02
      -7.7752988975173494e-03 -2.6014571256782942e-02
      -1.4657455415022513e-02 3.8062575805817858e-02
      -2.0131426383363162e-02 1.9793279854615157e-02
      -1.2385053231974325e-02 3.0710317406409848e-02
      1.2894212532749012e-02 3.9328449021709511e-02
      7.7745533776846787e-03 -5.7177052565112928e-02
      -2.8296990274940599e-02 -4.4296938553434348e-02
      2.5514255557624155e-02 1.4420182234121132e-02
      5.5671276255837279e-03 -5.0907329788651375e-02
      5.2943562997258544e-03 8.7382819498701206e-03
      4.7157176941290034e-02 -6.9844770837078161e-03
      -4.3012152170729664e-02 1.1955628298187323e-02
      -2.5667562673077196e-02 3.5551408561233108e-02
      -2.8188546022227735e-02 4.6378299573311937e-02
      -6.7199128780930052e-03 -1.4388388165453772e-02
      -1.8737878099788535e-03 -2.8896830909154177e-02
      -2.8683187869756686e-02 -3.7864615794377200e-02
      2.5748176304516514e-02 -3.1842728454997853e-03
      1.0136646019601788e-02 3.9568666796459956e-03
      6.5430381805451172e-03 2.8571552139642378e-02
      -2.0933052725325529e-02 1.0974943009909890e-02
      5.0371437269511432e-02 -4.8218695135499893e-03
      4.4357873971006184e-02 -2.6886489806236639e-02
      8.2870646361098230e-03 2.2414828102160458e-02
      3.4040364642501861e-02 -7.7690793596171731e-02
      4.3876494863191361e-02 -4.3799465006214726e-02
      7.1869282272518046e-03 1.0366940647190533e-01
      6.0582503047846459e-02 3.1853736841087305e-02
      3.6351187271501141e-02 -4.7219037299598646e-03
      4.5218257875551757e-03 3.4013329922623577e-02
      -3.1240182630971620e-02 -1.1533839842791255e-01
      2.9607572887607184e-02 -8.6031630895575043e-03
      6.5477434219743974e-02 5.5122935237614239e-02
      -8.8953111264387791e-03 -6.7566826562717994e-02
      -4.9421513788045067e-02 8.4623859424148903e-03
      1.0666318333568089e-01 -1.7236177389147067e-02
      -1.1406281933852975e-02 7.1262355341138992e-02
      -1.7871990572628407e-02 -1.8799125147206093e-03
      4.0028873981657895e-03 -1.8669636170522575e-02
      -9.4641568741474155e-03 -2.5329602987874743e-02
      2.2170439132820304e-03 -1.7255184330387661e-02
      9.8436279345958458e-02 -4.7832742271946595e-02
      5.3906622882132452e-02 1.5802894101289787e-02
      7.9089389734319625e-03 4.3343050973055519e-02
      7.9097614033070959e-02 -9.0845279970044338e-02
      1.0128391256082057e-02 9.3721187132662000e-03
      -2.6891133987285366e-02 9.8517117918542757e-02
      -4.4128272616155768e-02 6.3012786745703278e-02
      -2.6497548968209241e-02 -1.9432384622648954e-02
      -3.8142795499376513e-03 2.8049307032097071e-02
      -1.5834742162797743e-02 -2.2054648617862545e-02
      -4.5426178485201273e-02 -3.6071387860820488e-02
      5.0596625028652212e-02 -1.7121598999924985e-02
      -1.5139016872704204e-02 -1.5263108010781819e-02
      7.9949878236106706e-02 8.8570582517522090e-02
      -5.5090273764676664e-02 -2.0127149933212619e-02
      6.2256284258572436e-02 -2.1312215097038262e-02
      2.8908337444954812e-02 -4.0847191815297966e-02
      -1.1066507051829338e-01 4.2703420193024581e-02
      3.3915152928475037e-02 -6.5482148459675732e-02
      -1.2910398256445726e-02 2.8792356615433765e-02
      1.8860545377232942e-02 -9.0018950444916340e-02
      4.4104672472909355e-02 -1.2912971079632215e-02
      -1.6383109084467651e-02 3.1877927277233174e-02
      7.0927879546794012e-02 -4.8906213660040110e-02
      2.2836123932408966e-02 2.6709303722590979e-03
      -4.6049864232866305e-02 -6.8170780453047060e-03
      -2.4041688770800547e-02 -2.3892127524921939e-03
      1.2160924474100604e-02 5.9039135841486928e-02
      -2.8609190697411028e-02 4.4077992861345491e-02
      1.0767710247403424e-02 -2.7393842731572575e-02
      8.8696625179842309e-02 -7.4402098454868282e-02
      -5.0665463248702461e-03 3.5960105586247161e-02
      -1.5776645719261011e-02 -9.3039741178272493e-03
      -1.2760968767924909e-02 3.3200456129287486e-04
      -2.0076478216295858e-02 -2.3117469838573667e-04
      -4.8520562607299728e-02 -2.1844698561317433e-02
      -5.5657743754014714e-02 -1.8346425147640989e-02
      -6.2673444667642575e-02 9.7898533512663678e-03
      -3.4983810900690429e-02 6.1004154280582170e-03
      1.5801278168250554e-02 4.3291066622229146e-02
      -1.7071164776942206e-03 1.4329785867951784e-02
      -1.9240820584950195e-02 -2.8174261414211987e-02
      1.6427193591787848e-02 2.7582263417795347e-03
      5.3309472153159281e-02 1.6676049292673436e-02
      -1.8768517235304111e-02 1.1501703866927150e-02
      -2.7513982093146455e-02 -2.2808206615370769e-02
      -2.5537427084620434e-02 -3.5493735806027796e-03
      1.3371078227088406e-03 -4.1349703261287819e-02
      3.9548939492295015e-02 -1.2344709703679716e-02
      5.9489799289027786e-03 -3.3455270996985927e-02
      1.8622661639891604e-03 2.1789831525056015e-02
      -2.0572700577981957e-02 4.5781208230525209e-03
      1.9423025987219462e-02 -4.6895781173653825e-02
      1.5699481406533183e-02 3.2634417730817246e-02
      1.8800809291247784e-02 -3.0567651140055913e-02
      -4.2647838179245751e-02 1.2760728930462187e-02
      -8.3550175753387794e-03 -8.5121310983241136e-03
      -4.3873096949594445e-02 -3.8558604827819344e-02
      -2.2941936205480725e-03 -5.5590862228656841e-02
      -2.5585287676761964e-02 -5.3914955957841690e-03
      -3.0312517084882282e-02 1.5319409024914523e-02
      -3.1047543802726891e-03 -5.1261527718174356e-03
      7.4898219608648578e-02 -3.3946973952162715e-02
      -6.5405316131829566e-02 -3.9737093417542765e-02
      -3.3037960514145613e-03 4.5063212131301406e-02
      3.8448944024891407e-02 5.1060753797196511e-02
      2.8103787924257082e-02 -1.0156006520974967e-02
      1.0431423771389099e-02 1.6779956004745668e-02
      -1.1458709078103185e-02 1.5342103602245498e-02
      3.6024402023734865e-02 -2.8275835405891275e-02
      -9.1208316687542111e-03 5.2061174022634035e-02
      -2.3967742422476312e-03 5.4414437387603817e-03
      2.8580138996870407e-02 9.8874218744323481e-03
      -1.8990022948871220e-02 -1.6101350297548143e-02
      3.9915541496186513e-03 1.7616051244146700e-03
      2.9275470278328827e-04 1.7967634902852164e-02
      -3.4552657515094121e-02 -2.1675615421253593e-02
      -1.1204547882466049e-02 1.6595290613538809e-02
      2.3396594186571302e-03 -6.0808787008321895e-02
      3.5346799920383240e-02 1.6254633019434719e-02
      -1.7717310423950541e-02 8.1155201417798858e-03
      -5.2762881819418808e-02 1.7481336109047266e-03
      -1.4080364497311940e-02 7.4542376786473109e-03
      2.5722345532804424e-03 -6.8482623565013431e-04
      -2.5420312942732285e-02 -1.2455722228529621e-03
      2.2818724540691504e-02 -1.3240342537800123e-02
      1.8340330087233043e-03 -1.9412755208026582e-02
      -1.6031599552685911e-02 1.9002183470690033e-03
      -9.7750161987178296e-03 1.5621600906938158e-02
      -5.6921919427326472e-03 3.5544210122181910e-02
      -2.8685686794950498e-03 1.4446247480040090e-02
      -3.6802681854749851e-02 -3.6609046964196763e-02
      5.1207878673426065e-04 1.4979204021121082e-02
      -9.3478352596759687e-03 -4.7707694164853065e-03
      -3.1098145417687941e-03 2.5231720632390070e-02
      -1.1496511728818075e-02 -3.1321481010559475e-02
      6.8799547898234416e-03 -1.6936759715939720e-02
      -3.1474214551556925e-02 2.3328966191511303e-02
      -1.0104760670356728e-02 3.1791254330421785e-02
      1.2154492808998692e-02 -6.3289270299608661e-03
      -3.7421710564745029e-03 -3.4953863926444333e-02
      7.6909286302113645e-03 6.0343670374016153e-03
      -1.2130951493885539e-02 -7.3133261073462692e-03
      2.2248777470634667e-02 2.3302253782418923e-02
      1.2697461869416666e-02 -1.8460822825716948e-02
      1.6696998541932419e-03 9.0469285998596852e-04
      1.1020192419361674e-02 -1.5083895723176902e-02
      -1.6211471288980267e-03 4.9686021877583869e-03
      -3.2539028808406166e-02 -1.5172255159860384e-02
      3.2967418587406962e-02 1.5562482951198477e-03
      2.7841878345356133e-02 -3.6761081119829439e-02
      -7.3188653164787936e-03 4.6321519752164971e-03
      4.9310810160064274e-03 3.7747734207288649e-03
      -2.2809646014673144e-02 -9.6100107143407155e-03
      -2.7617571390542977e-02 2.0932029766154679e-03
      -7.0998507791673361e-03 1.0621623375067064e-02
      -3.6713602474449089e-02 1.1123013979186058e-02
      -1.8320748753906536e-02 -1.6336047795682047e-02
      -1.1278552166709851e-03 -8.8178637174794530e-05
      -9.8273339066289375e-03 -1.7769762504070044e-02
      1.4524529810983473e-02 -5.4270363629811240e-03
      -5.9816663016937239e-03 1.7976056123533545e-02
      1.4342145991177765e-02 -2.5298120163521429e-03
      3.2180457049647755e-03 -1.3904882497697238e-02
      -4.3273335857101124e-03 1.9901581066066952e-02
      4.2785897592259141e-02 6.0469664353186127e-03
      8.5830888009938986e-04 3.2524388490677042e-02
      6.5951311392630219e-03 2.5267041336126040e-04
      -3.6698857597828344e-02 -4.6701418262684209e-02
      -1.4318062243899147e-02 -2.8714031450527429e-02
      -1.5360045459665262e-02 2.2380516903536554e-02
      3.7611759311195182e-02 -1.3874978124395627e-02
      -3.7764722375591878e-02 -7.4995936488126873e-03
      4.3200395595040485e-02 -4.3059476167822313e-03
      -5.9872290003524448e-03 -2.2864263251557351e-02
      6.4400096082122243e-02 2.4540071430171327e-03
      2.7327127139258091e-02 1.1903963605797612e-02
      4.3433844291038068e-03 -1.3862091712562771e-02
      1.2664841775377911e-02 -3.0230401973342747e-02
      5.0275551067247536e-04 -3.9009279771235653e-02
      8.3880164711982678e-03 8.7221110850684829e-03
      5.8565060368359501e-03 1.0424106267283302e-03
      -3.1032605085958086e-02 -3.5569570317028086e-02
      -2.3261778553837838e-03 -2.0239038167836832e-02
      -2.1686397408716839e-03 -1.4455830592012974e-02
      8.3529882519654212e-03 -6.9203252915328245e-03
      -9.7104057851629174e-03 -2.6564429150407121e-02
      -2.9184799006769246e-02 4.1806257278162291e-02
      -4.4200760552538972e-03 -5.1215427825689452e-03
      -1.0098643834323401e-02 -6.2773365556518697e-03
      4.9334955518802813e-02 -3.5644727757952410e-02
      2.7028431992834331e-02 3.6973751061566452e-02
      -2.2890324577791013e-02 1.8383631390239807e-02
      1.2858066485380218e-02 -4.1175377749732921e-02
      -2.0747289648170002e-02 -2.2481888917621526e-02
      3.3401454171597400e-02 2.0502841348595268e-02
      5.6621278414637662e-03 6.1146063590366692e-03
      -6.6651744631320122e-03 3.0753330971792905e-02
      -1.2626179827105873e-02 9.6696925059330877e-03
      2.2295293356673820e-02 -7.0946111066107695e-03
      3.3430948226015222e-02 -1.1165638181259806e-02
      2.8377283874594553e-02 -5.0476001659664552e-02
      -5.3302246230405470e-02 -1.7868706742865184e-02
      1.3919574955911547e-02 -3.8849697393665318e-02
      1.6746036378630269e-03 1.4604135609347924e-02
      -2.7135218412786717e-03 -2.1364480750156981e-03
      -1.0945167024690441e-02 1.4139705141816804e-02
      -4.6762075093482458e-02 1.3752807319235989e-02
      3.2144030972265203e-02 -1.7426828212542544e-02
      -6.4671699838981772e-02 4.9730285284719684e-02
      3.4678009464563980e-02 -9.4714646898847246e-03
      -2.3833196519966226e-03 -3.2631528342710700e-02
      -4.4543942839776876e-02 -3.6572394881976915e-03
      6.4466186447849358e-03 6.6774648652604294e-03
      -2.8668195636633958e-02 -1.0383999512829619e-02
      3.6798506155163113e-02 4.0305782407606003e-02
      -3.5867951553104002e-02 4.3064545839823672e-02
      -2.0524261191191877e-02 -1.1804332917015716e-03
      -4.8820840283968957e-02 -3.7089569840503232e-02
      -2.3040249483329042e-02 -6.4327163797023197e-03
      -1.6830795289986555e-02 -2.7027806981816255e-02
      -3.0098042228972307e-03 -1.6102767058294009e-02
      5.5976784680313177e-03 1.6106138847441904e-02
      -5.6016296622737353e-03 -3.0897436092976769e-02
      6.6238083688867919e-03 -9.1163114291682181e-04
      3.2775396015410053e-02 2.2646310151282108e-02
      -5.4301898334663777e-03 1.3554669641875577e-02
      -5.4544355910159954e-03 5.4087229170472796e-03
      6.1543638333543729e-03 2.7323772159483705e-03
      1.2209019628236671e-03 -2.0330848827291692e-02
      1.3804150807827719e-02 -2.0968944361056792e-02
      1.4135846755073450e-02 1.9130428122860116e-02
      -6.1557541465531900e-03 -2.9223619602918239e-02
      4.7417120862529505e-03 -1.2335418276254501e-02
      4.3607949345945687e-03 -1.2043318729920035e-02
      -2.6735325125701748e-02 -1.4108877951478912e-02
      -2.7446965050599396e-02 -5.7584206484453662e-03
      7.7121494561707494e-03 4.5110971751537332e-02
      6.4630742406030003e-03 -1.1764747904098041e-03
      -3.5157720996357208e-02 -1.4262056666208193e-02
      1.0280073998111526e-02 -2.6072600972294371e-02
      1.4301116892263448e-02 -3.3498010606856704e-03
      -2.3705123892154661e-02 7.3805672444082898e-03
      1.2140565336401373e-02 -1.6082295496827076e-02
      1.1932119441213111e-02 1.2493333029845986e-02
      4.2391254382436537e-02 2.4074358992725385e-02
      2.2662690679912272e-02 -2.0864646143477248e-02
      -1.7079364055507619e-02 4.4882897656384986e-02
      -9.2589114791598141e-03 -6.6597507804543009e-03
      6.4303575190417968e-03 1.2059329608884490e-02
      2.7783389899126463e-02 -2.6172498250729145e-02
      1.4433115902176788e-02 -3.5898502403647677e-02
      -7.4582605374269827e-03 -4.3333402453872277e-03
      1.0556711178255178e-02 -3.7850474893667004e-02
      -1.3184226710042922e-02 -4.7525919753436735e-03
      -4.0293783733928758e-03 2.8373706077491185e-03
      4.1514456413052157e-03 -3.0260413886450334e-03
      -1.7648118052141743e-02 1.1328138362851356e-03
      6.3998636713118251e-03 -4.0730329128119335e-03
      -2.4222836692386712e-02 5.4762135693289119e-03
      1.9999883323650762e-02 -1.4281257808939530e-02
      1.5488517271963950e-02 -1.0123347684454592e-02
      -3.4366766315342301e-02 2.8567559828735437e-02
      1.1302841930130796e-02 3.4352798641178378e-02
      -2.6650532067956784e-02 -2.4621254869331158e-02
      2.5074094992453042e-02 2.8693382294337082e-02
      -1.9276399858491059e-02 1.4188864886286883e-02
      -2.2135258806944152e-02 -2.2399068733822660e-02
      -4.7368971328514194e-03 1.0628003855154868e-02
      -9.3726680089521851e-03 1.0905979273306044e-02
      -5.6295002140490250e-03 -2.6865333435827421e-02
      2.6257189539284367e-02 -3.1247762504528719e-02
      -7.1978966399333056e-03 2.0946344572835059e-02
      3.1772839369136767e-02 -2.9289892168488939e-02
      9.8479702230995034e-03 -1.4148464818021384e-02
      2.8049206592196875e-02 2.8761253665244416e-02
      3.7269433360518189e-02 8.2525202690660222e-03
      2.3061661090407387e-02 -1.9031227972897614e-02
      9.5905622986930342e-03 -3.8360338373755886e-03
      -2.3925741821444493e-02 -5.8784656184608562e-02
      7.9250386293856466e-03 5.2149078268472558e-02
      -1.5707559770706283e-02 2.1227090644819074e-02
      2.8988623171751316e-02 -5.5070398420992463e-02
      -2.9009717807229447e-02 6.0067416809914476e-03
      3.6982176795498020e-02 -5.0707686635161455e-03
      1.8424169394246324e-03 6.9936280000035623e-03
      -6.5502002259193379e-03 -5.7494692672585945e-02
      -1.7867996567484314e-02 1.1501750246056016e-02
      -1.6194586071119468e-02 8.5386269039328111e-04
      -5.8921621986294105e-04 -1.4736812600018034e-02
      3.0769912660939747e-02 -4.2566966944560289e-02
      4.2862077976020367e-02 2.1501502410687327e-02
      -2.0157872657182021e-02 1.8301583766517422e-02
      3.3019920215567114e-02 -3.2595941687652168e-02
      2.4137037629242304e-02 -3.6109864185024175e-02
      2.6701371498604048e-02 7.2656339233381911e-02
      -5.0142655988335057e-03 5.0930802115647040e-03
      -2.0033982262241970e-02 3.6574470592314799e-02
      -6.7465450587190459e-02 -1.9428232370228778e-02
      3.0830189130455217e-02 6.9326889016278741e-03
      1.6447254740080196e-02 -5.6077582921500363e-02
      1.1104186076183142e-02 -8.0903305379738024e-03
      -5.8973209772238279e-02 -3.0521168922807217e-02
      9.5125630809777886e-03 -2.1297857202703052e-02
      -2.2446382787139896e-02 5.7697912282176494e-03
      4.1945098523777272e-02 -2.0695674273173384e-02
      -2.1381292461604574e-02 -3.8785880985139881e-02
      -3.1979661394400054e-02 4.3239689042537397e-03
      3.2064949702489019e-03 -3.9602236329477097e-02
      -3.9744607581729020e-02 1.7771342580586522e-02
      4.3980273318270049e-02 -4.4071783450124559e-02
      1.6773597808658513e-02 -1.5333974984194164e-02
      -3.1182871143784637e-03 -1.5765523064914014e-03
      4.5547224880050904e-02 1.9079517185058820e-02
      1.0304192492538783e-02 9.7868955489067416e-03
      3.8260704616961912e-02 6.8793108411130746e-04
      -1.8865358088786397e-02 4.1879868537546952e-02
      -2.6540601055848718e-02 -6.1616269747938246e-03
      -6.6862062888319321e-02 -1.0347770751461599e-02
      -6.3042500765984368e-03 -1.8081538720871451e-02
      -3.9321853746119902e-03 -4.6569825651414737e-02
      -9.2965234955170520e-03 2.6393136424208742e-03
      -5.1181791256150163e-03 -2.0159433841599420e-02
      1.3574310536220968e-02 -6.2027735892622024e-03
      -1.9819365959575338e-02 -1.4611414368147108e-02
      -4.6034395591036337e-02 2.7543960412754549e-03
      2.4296159025804765e-03 -1.1413869522574940e-02
      -3.8872348356434612e-02 -1.0199824657031993e-03
      -4.5118341491712354e-03 8.5937186298703176e-03
      -3.1380431392443155e-02 3.3654644985632365e-02
      4.4540075580547060e-03 3.5741810541676779e-02
      -2.9574449241206231e-02 -6.0650179249056033e-03
      5.2079729269492864e-02 1.9416281492531277e-02
      -1.0473294703994360e-02 6.1827921539811592e-02
      -2.4173106951289693e-03 3.0444435700778691e-02
      -1.9599443132066140e-02 -2.5785106300899634e-02
      -4.2011200699700546e-02 -6.8014734925746431e-02
      5.4990371045823445e-03 -3.7626588552068643e-02
      1.5285138355809118e-02 -2.2998118217215373e-03
      4.2997188071948481e-02 -4.1401570711991360e-02
      -2.6545396900686451e-02 -1.8405890212110081e-02
      9.8693693707068830e-03 -1.5058239225193552e-02
      4.1181633119595724e-02 -3.4488173815699179e-02
      3.0859397844973338e-02 1.6427234124243888e-02
      3.0276647959632044e-02 -8.2531865671960029e-03
      -4.1613832544615023e-02 4.4693816843164126e-02
      -7.1238734188954506e-03 2.6213360275651946e-03
      -7.1480610477709261e-02 -2.4969013213656466e-02
      -2.3878154458816553e-02 -3.3014500314502510e-02
      4.9409382874655693e-03 -1.0092531611128561e-02
      -4.1695546448476041e-02 -4.1768512923820313e-02
      -1.3987023594547322e-02 3.3323251058458660e-02
      5.2744951416460822e-02 -3.8944294140473963e-02
      -6.1018050801578821e-02 -1.1704145907238816e-02
      -2.6200089174495716e-02 4.8567819282347859e-02
      5.0313983775423232e-02 3.4212305025834187e-02
      -1.0386120639238430e-02 -2.6073215509979947e-02
      -7.5222945013961222e-03 3.6707261470068274e-02
      1.2507102127217071e-02 -1.9178836479018174e-02
      2.8519904807391555e-02 -3.3420714064884408e-02
      -2.2535739157314091e-03 -2.1910345529618975e-02
      -2.9450563014245848e-04 2.5225652523156561e-02
      5.1063472952638238e-02 -4.1996834430604084e-02
      1.4497136549367854e-02 -3.6385831545180596e-02
      1.8901040059120463e-02 4.3243955128548221e-02
      -5.7274374516888245e-03 2.4681261034387024e-02
      -1.0410289822425192e-02 -9.3592469005006546e-04
      1.5381692289260293e-02 1.9695359832876659e-02
      -5.5141066446505209e-03 -1.2495879773423922e-02
      4.0973771894109806e-02 4.4826931642131000e-04
      -1.7495474901621821e-03 3.7418102717027467e-02
      -2.2369779803368219e-02 -3.4073265135224060e-02
      -3.8847037837438187e-03 1.2130865160931746e-02
      -3.5112855389001524e-02 -5.5073425020605643e-03
      5.3767533194097458e-03 -1.6422881584678424e-02
      -1.8438842386137883e-02 1.4493566135352503e-02
      2.8690149696855190e-02 2.2157341278717862e-02
      1.8160696338274974e-02 -1.2436352528129762e-02
      -4.0603532447813034e-02 4.1707860584981049e-02
      -3.5894702957686438e-02 -2.9280105128827567e-02
      -6.6004931983280534e-03 4.3802576834092916e-02
      5.0654637109638495e-03 -2.7226362900008842e-02
      4.1741303854288120e-02 -8.9451231625963332e-03
      -3.7817139323407030e-02 3.3732847910468641e-02
      1.0941811576401603e-02 2.5191414329639616e-02
      2.3204231507094861e-02 -3.2649967254681299e-02
      2.3964744180057989e-02 1.4388298096106198e-03
      -4.7464548372557862e-03 -1.8800197795162621e-02
      1.5199627635062201e-02 1.0576442329262640e-02
      2.0845100337399270e-02 -6.5265608251537273e-04
      1.1101484787080590e-02 -3.6575850193021592e-02
      3.0705139361326416e-02 1.7555535399852443e-02
      3.8244665599353796e-03 -1.5964263325962069e-02
      2.4797067483794805e-02 5.9613585582826405e-03
      9.3558271753377432e-03 -1.3252096648443502e-02
      -3.2334523820571691e-02 -2.6874042865706487e-03
      -2.7146405206892810e-02 8.5746369509756473e-03
      -1.8515724937762046e-02 -2.4942145159302039e-02
      -3.2718869145216288e-02 2.8422794838662206e-03
      2.2957360527571587e-02 3.3849697760297777e-04
      -1.9900426202375445e-02 -4.2398809843780860e-02
      -1.5789163791378333e-02 9.1038988428115766e-03
      -1.6304616751663410e-02 -2.0673780319352904e-02
      -1.1515968074885714e-02 2.7348180107943626e-02
      -2.7122327635359565e-02 -1.8261612912884539e-02
      3.1182890889939439e-02 1.4312944748716321e-03
      -4.1141238438931686e-02 1.3785381716854724e-03
      -3.6774597584822988e-02 1.4001477575299478e-02
      2.3317430485128722e-02 -4.7162745257446223e-02
      2.1675130294617453e-02 -2.2207740098853582e-02
      5.4133851571083408e-03 1.4814676339428328e-02
      -2.0868822850831061e-02 -4.2383099838191546e-03
      -7.3190869644363255e-04 -2.1415478973481394e-02
      3.3624786736595483e-02 -3.3632244885632455e-02
      1.3141882770143457e-03 6.9881142291131253e-03
      5.5623883581648985e-03 -9.1616377098415920e-03
      5.6378541426724688e-03 2.2355345617233291e-02
      1.9117186812951319e-02 1.0766912320410865e-02
      -4.9913931627599412e-02 -1.2660251705942692e-02
      6.2312867037018303e-03 -4.0654812055844144e-04
      2.5179350126465747e-02 -1.8979879533485337e-02
      4.6635001007279159e-02 1.4149784850681166e-02
      -1.8130180869214529e-04 1.3855265614073568e-03
      1.1033977584765193e-02 -7.9002530295387875e-03
      -1.0122485884331567e-02 -3.2772000112724592e-03
      5.2763464968392661e-02 3.2010431071086191e-02
      -3.9572517982595840e-02 -1.2426977074502191e-02
      -1.3806655432042087e-02 -1.8839878007978754e-02
      3.9508184118953474e-02 -4.6711794642804658e-02
      1.1636911963545807e-02 -1.2204341808587404e-02
      7.2331552100983699e-03 -5.7570893268463895e-02
      -1.4525423657177263e-02 4.5920137288695671e-02
      -2.6950263582543450e-02 -7.3041316359056226e-03
      9.9741240351377044e-03 -3.5457355802786771e-02
      -1.4492930491860991e-02 -4.7605740656508362e-02
      -1.4130071220280906e-02 2.9158885073267374e-02
      -1.3054047836272170e-03 6.3123082271465319e-02
      -1.1192586633170234e-02 5.1496119701379191e-02
      -5.2266095672198155e-03 1.5960666455005338e-03
      -3.5998590813912677e-02 3.4632771139036921e-02
      3.3363853214774426e-02 4.4418528198903032e-02
      3.0940532381602665e-03 -1.8913825618076549e-03
      -3.7182828237714537e-02 3.2767091869223920e-02
      -3.0505879951594778e-02 -4.6027259861732277e-02
      -3.1358449216846454e-02 4.0441880123628968e-02
      1.7492947064552407e-02 -8.5105651575615223e-03
      1.8818598833809992e-02 -1.1990209056039643e-02
      5.1663069600112509e-03 1.6099103435584114e-02
      3.3256844328917248e-02 2.4741743157500972e-04
      -7.1769545498054695e-03 -1.7083264512181586e-02
      5.8327839192751129e-03 2.2688052124694678e-02
      4.0268503384559909e-02 -5.0392346701464731e-02
      -3.2844050594841544e-03 1.7619605351667240e-02
      2.9636152313524875e-02 -4.3117676047447262e-02
      3.5177961160637129e-02 1.4828185454845957e-02
      -2.3958139264969353e-03 -9.1137160934966002e-03
      4.9180726718447518e-02 2.8089698006302316e-02
      7.0791233974974840e-04 -2.8582115621999239e-02
      -3.8602224864006146e-03 1.3514193395749163e-02
      -3.3030613322607170e-02 4.2348268849133876e-02
      -5.4484986512513571e-03 -8.8686480980841864e-03
      2.1132844307260850e-02 -2.3668945187096627e-02
      -3.4546855526539223e-02 4.2701769234069126e-02
      6.9378527453614631e-03 6.0564199777571305e-02
      -3.0417957688180609e-02 -2.6992670877443174e-02
      -1.7181689859625466e-03 3.9483876603084778e-02
      -2.8649951387127063e-02 -3.0279044225018037e-04
      -5.7513948128092504e-02 -1.8641153954311880e-02
      3.0895128015903533e-02 1.1556753331947604e-02
      -2.1748966281886058e-02 5.8723265360787879e-03
      2.8372703076422662e-02 -3.6633629174932993e-02
      -5.5555207693969079e-02 1.4504922425167481e-02
      2.0028439348241247e-02 -3.0612827665319332e-03
      -5.2808043549947600e-02 1.2491853007945791e-02
      -8.2312785547784539e-03 1.3679286509646558e-02
      3.7921235709364306e-03 -4.3230964374754162e-02
      3.1498177862327809e-02 1.4428602477725556e-02
      -2.0440966037430008e-02 -6.5117780207876712e-03
      -4.0585493127132310e-03 1.3745789913391118e-02
      2.6405521970914252e-03 4.3711411236672278e-02
      -1.7856752338860526e-02 5.3390212392766527e-02
      -4.8738943685494668e-02 -3.7293817710750722e-02
      4.9334786484087602e-02 1.5125432906924124e-02
      7.4217079384147500e-03 -1.2993001647678366e-02
      -3.1899978344926153e-02 -1.4401475742366315e-02
      4.1405386215055169e-04 -6.8508622244072545e-02
      1.9528501771615130e-02 -8.5240648298596060e-03
      -4.1626285813214703e-02 1.3684109863055417e-02
      -2.5314679487247658e-03 4.4268439063265733e-02
      3.9146055856114192e-02 3.2049346357051712e-03
      -2.0093949573221925e-02 -2.8508985007956116e-02
      -1.5655322522302353e-02 5.7045678164612699e-03
      -2.6111766752218685e-02 1.1716234965195735e-02
      8.0654168503558055e-03 4.1475155288702117e-02
      4.4030628855155636e-02 -5.5646990450317312e-02
      9.7918877789064159e-03 -1.0633460841947179e-02
      7.9382028983576054e-03 1.5123378256707068e-03
      1.0428354438999445e-02 5.7803788010172129e-02
      -7.4427112714992028e-02 3.1087419090034523e-02
      3.2107103666431769e-02 2.9913153303456164e-02
      3.3125645828917576e-02 -2.0996723205592108e-02
      -8.1180023049095881e-03 -1.1828920159559601e-02
      -2.8603304516001099e-02 -6.5392534239303380e-03
      -2.8909463497529014e-02 -5.6140868215469632e-02
      -2.3460736609761623e-02 7.5390349535894479e-03
      -2.0070266481849810e-02 1.2312279113430529e-06
      -5.7377091834171709e-02 2.4583274241070735e-02
      1.9370452432357233e-02 -2.9535348057402870e-02
      1.4523966141864486e-02 -6.1216507778148561e-03
      -3.1311987118045124e-03 1.0046691939157720e-03
      6.1724489359308637e-03 5.0278648424179402e-02
      -2.6349864453641594e-02 2.3171858595425303e-04
      1.1957500440777494e-02 -3.1147487007517266e-02
      -1.3345353602329491e-02 5.3051498564486058e-02
      -1.0734354149449543e-02 1.6953838467163904e-02
      6.6937665625440637e-02 -1.7804555765066198e-02
