<?xml version="1.0"?>
<opencv_storage>
<my_svm type_id="opencv-ml-svm">
  <svm_type>C_SVC</svm_type>
  <kernel><type>RBF</type>
    <gamma>5.3830000000000000e+00</gamma></kernel>
  <C>2.6699999999999999e+00</C>
  <term_criteria><epsilon>1.1920928955078125e-07</epsilon>
    <iterations>1000</iterations></term_criteria>
  <var_all>12</var_all>
  <var_count>12</var_count>
  <class_count>6</class_count>
  <class_labels type_id="opencv-matrix">
    <rows>1</rows>
    <cols>6</cols>
    <dt>i</dt>
    <data>
      0 1 2 3 4 5</data></class_labels>
  <sv_total>309</sv_total>
  <support_vectors>
    <_>
      1.50387394e+00 1.03409290e+00 1.03409290e+00 1.51711369e+00
      6.15224481e-01 7.07486689e-01 1.36939025e+00 9.54242527e-01
      1.11902308e+00 1.34287083e+00 1.41784525e+00 1.23343384e+00</_>
    <_>
      1.63615286e+00 1.35800171e+00 1.35800171e+00 1.66079926e+00
      7.84100890e-01 7.84100890e-01 1.52010334e+00 1.07918119e+00
      1.34642351e+00 1.46649039e+00 1.50851667e+00 1.41625440e+00</_>
    <_>
      1.68810594e+00 1.30639195e+00 1.30639195e+00 1.69975030e+00 0.
      3.49485010e-01 1.62533200e+00 1.14723313e+00 1.48563790e+00
      1.56452250e+00 1.56820178e+00 1.51851392e+00</_>
    <_>
      1.69235587e+00 1.35548151e+00 1.35548151e+00 1.66408777e+00
      7.84100890e-01 7.78151274e-01 1.63914812e+00 1.23119903e+00
      1.40104461e+00 1.56225216e+00 1.55258477e+00 1.39828718e+00</_>
    <_>
      1.55155957e+00 1.18274403e+00 1.18274403e+00 1.53995228e+00
      6.15224481e-01 6.98970020e-01 1.42161644e+00 9.56906915e-01
      1.32418001e+00 1.36336362e+00 1.40104461e+00 1.32221925e+00</_>
    <_>
      1.54389071e+00 1.14277864e+00 1.14277864e+00 1.53316295e+00
      7.07486689e-01 7.78151274e-01 1.43016899e+00 1.07918119e+00
      1.21162295e+00 1.36336362e+00 1.38171399e+00 1.20496655e+00</_>
    <_>
      1.48307085e+00 1.05697167e+00 1.05697167e+00 1.48307085e+00
      6.98970020e-01 6.98970020e-01 1.38320637e+00 9.54242527e-01
      1.08513081e+00 1.34287083e+00 1.39932537e+00 1.25594163e+00</_>
    <_>
      1.60966122e+00 1.31214106e+00 1.31214106e+00 1.64176369e+00
      4.77121264e-01 4.77121264e-01 1.54317987e+00 1. 1.28114641e+00
      1.50851667e+00 1.54688585e+00 1.50536191e+00</_>
    <_>
      1.57072484e+00 1.19896996e+00 1.19896996e+00 1.56110799e+00
      6.98970020e-01 6.98970020e-01 1.45181620e+00 1.00216067e+00
      1.32660627e+00 1.40645671e+00 1.41625440e+00 1.32221925e+00</_>
    <_>
      1.44296312e+00 9.95613039e-01 9.95613039e-01 1.44296312e+00
      6.02060020e-01 6.02060020e-01 1.43607819e+00 1.00216067e+00 1.
      1.36539114e+00 1.34642351e+00 1.23044896e+00</_>
    <_>
      1.64255357e+00 1.35800171e+00 1.35800171e+00 1.63063145e+00
      7.84100890e-01 7.78151274e-01 1.49671817e+00 1.04139268e+00
      1.32418001e+00 1.43868566e+00 1.40104461e+00 1.36213791e+00</_>
    <_>
      1.38394880e+00 1.10205996e+00 1.10205996e+00 1.46006167e+00
      6.02060020e-01 6.98970020e-01 1.30372751e+00 9.56906915e-01
      1.14723313e+00 1.27875364e+00 1.36819828e+00 1.17991769e+00</_>
    <_>
      1.58291876e+00 1.15903163e+00 1.15903163e+00 1.54845500e+00
      6.98970020e-01 7.78151274e-01 1.47025824e+00 1.04139268e+00
      1.27935433e+00 1.41784525e+00 1.42623997e+00 1.27935433e+00</_>
    <_>
      1.62883925e+00 1.34287083e+00 1.34287083e+00 1.63146269e+00
      8.45098019e-01 7.84100890e-01 1.45181620e+00 1.07918119e+00
      1.32660627e+00 1.38357794e+00 1.41625440e+00 1.23710811e+00</_>
    <_>
      1.66090274e+00 1.37486815e+00 1.37486815e+00 1.66090274e+00
      9.56906915e-01 1.00216067e+00 1.53995228e+00 1.17705417e+00
      1.36539114e+00 1.45154500e+00 1.47928190e+00 1.20496655e+00</_>
    <_>
      1.65534663e+00 1.38762307e+00 1.38762307e+00 1.66316795e+00
      8.49484980e-01 8.49484980e-01 1.52010334e+00 1.07918119e+00
      1.36336362e+00 1.46649039e+00 1.46649039e+00 1.38058794e+00</_>
    <_>
      1.61927390e+00 1.30103004e+00 1.30103004e+00 1.61700547e+00
      9.06456649e-01 9.06456649e-01 1.49671817e+00 9.06456649e-01
      1.30157220e+00 1.43461585e+00 1.44963658e+00 1.41497338e+00</_>
    <_>
      1.67081618e+00 1.42161644e+00 1.42161644e+00 1.68133545e+00
      9.56906915e-01 1. 1.50788939e+00 1.08513081e+00 1.41497338e+00
      1.43255198e+00 1.43868566e+00 1.32221925e+00</_>
    <_>
      1.51448882e+00 1.02653921e+00 1.02653921e+00 1.53166664e+00
      6.02060020e-01 6.15224481e-01 1.46470952e+00 1.11394334e+00
      1.15051496e+00 1.39932537e+00 1.44826317e+00 1.27875364e+00</_>
    <_>
      1.53759098e+00 1.11522448e+00 1.11522448e+00 1.52010334e+00
      6.98970020e-01 6.98970020e-01 1.43461585e+00 1.14612806e+00
      1.23343384e+00 1.34420991e+00 1.36336362e+00 1.11394334e+00</_>
    <_>
      1.44296312e+00 9.64709461e-01 9.64709461e-01 1.44991028e+00
      6.98970020e-01 6.98970020e-01 1.42192769e+00 9.56906915e-01 1.
      1.34948504e+00 1.36819828e+00 1.25527251e+00</_>
    <_>
      1.70564151e+00 1.36779940e+00 1.36779940e+00 1.71284866e+00
      1.04139268e+00 1.04139268e+00 1.63765574e+00 1.23119903e+00
      1.43607819e+00 1.53759098e+00 1.54949486e+00 1.51851392e+00</_>
    <_>
      1.62521005e+00 1.31824398e+00 1.31824398e+00 1.62337232e+00
      8.49484980e-01 8.49484980e-01 1.52653921e+00 1.04139268e+00
      1.34642351e+00 1.49226367e+00 1.43255198e+00 1.08513081e+00</_>
    <_>
      1.62521005e+00 1.34287083e+00 1.34287083e+00 1.63765574e+00
      7.07486689e-01 7.84100890e-01 1.51448882e+00 1. 1.27935433e+00
      1.47928190e+00 1.48307085e+00 1.43136382e+00</_>
    <_>
      1.69235587e+00 1.30639195e+00 1.30639195e+00 1.69190764e+00
      3.01030010e-01 5.00000000e-01 1.61637104e+00 1.14723313e+00
      1.48307085e+00 1.56676948e+00 1.55258477e+00 1.38021123e+00</_>
    <_>
      1.62201476e+00 1.34642351e+00 1.34642351e+00 1.63063145e+00
      7.84100890e-01 7.84100890e-01 1.47736239e+00 1.08068395e+00
      1.32221925e+00 1.40104461e+00 1.39932537e+00 1.20496655e+00</_>
    <_>
      1.53759098e+00 1.11522448e+00 1.11522448e+00 1.52010334e+00
      7.78151274e-01 7.78151274e-01 1.45637667e+00 1.17705417e+00
      1.20748663e+00 1.34420991e+00 1.36213791e+00 1.</_>
    <_>
      1.71284866e+00 1.36779940e+00 1.36779940e+00 1.70848656e+00
      9.06456649e-01 9.54242527e-01 1.64986253e+00 1.23119903e+00
      1.45690691e+00 1.56676948e+00 1.54049349e+00 1.51851392e+00</_>
    <_>
      1.72612333e+00 1.46547449e+00 1.46547449e+00 1.70087254e+00
      7.84100890e-01 7.07486689e-01 1.71895456e+00 1.14723313e+00
      1.47149980e+00 1.66581488e+00 1.60422063e+00 1.49226367e+00</_>
    <_>
      1.71576226e+00 1.37292755e+00 1.37292755e+00 1.69669986e+00
      6.02060020e-01 6.02060020e-01 1.65651155e+00 1.23119903e+00
      1.49934757e+00 1.54984033e+00 1.54139268e+00 1.51931012e+00</_>
    <_>
      1.64445984e+00 1.33043277e+00 1.33043277e+00 1.65587687e+00
      6.02060020e-01 6.15224481e-01 1.46850801e+00 1.00216067e+00
      1.36539114e+00 1.46265602e+00 1.47736239e+00 1.34242272e+00</_>
    <_>
      1.57675505e+00 1.18367791e+00 1.18367791e+00 1.55697167e+00
      6.98970020e-01 6.98970020e-01 1.45717156e+00 1. 1.30586171e+00
      1.40342903e+00 1.41784525e+00 1.32221925e+00</_>
    <_>
      1.53667581e+00 1.16922820e+00 1.16922820e+00 1.53316295e+00
      6.02060020e-01 6.02060020e-01 1.43636942e+00 9.54242527e-01
      1.27935433e+00 1.39932537e+00 1.38171399e+00 1.30157220e+00</_>
    <_>
      1.65148997e+00 1.38357794e+00 1.38357794e+00 1.66316795e+00
      1.00851667e+00 9.56906915e-01 1.52634692e+00 1.17705417e+00
      1.38171399e+00 1.42285895e+00 1.46649039e+00 1.28114641e+00</_>
    <_>
      1.56061578e+00 1.18367791e+00 1.18367791e+00 1.56371439e+00
      6.98970020e-01 6.98970020e-01 1.46470952e+00 1. 1.30319071e+00
      1.40645671e+00 1.41625440e+00 1.32271111e+00</_>
    <_>
      1.65788019e+00 1.37292755e+00 1.37292755e+00 1.63914812e+00
      8.45098019e-01 7.78151274e-01 1.50851667e+00 1.08068395e+00
      1.36336362e+00 1.43607819e+00 1.40645671e+00 1.14612806e+00</_>
    <_>
      1.55394399e+00 1.19458306e+00 1.19458306e+00 1.53995228e+00
      7.07486689e-01 6.98970020e-01 1.42866623e+00 9.56906915e-01
      1.30319071e+00 1.36539114e+00 1.38616085e+00 1.32271111e+00</_>
    <_>
      1.44296312e+00 9.34615850e-01 9.34615850e-01 1.44296312e+00
      6.02060020e-01 6.02060020e-01 1.43016899e+00 1.00216067e+00
      1.04317987e+00 1.34948504e+00 1.36539114e+00 1.20412004e+00</_>
    <_>
      1.64756358e+00 1.38171399e+00 1.38171399e+00 1.64986253e+00
      7.78151274e-01 6.02060020e-01 1.45717156e+00 1.14612806e+00
      1.34948504e+00 1.39794004e+00 1.41625440e+00 1.14723313e+00</_>
    <_>
      1.63914812e+00 1.34287083e+00 1.34287083e+00 1.64445984e+00
      6.02060020e-01 6.02060020e-01 1.48377395e+00 1.04139268e+00
      1.36539114e+00 1.44743478e+00 1.46342838e+00 1.27935433e+00</_>
    <_>
      1.61927390e+00 1.28817070e+00 1.28817070e+00 1.62337232e+00
      9.06456649e-01 9.06456649e-01 1.47025824e+00 9.54242527e-01
      1.28114641e+00 1.42285895e+00 1.44183075e+00 1.27935433e+00</_>
    <_>
      1.68810594e+00 1.30103004e+00 1.30103004e+00 1.70000982e+00
      4.77121264e-01 5.00000000e-01 1.63615286e+00 1.20412004e+00
      1.47149980e+00 1.56676948e+00 1.56946695e+00 1.51851392e+00</_>
    <_>
      1.68020201e+00 1.31824398e+00 1.31824398e+00 1.68395734e+00
      3.01030010e-01 3.01030010e-01 1.64745343e+00 1.17705417e+00
      1.45397425e+00 1.56452250e+00 1.55309546e+00 1.54424524e+00</_>
    <_>
      1.44296312e+00 9.95613039e-01 9.95613039e-01 1.44296312e+00
      6.98970020e-01 6.02060020e-01 1.42192769e+00 1.00216067e+00 1.
      1.34642351e+00 1.36539114e+00 1.20412004e+00</_>
    <_>
      1.54389071e+00 1.13358581e+00 1.13358581e+00 1.51529992e+00
      7.84100890e-01 7.78151274e-01 1.43607819e+00 1.00216067e+00
      1.23343384e+00 1.36539114e+00 1.38616085e+00 1.25527251e+00</_>
    <_>
      1.61070716e+00 1.30103004e+00 1.30103004e+00 1.62337232e+00
      9.06456649e-01 8.49484980e-01 1.47736239e+00 1.00216067e+00
      1.27935433e+00 1.40645671e+00 1.45690691e+00 1.27935433e+00</_>
    <_>
      1.67944312e+00 1.42192769e+00 1.42192769e+00 1.66490221e+00
      8.49484980e-01 9.06456649e-01 1.50194561e+00 1.04139268e+00
      1.43255198e+00 1.45154500e+00 1.42005301e+00 1.36213791e+00</_>
    <_>
      1.53147888e+00 1.08659315e+00 1.08659315e+00 1.50194561e+00
      6.98970020e-01 6.98970020e-01 1.44380867e+00 1.11394334e+00
      1.17705417e+00 1.38058794e+00 1.36336362e+00 1.04317987e+00</_>
    <_>
      1.66286039e+00 1.38320637e+00 1.38320637e+00 1.67609131e+00
      9.64709461e-01 9.54242527e-01 1.47050714e+00 1.08513081e+00
      1.39794004e+00 1.39794004e+00 1.38616085e+00 1.23343384e+00</_>
    <_>
      1.65903163e+00 1.36659861e+00 1.36659861e+00 1.67091501e+00
      9.06456649e-01 9.06456649e-01 1.54688585e+00 1.20412004e+00
      1.38058794e+00 1.46649039e+00 1.46649039e+00 1.25527251e+00</_>
    <_>
      1.69669986e+00 1.34152353e+00 1.34152353e+00 1.70848656e+00
      9.56906915e-01 9.54242527e-01 1.64745343e+00 1.23119903e+00
      1.42623997e+00 1.55797160e+00 1.55797160e+00 1.49136174e+00</_>
    <_>
      1.53316295e+00 1.08659315e+00 1.08659315e+00 1.51448882e+00
      7.84100890e-01 6.98970020e-01 1.46470952e+00 1.08513081e+00
      1.14723313e+00 1.39828718e+00 1.36539114e+00 1.08513081e+00</_>
    <_>
      1.70848656e+00 1.38171399e+00 1.38171399e+00 1.68460798e+00
      7.84100890e-01 7.84100890e-01 1.62386394e+00 1.23119903e+00
      1.38357794e+00 1.55780530e+00 1.54688585e+00 1.41497338e+00</_>
    <_>
      1.53147888e+00 1.10742188e+00 1.10742188e+00 1.51387858e+00
      7.07486689e-01 7.84100890e-01 1.39266491e+00 1.04139268e+00
      1.15051496e+00 1.36336362e+00 1.39794004e+00 1.</_>
    <_>
      1.65903163e+00 1.38357794e+00 1.38357794e+00 1.66490221e+00
      9.56906915e-01 9.54242527e-01 1.50788939e+00 1.00216067e+00
      1.39794004e+00 1.45154500e+00 1.42005301e+00 1.38021123e+00</_>
    <_>
      1.65534663e+00 1.38357794e+00 1.38357794e+00 1.63615286e+00
      9.06456649e-01 8.45098019e-01 1.50280476e+00 1.11394334e+00
      1.36213791e+00 1.38320637e+00 1.34948504e+00 1.23044896e+00</_>
    <_>
      1.55360496e+00 1.10742188e+00 1.10742188e+00 1.52557623e+00
      8.45098019e-01 7.78151274e-01 1.46239805e+00 1.20496655e+00
      1.17991769e+00 1.29329360e+00 1.33419299e+00 1.04317987e+00</_>
    <_>
      1.64745343e+00 1.36779940e+00 1.36779940e+00 1.65788019e+00
      9.06456649e-01 9.54242527e-01 1.49293768e+00 1.17609131e+00
      1.36336362e+00 1.36336362e+00 1.36939025e+00 1.25594163e+00</_>
    <_>
      1.64176369e+00 1.33512294e+00 1.33512294e+00 1.62979698e+00
      9.54242527e-01 1.00216067e+00 1.51265287e+00 1. 1.32271111e+00
      1.42866623e+00 1.44296312e+00 1.34242272e+00</_>
    <_>
      1.57918119e+00 1.12883925e+00 1.12883925e+00 1.44069231e+00
      8.49484980e-01 7.84100890e-01 1.52246583e+00 1.17705417e+00
      1.17705417e+00 1.39932537e+00 1.20748663e+00 1.11902308e+00</_>
    <_>
      1.57993388e+00 1.22123992e+00 1.22123992e+00 1.62201476e+00
      9.06456649e-01 9.56906915e-01 1.47469497e+00 1.11394334e+00
      1.32271111e+00 1.37602425e+00 1.44183075e+00 1.20496655e+00</_>
    <_>
      1.65534663e+00 1.35800171e+00 1.35800171e+00 1.64986253e+00
      8.49484980e-01 9.06456649e-01 1.46547449e+00 1.14723313e+00
      1.39932537e+00 1.34948504e+00 1.38616085e+00 1.14723313e+00</_>
    <_>
      1.50194561e+00 1.08068395e+00 1.08068395e+00 1.51387858e+00
      8.45098019e-01 7.78151274e-01 1.44183075e+00 1.14723313e+00
      1.11902308e+00 1.26445830e+00 1.36336362e+00 1.17609131e+00</_>
    <_>
      1.57993388e+00 1.23564589e+00 1.23564589e+00 1.61329997e+00
      9.03090000e-01 9.56906915e-01 1.45370567e+00 1.11394334e+00
      1.32271111e+00 1.35335886e+00 1.42285895e+00 1.20496655e+00</_>
    <_>
      1.51387858e+00 1.08068395e+00 1.08068395e+00 1.52557623e+00
      7.84100890e-01 7.78151274e-01 1.41910958e+00 1.17609131e+00
      1.18460798e+00 1.24846482e+00 1.35335886e+00 1.07918119e+00</_>
    <_>
      1.64445984e+00 1.35164571e+00 1.35164571e+00 1.63949108e+00
      9.06456649e-01 9.06456649e-01 1.46239805e+00 1.11522448e+00
      1.34287083e+00 1.32612312e+00 1.37175488e+00 1.25793695e+00</_>
    <_>
      1.56962466e+00 1.08068395e+00 1.08068395e+00 1.50851667e+00
      8.49484980e-01 7.78151274e-01 1.49472487e+00 1.14723313e+00
      1.14723313e+00 1.37602425e+00 1.28410089e+00 1.11394334e+00</_>
    <_>
      1.57009685e+00 1.10475755e+00 1.10475755e+00 1.46239805e+00
      7.78151274e-01 7.84100890e-01 1.48586977e+00 1.04317987e+00
      1.14612806e+00 1.38652730e+00 1.17991769e+00 1.25594163e+00</_>
    <_>
      1.50451291e+00 1.10475755e+00 1.10475755e+00 1.56371439e+00
      7.78151274e-01 8.45098019e-01 1.42192769e+00 1.20748663e+00
      1.19896996e+00 1.21887529e+00 1.39828718e+00 1.05697167e+00</_>
    <_>
      1.63358581e+00 1.35841882e+00 1.35841882e+00 1.64390087e+00
      8.49484980e-01 9.06456649e-01 1.48307085e+00 1.14612806e+00
      1.36336362e+00 1.36336362e+00 1.34509802e+00 1.17609131e+00</_>
    <_>
      1.50851667e+00 1.08659315e+00 1.08659315e+00 1.52010334e+00
      8.49484980e-01 8.45098019e-01 1.41910958e+00 1.14612806e+00
      1.15051496e+00 1.25594163e+00 1.33925915e+00 1.14723313e+00</_>
    <_>
      .Nan .Nan .Nan .Nan .Nan .Nan .Nan .Nan .Nan .Nan .Nan .Nan</_>
    <_>
      1.62521005e+00 1.32418001e+00 1.32418001e+00 1.61989987e+00
      9.56906915e-01 9.64709461e-01 1.49293768e+00 1.14612806e+00
      1.25793695e+00 1.36939025e+00 1.35164571e+00 1.14723313e+00</_>
    <_>
      1.67609131e+00 1.40845191e+00 1.40845191e+00 1.66090274e+00
      8.45098019e-01 7.84100890e-01 1.46342838e+00 1.14612806e+00
      1.41784525e+00 1.35335886e+00 1.36819828e+00 1.17609131e+00</_>
    <_>
      1.63914812e+00 1.34642351e+00 1.34642351e+00 1.64176369e+00
      9.06456649e-01 9.06456649e-01 1.48400784e+00 1.11902308e+00
      1.34287083e+00 1.34509802e+00 1.37175488e+00 1.25594163e+00</_>
    <_>
      1.62775683e+00 1.31824398e+00 1.31824398e+00 1.62979698e+00
      9.54242527e-01 9.56906915e-01 1.51265287e+00 1.00216067e+00
      1.32271111e+00 1.41400754e+00 1.44296312e+00 1.38058794e+00</_>
    <_>
      1.66652203e+00 1.36779940e+00 1.36779940e+00 1.67219615e+00
      1.00216067e+00 1.00216067e+00 1.45181620e+00 1.14723313e+00
      1.36172783e+00 1.36213791e+00 1.36539114e+00 1.11394334e+00</_>
    <_>
      1.56061578e+00 1.15903163e+00 1.15903163e+00 1.52653921e+00
      8.49484980e-01 8.49484980e-01 1.46239805e+00 1.20496655e+00
      1.23119903e+00 1.29329360e+00 1.29939520e+00 1.07918119e+00</_>
    <_>
      1.68133545e+00 1.38762307e+00 1.38762307e+00 1.67609131e+00
      9.06456649e-01 9.06456649e-01 1.49472487e+00 1.14723313e+00
      1.43402815e+00 1.37602425e+00 1.38943720e+00 1.23119903e+00</_>
    <_>
      1.66652203e+00 1.37486815e+00 1.37486815e+00 1.66090274e+00
      9.56906915e-01 9.56906915e-01 1.52246583e+00 1.20412004e+00
      1.40104461e+00 1.37602425e+00 1.38652730e+00 1.39828718e+00</_>
    <_>
      1.65534663e+00 1.36779940e+00 1.36779940e+00 1.63914812e+00
      9.06456649e-01 9.03090000e-01 1.51224279e+00 1.14723313e+00
      1.38058794e+00 1.37602425e+00 1.33325899e+00 1.17705417e+00</_>
    <_>
      1.56962466e+00 1.10475755e+00 1.10475755e+00 1.51387858e+00
      7.84100890e-01 7.78151274e-01 1.47322619e+00 1.20496655e+00
      1.14612806e+00 1.32995808e+00 1.28410089e+00 1.07918119e+00</_>
    <_>
      1.58068395e+00 1.12883925e+00 1.12883925e+00 1.46239805e+00
      8.45098019e-01 7.84100890e-01 1.53072619e+00 1.14612806e+00
      1.17609131e+00 1.41497338e+00 1.14723313e+00 1.17991769e+00</_>
    <_>
      1.58291876e+00 1.10475755e+00 1.10475755e+00 1.47322619e+00
      9.06456649e-01 9.06456649e-01 1.53110290e+00 1.17609131e+00
      1.17705417e+00 1.39932537e+00 1.17609131e+00 1.15587687e+00</_>
    <_>
      1.53759098e+00 1.13358581e+00 1.13358581e+00 1.53147888e+00
      8.45098019e-01 8.45098019e-01 1.42986929e+00 1.17609131e+00
      1.17705417e+00 1.27141273e+00 1.33419299e+00 1.11394334e+00</_>
    <_>
      1.57993388e+00 1.12883925e+00 1.12883925e+00 1.51121414e+00
      8.49484980e-01 8.45098019e-01 1.51387858e+00 1.17705417e+00
      1.14723313e+00 1.39337575e+00 1.25793695e+00 1.11522448e+00</_>
    <_>
      1.46470952e+00 1.08659315e+00 1.08659315e+00 1.56962466e+00
      7.78151274e-01 7.84100890e-01 1.30103004e+00 1.11522448e+00
      1.15587687e+00 1.12521005e+00 1.43255198e+00 1.00216067e+00</_>
    <_>
      1.65903163e+00 1.40645671e+00 1.40645671e+00 1.67395759e+00
      9.56906915e-01 1.00216067e+00 1.54984033e+00 1.23119903e+00
      1.39932537e+00 1.38320637e+00 1.40309000e+00 1.38058794e+00</_>
    <_>
      1.56820178e+00 1.10742188e+00 1.10742188e+00 1.46547449e+00
      7.84100890e-01 7.84100890e-01 1.50366044e+00 1.17705417e+00
      1.17705417e+00 1.37602425e+00 1.23119903e+00 1.08513081e+00</_>
    <_>
      1.53704238e+00 1.10742188e+00 1.10742188e+00 1.54845500e+00
      8.45098019e-01 8.45098019e-01 1.43461585e+00 1.23119903e+00
      1.18460798e+00 1.24846482e+00 1.36819828e+00 1.04317987e+00</_>
    <_>
      1.56484497e+00 1.13358581e+00 1.13358581e+00 1.52010334e+00
      9.06456649e-01 8.45098019e-01 1.49293768e+00 1.17705417e+00
      1.14612806e+00 1.34509802e+00 1.31419444e+00 1.14612806e+00</_>
    <_>
      1.65321255e+00 1.37486815e+00 1.37486815e+00 1.65321255e+00
      1.00216067e+00 9.54242527e-01 1.53977156e+00 1.20748663e+00
      1.36213791e+00 1.37602425e+00 1.41910958e+00 1.38058794e+00</_>
    <_>
      1.52010334e+00 1.10742188e+00 1.10742188e+00 1.54845500e+00
      8.49484980e-01 8.49484980e-01 1.43461585e+00 1.17705417e+00
      1.15587687e+00 1.26445830e+00 1.35335886e+00 1.11394334e+00</_>
    <_>
      1.66852987e+00 1.40745664e+00 1.40745664e+00 1.64445984e+00
      9.06456649e-01 9.06456649e-01 1.51265287e+00 1.11522448e+00
      1.38058794e+00 1.39266491e+00 1.34948504e+00 1.20412004e+00</_>
    <_>
      1.50194561e+00 1.08068395e+00 1.08068395e+00 1.51387858e+00
      8.45098019e-01 7.78151274e-01 1.45370567e+00 1.17609131e+00
      1.11902308e+00 1.28585446e+00 1.35164571e+00 1.14612806e+00</_>
    <_>
      1.62521005e+00 1.35800171e+00 1.35800171e+00 1.64176369e+00
      9.03090000e-01 9.06456649e-01 1.47322619e+00 1.14723313e+00
      1.32221925e+00 1.33925915e+00 1.36819828e+00 1.23119903e+00</_>
    <_>
      1.62775683e+00 1.31824398e+00 1.31824398e+00 1.63765574e+00
      9.54242527e-01 9.64709461e-01 1.50280476e+00 1. 1.30157220e+00
      1.41400754e+00 1.44296312e+00 1.34287083e+00</_>
    <_>
      1.52168119e+00 1.10475755e+00 1.10475755e+00 1.54389071e+00
      6.98970020e-01 7.07486689e-01 1.43016899e+00 1.17991769e+00
      1.22435319e+00 1.25257504e+00 1.36539114e+00 1.08513081e+00</_>
    <_>
      1.65148997e+00 1.39266491e+00 1.39266491e+00 1.66852987e+00
      9.64709461e-01 9.06456649e-01 1.48307085e+00 1.17705417e+00
      1.38058794e+00 1.32612312e+00 1.35164571e+00 1.25527251e+00</_>
    <_>
      1.57993388e+00 1.22123992e+00 1.22123992e+00 1.61329997e+00
      9.06456649e-01 9.54242527e-01 1.46547449e+00 1.11394334e+00
      1.32221925e+00 1.37175488e+00 1.40645671e+00 1.17705417e+00</_>
    <_>
      1.48977423e+00 1.05697167e+00 1.05697167e+00 1.51387858e+00
      8.49484980e-01 8.45098019e-01 1.44183075e+00 1.14612806e+00
      1.11902308e+00 1.28585446e+00 1.35164571e+00 1.17705417e+00</_>
    <_>
      1.59600484e+00 1.24286067e+00 1.24286067e+00 1.59600484e+00
      9.06456649e-01 9.06456649e-01 1.47322619e+00 1.14612806e+00
      1.20496655e+00 1.35800171e+00 1.34509802e+00 1.11394334e+00</_>
    <_>
      1.57918119e+00 1.10742188e+00 1.10742188e+00 1.47322619e+00
      7.84100890e-01 8.62137914e-01 1.53110290e+00 1.11394334e+00
      1.17609131e+00 1.41400754e+00 1.17705417e+00 1.21162295e+00</_>
    <_>
      1.66090274e+00 1.37755609e+00 1.37755609e+00 1.65756512e+00
      1.04317987e+00 1.00851667e+00 1.45637667e+00 1.17991769e+00
      1.34242272e+00 1.32418001e+00 1.36539114e+00 1.14723313e+00</_>
    <_>
      1.65321255e+00 1.40206969e+00 1.40206969e+00 1.65788019e+00
      9.16254461e-01 9.56906915e-01 1.49338591e+00 1.20412004e+00
      1.36213791e+00 1.34509802e+00 1.36939025e+00 1.25527251e+00</_>
    <_>
      1.65321255e+00 1.34152353e+00 1.34152353e+00 1.66490221e+00
      1.00216067e+00 1.00216067e+00 1.46006167e+00 1.17705417e+00
      1.34242272e+00 1.36213791e+00 1.32660627e+00 1.11394334e+00</_>
    <_>
      1.48470795e+00 1.13358581e+00 1.13358581e+00 1.56484497e+00
      8.49484980e-01 8.49484980e-01 1.32756925e+00 1.08068395e+00
      1.15587687e+00 1.19100857e+00 1.42005301e+00 1.07918119e+00</_>
    <_>
      1.55913234e+00 1.10742188e+00 1.10742188e+00 1.53704238e+00
      8.49484980e-01 8.45098019e-01 1.48307085e+00 1.20496655e+00
      1.17705417e+00 1.31974328e+00 1.32995808e+00 1.08068395e+00</_>
    <_>
      1.58291876e+00 1.12883925e+00 1.12883925e+00 1.44069231e+00
      8.45098019e-01 7.84100890e-01 1.52402663e+00 1.15051496e+00
      1.17991769e+00 1.41400754e+00 1.20748663e+00 1.11902308e+00</_>
    <_>
      1.50194561e+00 1.05697167e+00 1.05697167e+00 1.50194561e+00
      7.78151274e-01 8.45098019e-01 1.45208716e+00 1.17705417e+00
      1.15051496e+00 1.27815127e+00 1.36336362e+00 1.14612806e+00</_>
    <_>
      1.69975030e+00 1.29774809e+00 1.29774809e+00 1.68617976e+00
      4.77121264e-01 6.02060020e-01 1.57383811e+00 1.30103004e+00
      1.45690691e+00 1.44183075e+00 1.44826317e+00 1.20748663e+00</_>
    <_>
      1.71162295e+00 1.43461585e+00 1.43461585e+00 1.70790386e+00
      8.45098019e-01 7.78151274e-01 1.63533938e+00 1.27935433e+00
      1.48563790e+00 1.51448882e+00 1.47322619e+00 1.30157220e+00</_>
    <_>
      1.72863805e+00 1.43461585e+00 1.43461585e+00 1.70181763e+00
      8.49484980e-01 8.45098019e-01 1.64187670e+00 1.30157220e+00
      1.53222895e+00 1.52940273e+00 1.48236549e+00 1.25594163e+00</_>
    <_>
      1.50935030e+00 1.08068395e+00 1.08068395e+00 1.56692910e+00
      7.07486689e-01 6.98970020e-01 1.43607819e+00 1.20748663e+00
      1.27141273e+00 1.23044896e+00 1.34642351e+00 1.04845500e+00</_>
    <_>
      1.59049284e+00 1.25052965e+00 1.25052965e+00 1.58920062e+00
      6.98970020e-01 7.07486689e-01 1.46850801e+00 1.00216067e+00
      1.32271111e+00 1.38096392e+00 1.37602425e+00 1.34287083e+00</_>
    <_>
      1.59049284e+00 1.21487617e+00 1.21487617e+00 1.61471295e+00
      7.07486689e-01 7.84100890e-01 1.47469497e+00 1.17705417e+00
      1.25594163e+00 1.34948504e+00 1.44183075e+00 1.41497338e+00</_>
    <_>
      1.64756358e+00 1.28817070e+00 1.28817070e+00 1.57507110e+00
      9.06456649e-01 9.03090000e-01 1.52940273e+00 1.04139268e+00
      1.23119903e+00 1.46419787e+00 1.34509802e+00 1.39794004e+00</_>
    <_>
      1.50216067e+00 1. 1. 1.50216067e+00 6.98970020e-01 6.02060020e-01
      1.40206969e+00 1.04317987e+00 1.04317987e+00 1.30586171e+00
      1.36336362e+00 1.17609131e+00</_>
    <_>
      1.47050714e+00 8.92664909e-01 8.92664909e-01 1.47025824e+00
      6.02060020e-01 6.02060020e-01 1.37292755e+00 1.04317987e+00
      1.04317987e+00 1.26122212e+00 1.27935433e+00 1.00216067e+00</_>
    <_>
      1.50216067e+00 9.64709461e-01 9.64709461e-01 1.51387858e+00
      6.02060020e-01 6.98970020e-01 1.41910958e+00 1. 1.08513081e+00
      1.32612312e+00 1.36819828e+00 1.27935433e+00</_>
    <_>
      1.48679483e+00 9.74695027e-01 9.74695027e-01 1.50851667e+00
      7.78151274e-01 8.49484980e-01 1.45154500e+00 1.04317987e+00
      1.00851667e+00 1.35883522e+00 1.39337575e+00 1.30157220e+00</_>
    <_>
      1.50451291e+00 1.03409290e+00 1.03409290e+00 1.49671817e+00
      7.78151274e-01 7.84100890e-01 1.46239805e+00 1.04139268e+00
      1.04845500e+00 1.35883522e+00 1.39337575e+00 1.30157220e+00</_>
    <_>
      1.59006298e+00 1.21487617e+00 1.21487617e+00 1.61471295e+00
      4.77121264e-01 3.01030010e-01 1.46239805e+00 1.15051496e+00
      1.30157220e+00 1.37602425e+00 1.42005301e+00 1.25594163e+00</_>
    <_>
      1.64255357e+00 1.30372751e+00 1.30372751e+00 1.61989987e+00
      9.06456649e-01 9.54242527e-01 1.50194561e+00 1.08068395e+00
      1.30103004e+00 1.43402815e+00 1.34509802e+00 1.30319071e+00</_>
    <_>
      1.69369495e+00 1.29774809e+00 1.29774809e+00 1.66316795e+00
      7.78151274e-01 8.49484980e-01 1.60742188e+00 1.25527251e+00
      1.41529429e+00 1.53446376e+00 1.46649039e+00 1.23044896e+00</_>
    <_>
      1.39794004e+00 9.95613039e-01 9.95613039e-01 1.52010334e+00
      7.84100890e-01 8.45098019e-01 1.15903163e+00 1.00216067e+00
      1.00851667e+00 1.11902308e+00 1.38171399e+00 9.06456649e-01</_>
    <_>
      .Nan .Nan .Nan .Nan .Nan .Nan .Nan .Nan .Nan .Nan .Nan .Nan</_>
    <_>
      1.48307085e+00 9.95613039e-01 9.95613039e-01 1.44296312e+00
      6.15224481e-01 6.98970020e-01 1.42532313e+00 1.04845500e+00
      1.07918119e+00 1.30954671e+00 1.24846482e+00 1.00216067e+00</_>
    <_>
      1.47050714e+00 9.34615850e-01 9.34615850e-01 1.45690691e+00
      6.98970020e-01 6.98970020e-01 1.35841882e+00 1.04317987e+00
      1.00216067e+00 1.27875364e+00 1.28114641e+00 8.49484980e-01</_>
    <_>
      1.59333694e+00 1.18367791e+00 1.18367791e+00 1.58513081e+00
      8.01029980e-01 7.78151274e-01 1.48863316e+00 1.07918119e+00
      1.30586171e+00 1.41010070e+00 1.40878272e+00 1.39932537e+00</_>
    <_>
      1.50451291e+00 1.03409290e+00 1.03409290e+00 1.50851667e+00
      7.78151274e-01 7.78151274e-01 1.44069231e+00 1.08068395e+00
      1.00851667e+00 1.34509802e+00 1.38943720e+00 1.23119903e+00</_>
    <_>
      1.44991028e+00 9.95613039e-01 9.95613039e-01 1.47025824e+00
      6.98970020e-01 6.98970020e-01 1.39373028e+00 1. 1.04139268e+00
      1.27388740e+00 1.28585446e+00 1.17705417e+00</_>
    <_>
      1.43016899e+00 9.95613039e-01 9.95613039e-01 1.50194561e+00
      7.84100890e-01 7.78151274e-01 1.28114641e+00 1.04139268e+00
      1.00851667e+00 1.15051496e+00 1.37175488e+00 1.04139268e+00</_>
    <_>
      1.58644736e+00 1.25594163e+00 1.25594163e+00 1.58920062e+00
      6.15224481e-01 6.15224481e-01 1.45637667e+00 9.06456649e-01
      1.32221925e+00 1.40878272e+00 1.34509802e+00 1.34242272e+00</_>
    <_>
      1.64445984e+00 1.27388740e+00 1.27388740e+00 1.61637104e+00
      8.49484980e-01 9.03090000e-01 1.55445158e+00 1.12521005e+00
      1.32271111e+00 1.45397425e+00 1.40309000e+00 1.30157220e+00</_>
    <_>
      1.47663820e+00 1. 1. 1.44296312e+00 6.02060020e-01 6.98970020e-01
      1.38357794e+00 9.64709461e-01 1.04317987e+00 1.28410089e+00
      1.27141273e+00 1.17705417e+00</_>
    <_>
      1.61637104e+00 1.28817070e+00 1.28817070e+00 1.60205996e+00
      6.98970020e-01 6.15224481e-01 1.45181620e+00 9.54242527e-01
      1.34242272e+00 1.39337575e+00 1.37175488e+00 1.36213791e+00</_>
    <_>
      1.50451291e+00 1.03409290e+00 1.03409290e+00 1.49671817e+00
      6.98970020e-01 7.78151274e-01 1.41784525e+00 1.08068395e+00
      1.04845500e+00 1.31974328e+00 1.38943720e+00 1.23119903e+00</_>
    <_>
      1.53147888e+00 1.08068395e+00 1.08068395e+00 1.49561298e+00
      6.98970020e-01 7.84100890e-01 1.45208716e+00 1.15051496e+00
      1.14612806e+00 1.29329360e+00 1.31974328e+00 1.04317987e+00</_>
    <_>
      1.49158752e+00 1.02653921e+00 1.02653921e+00 1.50851667e+00
      7.78151274e-01 8.45098019e-01 1.45208716e+00 1.07918119e+00
      1.00851667e+00 1.34509802e+00 1.37175488e+00 1.23119903e+00</_>
    <_>
      1.49561298e+00 1. 1. 1.49671817e+00 7.07486689e-01 6.98970020e-01
      1.36659861e+00 9.56906915e-01 1.00216067e+00 1.30157220e+00
      1.36539114e+00 1.23119903e+00</_>
    <_>
      1.47663820e+00 1. 1. 1.43636942e+00 6.02060020e-01 6.02060020e-01
      1.38357794e+00 1.00216067e+00 1.07918119e+00 1.30319071e+00
      1.28817070e+00 1.08068395e+00</_>
    <_>
      1.61083746e+00 1.28817070e+00 1.28817070e+00 1.59558570e+00
      7.07486689e-01 7.07486689e-01 1.46850801e+00 9.54242527e-01
      1.32271111e+00 1.40309000e+00 1.36336362e+00 1.27935433e+00</_>
    <_>
      1.60542667e+00 1.28817070e+00 1.28817070e+00 1.62201476e+00
      6.98970020e-01 6.02060020e-01 1.47273433e+00 1.11522448e+00
      1.32271111e+00 1.36939025e+00 1.40645671e+00 1.36539114e+00</_>
    <_>
      1.59006298e+00 1.28351319e+00 1.28351319e+00 1.62201476e+00
      6.02060020e-01 6.15224481e-01 1.47273433e+00 1.07918119e+00
      1.32271111e+00 1.35883522e+00 1.42623997e+00 1.38357794e+00</_>
    <_>
      1.61083746e+00 1.27388740e+00 1.27388740e+00 1.60542667e+00
      8.45098019e-01 8.45098019e-01 1.49671817e+00 1.08513081e+00
      1.28114641e+00 1.40342903e+00 1.33925915e+00 1.23343384e+00</_>
    <_>
      1.47025824e+00 9.64709461e-01 9.64709461e-01 1.49671817e+00
      6.98970020e-01 7.07486689e-01 1.38762307e+00 1.00216067e+00
      9.54242527e-01 1.28817070e+00 1.36819828e+00 1.20496655e+00</_>
    <_>
      1.60475755e+00 1.28817070e+00 1.28817070e+00 1.60542667e+00
      7.84100890e-01 7.78151274e-01 1.46547449e+00 1.11394334e+00
      1.28114641e+00 1.37175488e+00 1.43868566e+00 1.27935433e+00</_>
    <_>
      1.67170429e+00 1.31824398e+00 1.31824398e+00 1.65105724e+00
      7.07486689e-01 7.07486689e-01 1.53995228e+00 1.23044896e+00
      1.33925915e+00 1.46342838e+00 1.43166149e+00 1.41497338e+00</_>
    <_>
      1.43607819e+00 1.03409290e+00 1.03409290e+00 1.47736239e+00
      8.45098019e-01 8.49484980e-01 1.39794004e+00 1.11522448e+00
      1.04317987e+00 1.24214995e+00 1.31974328e+00 1.20412004e+00</_>
    <_>
      1.68020201e+00 1.33512294e+00 1.33512294e+00 1.65105724e+00
      9.06456649e-01 9.03090000e-01 1.59558570e+00 1.25793695e+00
      1.36819828e+00 1.48307085e+00 1.43868566e+00 1.38021123e+00</_>
    <_>
      1.48470795e+00 1.12763619e+00 1.12763619e+00 1.47736239e+00
      8.49484980e-01 7.78151274e-01 1.42926860e+00 1.11522448e+00
      1.14723313e+00 1.27815127e+00 1.31974328e+00 1.14612806e+00</_>
    <_>
      1.42532313e+00 1.12763619e+00 1.12763619e+00 1.50851667e+00
      8.45098019e-01 8.45098019e-01 1.31419444e+00 1.04139268e+00
      1.11522448e+00 1.14390087e+00 1.34948504e+00 1.20496655e+00</_>
    <_>
      1.67219615e+00 1.33512294e+00 1.33512294e+00 1.65587687e+00
      9.06456649e-01 9.06456649e-01 1.56371439e+00 1.20412004e+00
      1.34948504e+00 1.48307085e+00 1.45154500e+00 1.38058794e+00</_>
    <_>
      1.66337264e+00 1.28817070e+00 1.28817070e+00 1.65105724e+00
      7.07486689e-01 6.98970020e-01 1.54264534e+00 1.17991769e+00
      1.33419299e+00 1.46265602e+00 1.44743478e+00 1.43136382e+00</_>
    <_>
      1.42161644e+00 1.09794986e+00 1.09794986e+00 1.51387858e+00
      7.84100890e-01 7.78151274e-01 1.24777222e+00 1. 1.08068395e+00
      1.09234571e+00 1.38357794e+00 1.08068395e+00</_>
    <_>
      .Nan .Nan .Nan .Nan .Nan .Nan .Nan .Nan .Nan .Nan .Nan .Nan</_>
    <_>
      1.68020201e+00 1.31824398e+00 1.31824398e+00 1.64255357e+00
      8.45098019e-01 9.03090000e-01 1.57751608e+00 1.20496655e+00
      1.36539114e+00 1.47469497e+00 1.44548976e+00 1.41497338e+00</_>
    <_>
      .Nan .Nan .Nan .Nan .Nan .Nan .Nan .Nan .Nan .Nan .Nan .Nan</_>
    <_>
      1.51387858e+00 1.11522448e+00 1.11522448e+00 1.48977423e+00
      7.78151274e-01 8.45098019e-01 1.46342838e+00 1.14612806e+00
      1.17705417e+00 1.31419444e+00 1.32612312e+00 1.17609131e+00</_>
    <_>
      1.50387394e+00 1.14390087e+00 1.14390087e+00 1.48977423e+00
      8.49484980e-01 7.78151274e-01 1.49338591e+00 1.11902308e+00
      1.20496655e+00 1.33185041e+00 1.32271111e+00 1.20412004e+00</_>
    <_>
      1.52168119e+00 1.21887529e+00 1.21887529e+00 1.39794004e+00
      8.45098019e-01 7.78151274e-01 1.50194561e+00 1.10205996e+00
      1.26445830e+00 1.38357794e+00 8.06391954e-01 1.10205996e+00</_>
    <_>
      1.49671817e+00 1.11522448e+00 1.11522448e+00 1.44380867e+00
      6.15224481e-01 6.98970020e-01 1.43166149e+00 1.04317987e+00
      1.20496655e+00 1.31974328e+00 1.29329360e+00 1.23044896e+00</_>
    <_>
      1.49671817e+00 1.09794986e+00 1.09794986e+00 1.45717156e+00
      6.15224481e-01 6.02060020e-01 1.45208716e+00 1.08068395e+00
      1.20496655e+00 1.32612312e+00 1.27815127e+00 1.20412004e+00</_>
    <_>
      1.43868566e+00 1.01265287e+00 1.01265287e+00 1.39897978e+00
      6.98970020e-01 7.78151274e-01 1.39514256e+00 1.08068395e+00
      1.11522448e+00 1.26573944e+00 1.23269141e+00 1.11522448e+00</_>
    <_>
      1.62201476e+00 1.34642351e+00 1.34642351e+00 1.64176369e+00
      9.03090000e-01 9.56906915e-01 1.47712123e+00 1.07918119e+00
      1.32418001e+00 1.39337575e+00 1.43868566e+00 1.30319071e+00</_>
    <_>
      1.40845191e+00 1.11394334e+00 1.11394334e+00 1.52557623e+00
      7.78151274e-01 7.78151274e-01 1.23119903e+00 1.00216067e+00
      1.11522448e+00 1.09234571e+00 1.38943720e+00 1.14723313e+00</_>
    <_>
      1.41173708e+00 1.09794986e+00 1.09794986e+00 1.52010334e+00
      7.84100890e-01 7.78151274e-01 1.31824398e+00 1.08068395e+00
      1.08513081e+00 1.14390087e+00 1.38943720e+00 1.30157220e+00</_>
    <_>
      1.62883925e+00 1.38762307e+00 1.38762307e+00 1.64756358e+00
      1.00216067e+00 1.00216067e+00 1.48047304e+00 1.04317987e+00
      1.28817070e+00 1.42623997e+00 1.43607819e+00 1.32271111e+00</_>
    <_>
      1.66772890e+00 1.28817070e+00 1.28817070e+00 1.65944886e+00
      9.06456649e-01 9.56906915e-01 1.58306694e+00 1.30157220e+00
      1.34642351e+00 1.45397425e+00 1.40645671e+00 1.30103004e+00</_>
    <_>
      1.66772890e+00 1.31419444e+00 1.31419444e+00 1.63393772e+00
      6.02060020e-01 6.15224481e-01 1.56110799e+00 1.15587687e+00
      1.30954671e+00 1.49158752e+00 1.43136382e+00 1.43136382e+00</_>
    <_>
      1.49226367e+00 1.12763619e+00 1.12763619e+00 1.47736239e+00
      8.49484980e-01 7.78151274e-01 1.41910958e+00 1.11394334e+00
      1.20496655e+00 1.26445830e+00 1.27815127e+00 1.20412004e+00</_>
    <_>
      1.63288045e+00 1.35800171e+00 1.35800171e+00 1.59558570e+00
      7.07486689e-01 6.98970020e-01 1.51387858e+00 1.04139268e+00
      1.34642351e+00 1.43016899e+00 1.32612312e+00 1.43166149e+00</_>
    <_>
      1.41625440e+00 1.01265287e+00 1.01265287e+00 1.44296312e+00
      7.84100890e-01 7.78151274e-01 1.36819828e+00 1.07918119e+00
      1.04317987e+00 1.24214995e+00 1.29329360e+00 1.11394334e+00</_>
    <_>
      1.48307085e+00 1.06676948e+00 1.06676948e+00 1.48977423e+00
      6.98970020e-01 6.98970020e-01 1.45154500e+00 1.11522448e+00
      1.20496655e+00 1.30639195e+00 1.33419299e+00 1.11522448e+00</_>
    <_>
      1.50851667e+00 1.12763619e+00 1.12763619e+00 1.50851667e+00
      8.49484980e-01 8.45098019e-01 1.45208716e+00 1.14612806e+00
      1.17705417e+00 1.30639195e+00 1.31419444e+00 1.17609131e+00</_>
    <_>
      .Nan .Nan .Nan .Nan .Nan .Nan .Nan .Nan .Nan .Nan .Nan .Nan</_>
    <_>
      1.63063145e+00 1.32418001e+00 1.32418001e+00 1.61700547e+00
      9.06456649e-01 8.49484980e-01 1.48400784e+00 1.07918119e+00
      1.36336362e+00 1.38652730e+00 1.36336362e+00 1.23119903e+00</_>
    <_>
      1.65492153e+00 1.40845191e+00 1.40845191e+00 1.66852987e+00
      8.45098019e-01 8.49484980e-01 1.47712123e+00 1.08068395e+00
      1.35800171e+00 1.41010070e+00 1.50851667e+00 1.30586171e+00</_>
    <_>
      1.62386394e+00 1.30639195e+00 1.30639195e+00 1.58644736e+00
      6.98970020e-01 7.07486689e-01 1.51387858e+00 1.11522448e+00
      1.34287083e+00 1.43461585e+00 1.33419299e+00 1.41497338e+00</_>
    <_>
      1.48047304e+00 1.09794986e+00 1.09794986e+00 1.48470795e+00
      7.78151274e-01 6.98970020e-01 1.41784525e+00 1.07918119e+00
      1.20412004e+00 1.28585446e+00 1.31419444e+00 1.23119903e+00</_>
    <_>
      1.65534663e+00 1.36659861e+00 1.36659861e+00 1.62775683e+00
      9.03090000e-01 9.06456649e-01 1.55155957e+00 1.07918119e+00
      1.39828718e+00 1.47322619e+00 1.34948504e+00 1.39932537e+00</_>
    <_>
      1.64445984e+00 1.38762307e+00 1.38762307e+00 1.65267563e+00
      9.56906915e-01 9.03090000e-01 1.48307085e+00 1.11522448e+00
      1.38357794e+00 1.35164571e+00 1.40878272e+00 1.34287083e+00</_>
    <_>
      1.64986253e+00 1.40206969e+00 1.40206969e+00 1.65788019e+00
      9.56906915e-01 9.56906915e-01 1.50536191e+00 1.14723313e+00
      1.38357794e+00 1.39337575e+00 1.43016899e+00 1.27935433e+00</_>
    <_>
      1.52010334e+00 1.12763619e+00 1.12763619e+00 1.49671817e+00
      8.49484980e-01 8.45098019e-01 1.45370567e+00 1.17609131e+00
      1.17991769e+00 1.28585446e+00 1.33925915e+00 1.14723313e+00</_>
    <_>
      1.63765574e+00 1.34642351e+00 1.34642351e+00 1.59836435e+00
      8.49484980e-01 7.84100890e-01 1.50536191e+00 1.08068395e+00
      1.32271111e+00 1.43461585e+00 1.32612312e+00 1.43136382e+00</_>
    <_>
      1.49226367e+00 1.14390087e+00 1.14390087e+00 1.48307085e+00
      8.49484980e-01 8.45098019e-01 1.45154500e+00 1.11522448e+00
      1.17705417e+00 1.30639195e+00 1.32612312e+00 1.14612806e+00</_>
    <_>
      1.55445158e+00 1.15903163e+00 1.15903163e+00 1.50194561e+00
      9.06456649e-01 9.03090000e-01 1.47322619e+00 1.17705417e+00
      1.11522448e+00 1.33419299e+00 1.31974328e+00 1.11522448e+00</_>
    <_>
      .Nan .Nan .Nan .Nan .Nan .Nan .Nan .Nan .Nan .Nan .Nan .Nan</_>
    <_>
      1.50851667e+00 1.12763619e+00 1.12763619e+00 1.49671817e+00
      8.45098019e-01 7.78151274e-01 1.47322619e+00 1.11522448e+00
      1.17705417e+00 1.32271111e+00 1.31419444e+00 1.23119903e+00</_>
    <_>
      1.49671817e+00 1.11522448e+00 1.11522448e+00 1.47736239e+00
      7.07486689e-01 6.15224481e-01 1.45154500e+00 1.08068395e+00
      1.20496655e+00 1.31419444e+00 1.31974328e+00 1.25594163e+00</_>
    <_>
      1.65267563e+00 1.35548151e+00 1.35548151e+00 1.66316795e+00
      9.56906915e-01 9.56906915e-01 1.52634692e+00 1.11522448e+00
      1.32660627e+00 1.43016899e+00 1.47469497e+00 1.34287083e+00</_>
    <_>
      1.51387858e+00 1.14277864e+00 1.14277864e+00 1.47736239e+00
      7.78151274e-01 6.98970020e-01 1.47322619e+00 1.14612806e+00
      1.17705417e+00 1.33325899e+00 1.29939520e+00 1.14612806e+00</_>
    <_>
      1.65267563e+00 1.38762307e+00 1.38762307e+00 1.65267563e+00
      9.06456649e-01 9.03090000e-01 1.50366044e+00 1.17705417e+00
      1.36819828e+00 1.41010070e+00 1.40645671e+00 1.23044896e+00</_>
    <_>
      1.47025824e+00 1.06676948e+00 1.06676948e+00 1.49226367e+00
      7.78151274e-01 8.45098019e-01 1.43166149e+00 1.11522448e+00
      1.11394334e+00 1.30954671e+00 1.30157220e+00 1.11522448e+00</_>
    <_>
      1.50851667e+00 1.12763619e+00 1.12763619e+00 1.48307085e+00
      7.78151274e-01 7.84100890e-01 1.44069231e+00 1.08068395e+00
      1.20496655e+00 1.30639195e+00 1.34509802e+00 1.30103004e+00</_>
    <_>
      1.67170429e+00 1.31824398e+00 1.31824398e+00 1.65944886e+00
      7.84100890e-01 8.49484980e-01 1.52940273e+00 1.20412004e+00
      1.31974328e+00 1.44963658e+00 1.46470952e+00 1.38058794e+00</_>
    <_>
      1.44380867e+00 1.04845500e+00 1.04845500e+00 1.46342838e+00
      8.49484980e-01 7.78151274e-01 1.39373028e+00 1.08068395e+00
      1.04139268e+00 1.23269141e+00 1.27815127e+00 1.11394334e+00</_>
    <_>
      1.45181620e+00 1.06676948e+00 1.06676948e+00 1.44991028e+00
      7.78151274e-01 7.78151274e-01 1.36978614e+00 1.04139268e+00
      1.04139268e+00 1.26573944e+00 1.29329360e+00 1.14723313e+00</_>
    <_>
      1.50387394e+00 1.15587687e+00 1.15587687e+00 1.48977423e+00
      7.84100890e-01 7.78151274e-01 1.47322619e+00 1.14723313e+00
      1.20496655e+00 1.31419444e+00 1.32612312e+00 1.23119903e+00</_>
    <_>
      1.50194561e+00 1.12763619e+00 1.12763619e+00 1.49671817e+00
      7.78151274e-01 7.78151274e-01 1.48400784e+00 1.14723313e+00
      1.17705417e+00 1.32271111e+00 1.31974328e+00 1.20496655e+00</_>
    <_>
      1.66882944e+00 1.30103004e+00 1.30103004e+00 1.65105724e+00
      5.00000000e-01 5.00000000e-01 1.53409290e+00 1.11902308e+00
      1.33419299e+00 1.49494731e+00 1.41625440e+00 1.36213791e+00</_>
    <_>
      1.47025824e+00 1.06676948e+00 1.06676948e+00 1.44380867e+00
      6.98970020e-01 6.98970020e-01 1.44069231e+00 1.08068395e+00
      1.14723313e+00 1.30639195e+00 1.28817070e+00 1.14723313e+00</_>
    <_>
      1.43461585e+00 1.09794986e+00 1.09794986e+00 1.50387394e+00
      8.49484980e-01 7.84100890e-01 1.26573944e+00 9.54242527e-01
      1.11902308e+00 1.11394334e+00 1.40342903e+00 1.17705417e+00</_>
    <_>
      1.68497884e+00 1.42192769e+00 1.42192769e+00 1.63949108e+00
      1.00216067e+00 1. 1.52634692e+00 1.14723313e+00 1.41529429e+00
      1.42623997e+00 1.35164571e+00 1.32271111e+00</_>
    <_>
      1.48307085e+00 1.06676948e+00 1.06676948e+00 1.46470952e+00
      7.84100890e-01 7.78151274e-01 1.42986929e+00 1.08068395e+00
      1.11902308e+00 1.29939520e+00 1.30954671e+00 1.23119903e+00</_>
    <_>
      1.67091501e+00 1.42866623e+00 1.42866623e+00 1.64745343e+00
      1.00216067e+00 1. 1.52246583e+00 1.07918119e+00 1.38171399e+00
      1.43016899e+00 1.39266491e+00 1.41529429e+00</_>
    <_>
      1.52653921e+00 1.16922820e+00 1.16922820e+00 1.49671817e+00
      8.49484980e-01 8.45098019e-01 1.47322619e+00 1.14612806e+00
      1.17991769e+00 1.33325899e+00 1.32612312e+00 1.17609131e+00</_>
    <_>
      1.52010334e+00 1.16922820e+00 1.16922820e+00 1.50387394e+00
      8.45098019e-01 8.45098019e-01 1.46342838e+00 1.14612806e+00
      1.17705417e+00 1.31419444e+00 1.30639195e+00 1.17609131e+00</_>
    <_>
      1.48047304e+00 1.09794986e+00 1.09794986e+00 1.47025824e+00
      8.49484980e-01 7.84100890e-01 1.41910958e+00 1.14723313e+00
      1.17705417e+00 1.23269141e+00 1.27815127e+00 1.17609131e+00</_>
    <_>
      1.50194561e+00 1.14277864e+00 1.14277864e+00 1.46850801e+00
      7.78151274e-01 8.49484980e-01 1.40645671e+00 1.11522448e+00
      1.17991769e+00 1.27815127e+00 1.28410089e+00 1.23119903e+00</_>
    <_>
      1.68460798e+00 1.30639195e+00 1.30639195e+00 1.65587687e+00
      8.49484980e-01 9.03090000e-01 1.59333694e+00 1.25594163e+00
      1.38616085e+00 1.48563790e+00 1.44183075e+00 1.36213791e+00</_>
    <_>
      .Nan .Nan .Nan .Nan .Nan .Nan .Nan .Nan .Nan .Nan .Nan .Nan</_>
    <_>
      .Nan .Nan .Nan .Nan .Nan .Nan .Nan .Nan .Nan .Nan .Nan .Nan</_>
    <_>
      .Nan .Nan .Nan .Nan .Nan .Nan .Nan .Nan .Nan .Nan .Nan .Nan</_>
    <_>
      1.75540650e+00 1.47712123e+00 1.47712123e+00 1.71958733e+00
      1.11394334e+00 1.08513081e+00 1.73971570e+00 1.36213791e+00
      1.44963658e+00 1.58659315e+00 1.51387858e+00 1.80623293e+00</_>
    <_>
      .Nan .Nan .Nan .Nan .Nan .Nan .Nan .Nan .Nan .Nan .Nan .Nan</_>
    <_>
      .Nan .Nan .Nan .Nan .Nan .Nan .Nan .Nan .Nan .Nan .Nan .Nan</_>
    <_>
      1.51590610e+00 1.16922820e+00 1.16922820e+00 1.47736239e+00
      7.84100890e-01 8.49484980e-01 1.44069231e+00 1.07918119e+00
      1.27935433e+00 1.31419444e+00 1.29441583e+00 1.27935433e+00</_>
    <_>
      1.47469497e+00 1.14390087e+00 1.14390087e+00 1.49671817e+00
      7.84100890e-01 7.07486689e-01 1.38171399e+00 1.08068395e+00
      1.23044896e+00 1.20832026e+00 1.28585446e+00 1.25527251e+00</_>
    <_>
      1.68865311e+00 1.43016899e+00 1.43016899e+00 1.65534663e+00
      9.56906915e-01 9.56906915e-01 1.51265287e+00 1.14612806e+00
      1.39932537e+00 1.38320637e+00 1.34948504e+00 1.30103004e+00</_>
    <_>
      1.63914812e+00 1.39266491e+00 1.39266491e+00 1.65148997e+00
      9.56906915e-01 1.00216067e+00 1.48863316e+00 1.07918119e+00
      1.34948504e+00 1.34642351e+00 1.41400754e+00 1.46342838e+00</_>
    <_>
      1.72264636e+00 1.43166149e+00 1.43166149e+00 1.66581488e+00
      1.04139268e+00 1.08068395e+00 1.73688936e+00 1.36172783e+00
      1.32995808e+00 1.54880214e+00 1.50000000e+00 1.73269141e+00</_>
    <_>
      1.44408977e+00 1.08217645e+00 1.08217645e+00 1.44991028e+00
      6.15224481e-01 6.15224481e-01 1.35548151e+00 1.11522448e+00
      1.23119903e+00 1.16316795e+00 1.25594163e+00 1.08068395e+00</_>
    <_>
      1.51590610e+00 1.16922820e+00 1.16922820e+00 1.55913234e+00
      9.06456649e-01 9.03090000e-01 1.31824398e+00 1.11522448e+00
      1.20496655e+00 1.13358581e+00 1.35335886e+00 1.20496655e+00</_>
    <_>
      1.67219615e+00 1.41173708e+00 1.41173708e+00 1.69055760e+00
      9.56906915e-01 1.00216067e+00 1.50788939e+00 1.23044896e+00
      1.43255198e+00 1.41625440e+00 1.44743478e+00 1.30157220e+00</_>
    <_>
      1.48470795e+00 1.16922820e+00 1.16922820e+00 1.55155957e+00
      8.45098019e-01 8.45098019e-01 1.40645671e+00 1.08068395e+00
      1.23343384e+00 1.21162295e+00 1.34509802e+00 1.30319071e+00</_>
    <_>
      1.63949108e+00 1.34152353e+00 1.34152353e+00 1.64277864e+00
      1.04139268e+00 1.04317987e+00 1.51265287e+00 1.04139268e+00
      1.30157220e+00 1.40745664e+00 1.45181620e+00 1.49136174e+00</_>
    <_>
      1.63063145e+00 1.39266491e+00 1.39266491e+00 1.63765574e+00
      9.54242527e-01 9.56906915e-01 1.46547449e+00 1.07918119e+00
      1.34420991e+00 1.32418001e+00 1.39932537e+00 1.44826317e+00</_>
    <_>
      1.50788939e+00 1.15587687e+00 1.15587687e+00 1.49226367e+00
      7.07486689e-01 7.07486689e-01 1.44408977e+00 1.11394334e+00
      1.27935433e+00 1.28410089e+00 1.34107256e+00 1.34242272e+00</_>
    <_>
      1.50788939e+00 1.18367791e+00 1.18367791e+00 1.47736239e+00
      7.78151274e-01 7.78151274e-01 1.44069231e+00 1.11394334e+00
      1.25527251e+00 1.31974328e+00 1.29939520e+00 1.27935433e+00</_>
    <_>
      1.64390087e+00 1.38357794e+00 1.38357794e+00 1.62533200e+00
      1.04845500e+00 1.00216067e+00 1.47469497e+00 1.14723313e+00
      1.36172783e+00 1.35335886e+00 1.35800171e+00 1.27875364e+00</_>
    <_>
      1.50536191e+00 1.12763619e+00 1.12763619e+00 1.50851667e+00
      8.49484980e-01 8.49484980e-01 1.38394880e+00 1.17609131e+00
      1.23044896e+00 1.19100857e+00 1.25594163e+00 1.04317987e+00</_>
    <_>
      1.66367948e+00 1.37486815e+00 1.37486815e+00 1.63949108e+00
      1.08068395e+00 1.08068395e+00 1.51871324e+00 1.24214995e+00
      1.34287083e+00 1.36336362e+00 1.38616085e+00 1.17609131e+00</_>
    <_>
      1.50788939e+00 1.15587687e+00 1.15587687e+00 1.46006167e+00
      8.49484980e-01 7.78151274e-01 1.36819828e+00 1.00216067e+00
      1.20496655e+00 1.21887529e+00 1.25257504e+00 1.23119903e+00</_>
    <_>
      1.53110290e+00 1.21728444e+00 1.21728444e+00 1.57213140e+00
      8.01029980e-01 8.01029980e-01 1.41784525e+00 1.11902308e+00
      1.28114641e+00 1.23269141e+00 1.36978614e+00 1.42005301e+00</_>
    <_>
      1.67395759e+00 1.43607819e+00 1.43607819e+00 1.66367948e+00
      1.04139268e+00 1.04317987e+00 1.57751608e+00 1.11522448e+00
      1.41784525e+00 1.44408977e+00 1.43461585e+00 1.55647004e+00</_>
    <_>
      1.45208716e+00 1.09234571e+00 1.09234571e+00 1.47025824e+00
      7.07486689e-01 7.07486689e-01 1.35463500e+00 1.04139268e+00
      1.23044896e+00 1.22435319e+00 1.27815127e+00 1.23119903e+00</_>
    <_>
      1.65756512e+00 1.31419444e+00 1.31419444e+00 1.65105724e+00
      8.49484980e-01 7.84100890e-01 1.56580937e+00 1.25527251e+00
      1.44743478e+00 1.42440236e+00 1.43607819e+00 1.43402815e+00</_>
    <_>
      1.48586977e+00 1.13358581e+00 1.13358581e+00 1.53147888e+00
      7.78151274e-01 8.49484980e-01 1.46006167e+00 1.11394334e+00
      1.27935433e+00 1.28817070e+00 1.36213791e+00 1.38058794e+00</_>
    <_>
      1.60542667e+00 1.28410089e+00 1.28410089e+00 1.65051496e+00
      1.00851667e+00 9.54242527e-01 1.36819828e+00 1.23119903e+00
      1.28114641e+00 1.23044896e+00 1.47149980e+00 1.25594163e+00</_>
    <_>
      1.45370567e+00 1.10205996e+00 1.10205996e+00 1.48977423e+00
      6.98970020e-01 7.07486689e-01 1.38171399e+00 1.04317987e+00
      1.25527251e+00 1.21887529e+00 1.33325899e+00 1.32221925e+00</_>
    <_>
      1.61927390e+00 1.31824398e+00 1.31824398e+00 1.62337232e+00
      1.04317987e+00 1.04845500e+00 1.51265287e+00 9.56906915e-01
      1.27875364e+00 1.41173708e+00 1.46006167e+00 1.49136174e+00</_>
    <_>
      1.50366044e+00 1.14390087e+00 1.14390087e+00 1.52010334e+00
      8.49484980e-01 8.45098019e-01 1.34107256e+00 1.14612806e+00
      1.25527251e+00 1.17991769e+00 1.31419444e+00 1.08068395e+00</_>
    <_>
      1.53667581e+00 1.15587687e+00 1.15587687e+00 1.53316295e+00
      9.06456649e-01 8.45098019e-01 1.40645671e+00 1.20412004e+00
      1.23044896e+00 1.23710811e+00 1.26573944e+00 1.14612806e+00</_>
    <_>
      1.58659315e+00 1.25257504e+00 1.25257504e+00 1.56061578e+00
      9.03090000e-01 9.03090000e-01 1.44408977e+00 1.20496655e+00
      1.32271111e+00 1.23269141e+00 1.28585446e+00 1.17609131e+00</_>
    <_>
      1.70087254e+00 1.36213791e+00 1.36213791e+00 1.68133545e+00
      1.00216067e+00 1.00216067e+00 1.57445550e+00 1.30319071e+00
      1.41625440e+00 1.38652730e+00 1.34107256e+00 1.25594163e+00</_>
    <_>
      1.51590610e+00 1.16922820e+00 1.16922820e+00 1.48470795e+00
      7.78151274e-01 7.84100890e-01 1.44069231e+00 1.07918119e+00
      1.27875364e+00 1.32612312e+00 1.28585446e+00 1.27935433e+00</_>
    <_>
      1.70113075e+00 1.35164571e+00 1.35164571e+00 1.67858613e+00
      9.06456649e-01 9.03090000e-01 1.57568491e+00 1.32221925e+00
      1.42285895e+00 1.40309000e+00 1.34509802e+00 1.39794004e+00</_>
    <_>
      1.51590610e+00 1.18274403e+00 1.18274403e+00 1.50387394e+00
      7.84100890e-01 8.45098019e-01 1.43166149e+00 1.07918119e+00
      1.25594163e+00 1.28410089e+00 1.31368291e+00 1.34287083e+00</_>
    <_>
      1.70420480e+00 1.44380867e+00 1.44380867e+00 1.69055760e+00
      1.08068395e+00 1.08068395e+00 1.54880214e+00 1. 1.43255198e+00
      1.46006167e+00 1.45370567e+00 1.67219615e+00</_>
    <_>
      1.45637667e+00 1.12763619e+00 1.12763619e+00 1.49671817e+00
      6.98970020e-01 6.98970020e-01 1.33043277e+00 1.04317987e+00
      1.23119903e+00 1.18274403e+00 1.27815127e+00 1.25527251e+00</_>
    <_>
      1.68497884e+00 1.43607819e+00 1.43607819e+00 1.66490221e+00
      1.08068395e+00 1.08068395e+00 1.57993388e+00 1.11394334e+00
      1.41625440e+00 1.45370567e+00 1.44408977e+00 1.55630255e+00</_>
    <_>
      1.46342838e+00 1.11394334e+00 1.11394334e+00 1.45717156e+00
      8.49484980e-01 8.45098019e-01 1.35800171e+00 1.04317987e+00
      1.23044896e+00 1.16922820e+00 1.27572501e+00 1.27935433e+00</_>
    <_>
      1.64986253e+00 1.38762307e+00 1.38762307e+00 1.63626885e+00
      9.56906915e-01 9.64709461e-01 1.50536191e+00 1.11522448e+00
      1.38171399e+00 1.38357794e+00 1.33185041e+00 1.44743478e+00</_>
    <_>
      1.62337232e+00 1.28817070e+00 1.28817070e+00 1.65903163e+00
      1.00216067e+00 1.04317987e+00 1.50280476e+00 1.17609131e+00
      1.36213791e+00 1.36939025e+00 1.43461585e+00 1.30103004e+00</_>
    <_>
      .Nan .Nan .Nan .Nan .Nan .Nan .Nan .Nan .Nan .Nan .Nan .Nan</_>
    <_>
      1.62386394e+00 1.30639195e+00 1.30639195e+00 1.61989987e+00
      4.77121264e-01 6.98970020e-01 1.48470795e+00 1.04139268e+00
      1.32660627e+00 1.42285895e+00 1.39337575e+00 1.38021123e+00</_>
    <_>
      1.60205996e+00 1.27572501e+00 1.27572501e+00 1.62201476e+00
      9.06456649e-01 9.54242527e-01 1.47712123e+00 1.11394334e+00
      1.32271111e+00 1.38943720e+00 1.43016899e+00 1.43166149e+00</_>
    <_>
      1.66367948e+00 1.42440236e+00 1.42440236e+00 1.65105724e+00
      9.64709461e-01 9.54242527e-01 1.55713868e+00 1.23343384e+00
      1.39932537e+00 1.40309000e+00 1.39897978e+00 1.38058794e+00</_>
    <_>
      1.60001469e+00 1.10475755e+00 1.10475755e+00 1.57507110e+00
      7.78151274e-01 7.78151274e-01 1.48863316e+00 1.23044896e+00
      1.23343384e+00 1.39828718e+00 1.38058794e+00 7.78151274e-01</_>
    <_>
      1.61902308e+00 1.34642351e+00 1.34642351e+00 1.62533200e+00
      7.78151274e-01 7.84100890e-01 1.47273433e+00 1.14612806e+00
      1.32660627e+00 1.34509802e+00 1.36539114e+00 1.23710811e+00</_>
    <_>
      .Nan .Nan .Nan .Nan .Nan .Nan .Nan .Nan .Nan .Nan .Nan .Nan</_>
    <_>
      .Nan .Nan .Nan .Nan .Nan .Nan .Nan .Nan .Nan .Nan .Nan .Nan</_>
    <_>
      1.61522448e+00 1.31368291e+00 1.31368291e+00 1.62201476e+00
      8.62137914e-01 9.06456649e-01 1.47712123e+00 1.08068395e+00
      1.34287083e+00 1.37602425e+00 1.43954790e+00 1.46239805e+00</_>
    <_>
      1.60979223e+00 1.10742188e+00 1.10742188e+00 1.58068395e+00
      8.45098019e-01 9.03090000e-01 1.50000000e+00 1.14612806e+00
      1.14723313e+00 1.42005301e+00 1.42005301e+00 1.17609131e+00</_>
    <_>
      1.70000982e+00 1.33043277e+00 1.33043277e+00 1.68663990e+00
      7.78151274e-01 7.84100890e-01 1.60542667e+00 1.27935433e+00
      1.44963658e+00 1.48679483e+00 1.46032250e+00 1.23119903e+00</_>
    <_>
      1.65587687e+00 1.37755609e+00 1.37755609e+00 1.65944886e+00
      6.02060020e-01 4.77121264e-01 1.49693847e+00 1.17609131e+00
      1.40342903e+00 1.40342903e+00 1.40342903e+00 1.17609131e+00</_>
    <_>
      1.67219615e+00 1.43636942e+00 1.43636942e+00 1.66852987e+00
      1.00216067e+00 1. 1.55913234e+00 1.23119903e+00 1.41784525e+00
      1.39087772e+00 1.39932537e+00 1.38021123e+00</_>
    <_>
      1.61989987e+00 1.23044896e+00 1.23044896e+00 1.59600484e+00
      9.03090000e-01 9.03090000e-01 1.49293768e+00 1.17705417e+00
      1.30157220e+00 1.34509802e+00 1.37602425e+00 1.23119903e+00</_>
    <_>
      1.62374115e+00 1.17219615e+00 1.17219615e+00 1.58644736e+00
      9.54242527e-01 9.56906915e-01 1.51387858e+00 1.23119903e+00
      1.14723313e+00 1.38616085e+00 1.41784525e+00 1.14723313e+00</_>
    <_>
      1.58659315e+00 1.27572501e+00 1.27572501e+00 1.61637104e+00
      7.84100890e-01 8.45098019e-01 1.44183075e+00 1.11522448e+00
      1.32221925e+00 1.35335886e+00 1.39794004e+00 1.36213791e+00</_>
    <_>
      1.56692910e+00 1.16922820e+00 1.16922820e+00 1.53759098e+00
      8.49484980e-01 8.45098019e-01 1.49338591e+00 1.23119903e+00
      1.25594163e+00 1.31974328e+00 1.32612312e+00 1.08068395e+00</_>
    <_>
      1.57993388e+00 1.05360496e+00 1.05360496e+00 1.59502566e+00
      8.45098019e-01 8.45098019e-01 1.51529992e+00 1.14612806e+00
      1.11394334e+00 1.44963658e+00 1.46649039e+00 1.23119903e+00</_>
    <_>
      1.71871674e+00 1.39514256e+00 1.39514256e+00 1.67791724e+00
      1.04139268e+00 1.04845500e+00 1.59877813e+00 1.32271111e+00
      1.38616085e+00 1.45424247e+00 1.43402815e+00 1.18460798e+00</_>
    <_>
      1.59006298e+00 1.12883925e+00 1.12883925e+00 1.57507110e+00
      6.98970020e-01 6.98970020e-01 1.51590610e+00 1.20496655e+00
      1.25793695e+00 1.40342903e+00 1.38616085e+00 1.00216067e+00</_>
    <_>
      1.65788019e+00 1.39087772e+00 1.39087772e+00 1.65534663e+00
      9.06456649e-01 9.54242527e-01 1.47248793e+00 1.17991769e+00
      1.36336362e+00 1.36213791e+00 1.32660627e+00 1.04317987e+00</_>
    <_>
      1.58513081e+00 1.19896996e+00 1.19896996e+00 1.55445158e+00
      9.03090000e-01 8.49484980e-01 1.46239805e+00 1.17609131e+00
      1.20496655e+00 1.33419299e+00 1.35335886e+00 1.25527251e+00</_>
    <_>
      1.57491732e+00 1.12883925e+00 1.12883925e+00 1.55360496e+00
      7.84100890e-01 7.78151274e-01 1.47025824e+00 1.17705417e+00
      1.17705417e+00 1.39828718e+00 1.39794004e+00 8.49484980e-01</_>
    <_>
      1.58513081e+00 1.15903163e+00 1.15903163e+00 1.54845500e+00
      8.49484980e-01 8.45098019e-01 1.49338591e+00 1.25594163e+00
      1.23119903e+00 1.34642351e+00 1.36336362e+00 1.00216067e+00</_>
    <_>
      1.58527756e+00 1.05697167e+00 1.05697167e+00 1.57507110e+00
      8.49484980e-01 8.45098019e-01 1.51871324e+00 1.17705417e+00
      1.11522448e+00 1.42005301e+00 1.45154500e+00 1.20412004e+00</_>
    <_>
      1.63765574e+00 1.36213791e+00 1.36213791e+00 1.63358581e+00
      7.84100890e-01 7.84100890e-01 1.48307085e+00 1.14612806e+00
      1.34642351e+00 1.35164571e+00 1.37175488e+00 1.25793695e+00</_>
    <_>
      1.65105724e+00 1.34642351e+00 1.34642351e+00 1.61637104e+00
      7.84100890e-01 7.84100890e-01 1.50366044e+00 1.04317987e+00
      1.34420991e+00 1.39932537e+00 1.37602425e+00 1.14723313e+00</_>
    <_>
      1.66408777e+00 1.34642351e+00 1.34642351e+00 1.64756358e+00
      9.03090000e-01 9.06456649e-01 1.50280476e+00 1.11522448e+00
      1.34287083e+00 1.37602425e+00 1.38096392e+00 1.11522448e+00</_>
    <_>
      1.62201476e+00 1.33185041e+00 1.33185041e+00 1.62883925e+00
      7.84100890e-01 7.78151274e-01 1.47273433e+00 1.11394334e+00
      1.30319071e+00 1.35164571e+00 1.35883522e+00 1.23119903e+00</_>
    <_>
      1.60015154e+00 1.20748663e+00 1.20748663e+00 1.57507110e+00
      8.49484980e-01 8.45098019e-01 1.50366044e+00 1.20412004e+00
      1.28114641e+00 1.35164571e+00 1.35800171e+00 1.23044896e+00</_>
    <_>
      1.58527756e+00 1.10475755e+00 1.10475755e+00 1.54845500e+00
      7.78151274e-01 7.78151274e-01 1.49226367e+00 1.20496655e+00
      1.14723313e+00 1.39828718e+00 1.38058794e+00 9.54242527e-01</_>
    <_>
      1.59544587e+00 1.12883925e+00 1.12883925e+00 1.58513081e+00
      8.45098019e-01 9.03090000e-01 1.49338591e+00 1.23044896e+00
      1.17705417e+00 1.36819828e+00 1.39794004e+00 1.00216067e+00</_>
    <_>
      1.64634955e+00 1.31824398e+00 1.31824398e+00 1.62521005e+00
      7.78151274e-01 7.84100890e-01 1.50280476e+00 1.11394334e+00
      1.32418001e+00 1.39266491e+00 1.36939025e+00 1.14612806e+00</_>
    <_>
      1.61637104e+00 1.32418001e+00 1.32418001e+00 1.61927390e+00
      9.56906915e-01 9.56906915e-01 1.50280476e+00 9.56906915e-01
      1.28114641e+00 1.40745664e+00 1.44991028e+00 1.36213791e+00</_>
    <_>
      1.62201476e+00 1.34152353e+00 1.34152353e+00 1.61700547e+00
      9.06456649e-01 1.00851667e+00 1.51265287e+00 9.56906915e-01
      1.30157220e+00 1.42192769e+00 1.44991028e+00 1.38058794e+00</_>
    <_>
      1.56962466e+00 1.15267563e+00 1.15267563e+00 1.54389071e+00
      8.49484980e-01 8.45098019e-01 1.45154500e+00 1.17609131e+00
      1.17705417e+00 1.31419444e+00 1.34948504e+00 1.17609131e+00</_>
    <_>
      1.57993388e+00 1.15267563e+00 1.15267563e+00 1.54845500e+00
      7.78151274e-01 7.84100890e-01 1.45637667e+00 1.14723313e+00
      1.20496655e+00 1.34642351e+00 1.36819828e+00 1.11394334e+00</_>
    <_>
      1.60742188e+00 1.32418001e+00 1.32418001e+00 1.58659315e+00
      7.78151274e-01 8.49484980e-01 1.47712123e+00 1.11394334e+00
      1.34242272e+00 1.38943720e+00 1.33419299e+00 1.11394334e+00</_>
    <_>
      1.60966122e+00 1.33512294e+00 1.33512294e+00 1.62337232e+00
      7.78151274e-01 7.84100890e-01 1.46239805e+00 1.11394334e+00
      1.32418001e+00 1.33325899e+00 1.37175488e+00 1.28114641e+00</_>
    <_>
      1.59006298e+00 1.10475755e+00 1.10475755e+00 1.57993388e+00
      9.03090000e-01 9.03090000e-01 1.52634692e+00 1.17705417e+00
      1.11522448e+00 1.42285895e+00 1.43868566e+00 1.23119903e+00</_>
    <_>
      1.64745343e+00 1.39932537e+00 1.39932537e+00 1.64745343e+00
      9.56906915e-01 9.54242527e-01 1.47712123e+00 1.14723313e+00
      1.32271111e+00 1.36819828e+00 1.33419299e+00 1.36213791e+00</_>
    <_>
      1.56962466e+00 1.13358581e+00 1.13358581e+00 1.53759098e+00
      7.84100890e-01 8.45098019e-01 1.43166149e+00 1.17609131e+00
      1.17705417e+00 1.32418001e+00 1.34642351e+00 1.11522448e+00</_>
    <_>
      1.61637104e+00 1.33512294e+00 1.33512294e+00 1.61070716e+00
      8.49484980e-01 7.84100890e-01 1.48047304e+00 1.08068395e+00
      1.32271111e+00 1.38943720e+00 1.37175488e+00 1.08068395e+00</_>
    <_>
      1.64255357e+00 1.31824398e+00 1.31824398e+00 1.65105724e+00
      6.02060020e-01 6.98970020e-01 1.49226367e+00 1.11394334e+00
      1.36539114e+00 1.42005301e+00 1.43402815e+00 1.25594163e+00</_>
    <_>
      1.59006298e+00 1.12883925e+00 1.12883925e+00 1.55913234e+00
      8.49484980e-01 8.49484980e-01 1.47469497e+00 1.23119903e+00
      1.15051496e+00 1.34420991e+00 1.38171399e+00 1.</_>
    <_>
      1.59544587e+00 1.10475755e+00 1.10475755e+00 1.59006298e+00
      6.98970020e-01 6.02060020e-01 1.48047304e+00 1.23119903e+00
      1.23710811e+00 1.38021123e+00 1.41497338e+00 9.03090000e-01</_>
    <_>
      1.62823856e+00 1.19896996e+00 1.19896996e+00 1.60015154e+00
      9.06456649e-01 8.45098019e-01 1.54049349e+00 1.25594163e+00
      1.30586171e+00 1.36939025e+00 1.33925915e+00 1.17609131e+00</_>
    <_>
      1.61471295e+00 1.30103004e+00 1.30103004e+00 1.61989987e+00
      4.77121264e-01 4.77121264e-01 1.49693847e+00 1.11522448e+00
      1.34420991e+00 1.42623997e+00 1.41010070e+00 1.39794004e+00</_>
    <_>
      1.64176369e+00 1.34107256e+00 1.34107256e+00 1.64745343e+00
      9.06456649e-01 9.56906915e-01 1.46547449e+00 1.14723313e+00
      1.32271111e+00 1.34948504e+00 1.32995808e+00 1.38021123e+00</_>
    <_>
      1.66367948e+00 1.42440236e+00 1.42440236e+00 1.67366505e+00
      1.00851667e+00 1.00216067e+00 1.54984033e+00 1.20496655e+00
      1.41625440e+00 1.39087772e+00 1.40745664e+00 1.39828718e+00</_>
    <_>
      1.60475755e+00 1.12883925e+00 1.12883925e+00 1.57507110e+00
      7.78151274e-01 7.78151274e-01 1.51590610e+00 1.25793695e+00
      1.25594163e+00 1.38171399e+00 1.39932537e+00 1.04139268e+00</_>
    <_>
      1.57993388e+00 1.12883925e+00 1.12883925e+00 1.55913234e+00
      8.49484980e-01 8.45098019e-01 1.50366044e+00 1.23343384e+00
      1.17705417e+00 1.34948504e+00 1.36819828e+00 9.54242527e-01</_>
    <_>
      1.63615286e+00 1.36779940e+00 1.36779940e+00 1.63393772e+00
      8.49484980e-01 8.45098019e-01 1.48400784e+00 1.20412004e+00
      1.34420991e+00 1.32612312e+00 1.36939025e+00 1.20412004e+00</_></support_vectors>
  <decision_functions>
    <_>
      <sv_count>49</sv_count>
      <rho>4.9425849927844900e-01</rho>
      <alpha>
        1.0244003458429329e+00 2.2441843967857742e+00
        2.6699999999999999e+00 2.6699999999999999e+00
        1.5552496903662330e+00 2.6699999999999999e+00
        2.6699999999999999e+00 1.3881383209546103e+00
        1.3433558366085709e+00 1.0394839150264938e+00
        2.6699999999999999e+00 2.8704495244644501e-01
        2.0815019048077210e-01 1.6769127010200990e+00
        2.6699999999999999e+00 2.6699999999999999e+00
        1.1627689580239807e-01 2.0496356884273608e+00
        2.4007784175174725e+00 1.2299713723924304e+00
        1.2043842530225146e+00 2.6699999999999999e+00
        2.6699999999999999e+00 2.0831525371441941e+00
        4.5099639101825639e-01 2.6699999999999999e+00
        -2.6699999999999999e+00 -2.6699999999999999e+00
        -2.6699999999999999e+00 -9.3115453991082120e-01
        -8.3240893128453008e-01 -2.6699999999999999e+00
        -2.5163019898860681e+00 -2.6699999999999999e+00
        -2.6699999999999999e+00 -2.6699999999999999e+00
        -2.1321549005094328e-01 -2.6699999999999999e+00
        -1.3846537438041133e+00 -1.0042060406200324e-02
        -2.6699999999999999e+00 -2.6699999999999999e+00
        -2.6699999999999999e+00 -2.6699999999999999e+00
        -9.3016168803709254e-01 -2.3922479705290032e+00
        -2.6699999999999999e+00 -1.0409641953691433e+00
        -2.0409652955786450e+00</alpha>
      <index>
        2 5 13 14 16 17 19 20 21 24 26 27 28 29 33 35 37 38 40 44 46 48
        49 51 52 54 55 58 60 61 62 66 67 71 73 75 76 78 87 88 91 93 96
        97 106 110 111 112 113</index></_>
    <_>
      <sv_count>62</sv_count>
      <rho>1.2850127485116242e-01</rho>
      <alpha>
        1.9185151667790878e+00 8.1731302778236259e-01
        7.5063118194944523e-01 2.6699999999999999e+00
        2.6699999999999999e+00 1.5846643730394181e+00
        2.6699999999999999e+00 2.6699999999999999e+00
        2.6699999999999999e+00 3.5827774431672410e-01
        2.4335685848304278e+00 5.2831385754509330e-01
        2.6699999999999999e+00 8.6921240523590029e-02
        2.3548911236349834e+00 2.6699999999999999e+00
        3.0121823027986594e-01 2.6699999999999999e+00
        2.6699999999999999e+00 5.0409378249201031e-01
        1.7937696534858751e+00 2.6699999999999999e+00
        1.7060542232234381e+00 2.6699999999999999e+00
        2.6699999999999999e+00 8.7305963115111004e-02
        2.6699999999999999e+00 5.1685723701025442e-02
        2.0060339277133768e-01 2.6699999999999999e+00
        1.6497689427491657e+00 4.1547968607643815e-01
        2.6699999999999999e+00 1.0145957152897684e+00
        4.4977447238014617e-01 -2.6699999999999999e+00
        -5.3600081644385889e-01 -2.6699999999999999e+00
        -2.6699999999999999e+00 -2.6699999999999999e+00
        -1.4380755739344868e+00 -2.6699999999999999e+00
        -2.6699999999999999e+00 -6.9963159277893885e-02
        -2.6699999999999999e+00 -2.6699999999999999e+00
        -3.4666329980365984e-01 -5.6023577204221875e-01
        -2.6699999999999999e+00 -2.6699999999999999e+00
        -2.6699999999999999e+00 -2.6699999999999999e+00
        -2.6699999999999999e+00 -2.6699999999999999e+00
        -2.6699999999999999e+00 -2.6699999999999999e+00
        -2.6699999999999999e+00 -2.6699999999999999e+00
        -2.6699999999999999e+00 -2.6699999999999999e+00
        -3.6507464463198525e-02 -2.6699999999999999e+00</alpha>
      <index>
        0 2 3 5 6 7 8 9 10 11 13 14 16 18 19 20 23 25 26 29 30 31 34 36
        37 38 39 40 42 43 44 48 49 50 51 114 116 117 119 121 122 123 124
        125 126 129 130 131 133 134 135 136 137 138 140 141 142 143 144
        145 146 147</index></_>
    <_>
      <sv_count>66</sv_count>
      <rho>9.9999936631086295e-01</rho>
      <alpha>
        1.5532017325365597e+00 1.3072902681964513e+00
        2.6699999999999999e+00 2.6699999999999999e+00
        4.8990329224491908e-01 2.6699999999999999e+00
        2.6699999999999999e+00 2.6699999999999999e+00
        2.6699999999999999e+00 2.6699999999999999e+00
        2.2036468837365759e+00 2.6699999999999999e+00
        1.0177818563797578e+00 2.6699999999999999e+00
        5.7026377941788109e-01 2.6300442259384447e+00
        9.4676649390926770e-01 1.9862234005823047e+00
        2.6699999999999999e+00 1.8476299110085737e+00
        1.2863240149564197e+00 2.6699999999999999e+00
        7.3521716797006406e-02 1.2481974495386456e+00
        5.4077653501793210e-01 1.8889515636036084e-02
        2.6699999999999999e+00 2.6699999999999999e+00
        3.3127111941243043e-01 2.6068276776048722e+00
        1.0901413749460669e+00 2.6699999999999999e+00
        2.6699999999999999e+00 6.6623738597543736e-01
        2.3681048935300502e+00 2.6699999999999999e+00
        -2.6699999999999999e+00 -1.5673655620759377e+00
        -2.6699999999999999e+00 -9.5182766723398304e-01
        -2.6699999999999999e+00 -2.6699999999999999e+00
        -3.5762368600966382e-01 -2.6699999999999999e+00
        -2.6699999999999999e+00 -2.6699999999999999e+00
        -2.3759705832944147e+00 -2.6699999999999999e+00
        -2.6699999999999999e+00 -2.6699999999999999e+00
        -2.6699999999999999e+00 -2.6699999999999999e+00
        -2.4166406808945955e+00 -2.6699999999999999e+00
        -1.1993497840333573e+00 -2.6699999999999999e+00
        -2.6699999999999999e+00 -1.8019493067230790e+00
        -2.6699999999999999e+00 -2.4176179993481015e+00
        -2.6699999999999999e+00 -4.0824574006284214e-01
        -2.6699999999999999e+00 -2.6699999999999999e+00
        -1.4442195359822179e+00 -1.8322329817074421e+00</alpha>
      <index>
        1 2 5 7 9 10 11 13 14 15 16 17 18 19 20 21 24 25 26 29 32 33 37
        38 41 42 43 44 45 46 47 48 49 51 52 54 153 154 156 157 158 162
        163 165 168 170 172 174 176 177 178 181 182 183 188 190 191 192
        193 194 196 198 201 202 203 204</index></_>
    <_>
      <sv_count>41</sv_count>
      <rho>9.9999878945311971e-01</rho>
      <alpha>
        1.6018678910481847e+00 4.6094651456594954e-01
        2.6699999999999999e+00 7.3033373344948160e-01
        1.2931336910713052e+00 2.6699999999999999e+00
        2.5262714748317063e+00 3.2154773241012558e-01
        2.6699999999999999e+00 1.0697947920943809e+00
        1.3297596986544813e+00 1.5466315425635082e+00
        2.6699999999999999e+00 1.2480375075356711e+00
        8.3842822170928033e-01 7.1978279330612416e-01
        2.8823543670449270e-01 2.3211086339769720e+00
        2.6699999999999999e+00 2.3501099084993147e+00
        -2.6699999999999999e+00 -2.6699999999999999e+00
        -8.8187595351790160e-01 -2.2075024752994571e-01
        -2.6699999999999999e+00 -7.2028343800733238e-02
        -5.4691255871261191e-01 -1.3644941040119127e+00
        -2.6699999999999999e+00 -2.5030860738639782e-01
        -8.4367735772048746e-01 -8.1024563160119256e-01
        -2.3925601035895068e+00 -4.3188376293407799e-01
        -2.1622606746862938e+00 -2.6699999999999999e+00
        -2.6699999999999999e+00 -2.4502479158911650e-01
        -2.6699999999999999e+00 -4.1396743534080255e-01
        -2.6699999999999999e+00</alpha>
      <index>
        2 7 11 14 16 17 19 20 21 26 27 29 33 36 37 38 42 44 48 54 212
        213 214 215 220 221 222 223 225 227 229 230 231 233 236 237 238
        241 242 243 247</index></_>
    <_>
      <sv_count>58</sv_count>
      <rho>1.0000000148413568e+00</rho>
      <alpha>
        1.2865349207713517e+00 1.2573624911647155e-01
        2.6699999999999999e+00 1.9502113507758452e+00
        2.6699999999999999e+00 2.6699999999999999e+00
        2.6699999999999999e+00 2.6699999999999999e+00
        2.6699999999999999e+00 2.6699999999999999e+00
        2.6699999999999999e+00 2.2732879674078180e-01
        2.6699999999999999e+00 1.7742205908211555e+00
        1.5468425379897397e+00 2.6699999999999999e+00
        2.6699999999999999e+00 4.1985481634106175e-01
        1.6639354530223693e+00 2.6699999999999999e+00
        2.6699999999999999e+00 2.6699999999999999e+00
        2.6699999999999999e+00 9.9902335291668831e-01
        5.1164060297614566e-01 2.6699999999999999e+00
        2.6699999999999999e+00 1.6624592527622197e+00
        8.4047334450527345e-01 -2.2462363205901905e+00
        -3.2228085788028971e-01 -2.6699999999999999e+00
        -2.6370952399156513e+00 -1.8581499911101536e+00
        -2.6699999999999999e+00 -2.6699999999999999e+00
        -8.6656195825415006e-01 -1.0535901544330488e+00
        -5.3380691573234262e-01 -2.4940109637996657e+00
        -2.4815389542319899e+00 -1.5580867901742126e+00
        -4.9720552587085443e-01 -2.6699999999999999e+00
        -2.6699999999999999e+00 -2.6699999999999999e+00
        -9.8169089657144677e-03 -2.6699999999999999e+00
        -2.6699999999999999e+00 -2.6699999999999999e+00
        -2.6699999999999999e+00 -8.7301086959067398e-01
        -2.5763086519227851e+00 -2.6699999999999999e+00
        -2.6699999999999999e+00 -1.0105611662673821e+00
        -2.6699999999999999e+00 -2.6699999999999999e+00</alpha>
      <index>
        2 4 5 7 10 12 13 14 16 17 19 20 21 22 24 25 26 27 29 33 35 38 39
        40 47 48 49 51 53 257 258 259 262 263 264 266 267 268 271 273
        274 275 278 282 283 284 286 288 289 290 292 294 297 298 299 301
        303 305</index></_>
    <_>
      <sv_count>33</sv_count>
      <rho>-3.7852629807146676e-01</rho>
      <alpha>
        2.6699999999999999e+00 1.0675000946922288e-01
        2.2131548528366802e+00 2.5563967809698247e+00
        2.6699999999999999e+00 1.6519725080018302e+00
        2.6699999999999999e+00 2.6699999999999999e+00
        1.6447028817935319e-01 1.7480029435781350e+00
        2.6699999999999999e+00 1.7387298593590617e+00
        1.6202402432856082e+00 1.7436092443978457e+00
        1.2550067293347125e+00 2.3198268277153118e+00
        1.9469579672580730e+00 -2.6699999999999999e+00
        -1.6069503015092677e+00 -1.8526354614930138e+00
        -2.6699999999999999e+00 -2.6699999999999999e+00
        -7.8600245879906516e-01 -2.6699999999999999e+00
        -1.2332801667394653e+00 -7.1019388547569473e-01
        -1.9433395603053820e+00 -2.6699999999999999e+00
        -2.6699999999999999e+00 -2.6699999999999999e+00
        -2.5271642006377376e-01 -2.6699999999999999e+00
        -2.6699999999999999e+00</alpha>
      <index>
        55 58 60 62 67 69 71 75 79 86 96 97 100 102 109 110 111 116 121
        122 123 124 125 126 127 130 132 134 138 139 142 145 147</index></_>
    <_>
      <sv_count>75</sv_count>
      <rho>1.0000000263585702e+00</rho>
      <alpha>
        2.6699999999999999e+00 2.6699999999999999e+00
        2.6699999999999999e+00 2.6699999999999999e+00
        2.6699999999999999e+00 2.6699999999999999e+00
        3.9831519597908815e-01 2.6699999999999999e+00
        1.6254174038162843e+00 2.6699999999999999e+00
        2.6699999999999999e+00 2.6699999999999999e+00
        2.6699999999999999e+00 2.6699999999999999e+00
        2.6699999999999999e+00 1.9539311873493812e+00
        2.6699999999999999e+00 8.2008391996690033e-01
        2.6699999999999999e+00 2.6699999999999999e+00
        2.6699999999999999e+00 1.0289233790651595e+00
        2.6699999999999999e+00 2.6699999999999999e+00
        2.6699999999999999e+00 2.6699999999999999e+00
        2.6699999999999999e+00 2.6699999999999999e+00
        2.6699999999999999e+00 3.3684962117163619e-01
        2.6699999999999999e+00 2.6699999999999999e+00
        2.6699999999999999e+00 2.1871377812041284e+00
        2.6699999999999999e+00 2.0232929328572506e+00
        8.5664603897674982e-02 -1.4896939946761736e+00
        -1.1777709576229920e+00 -1.7727742761408449e+00
        -1.4056384430577662e+00 -2.6699999999999999e+00
        -2.6699999999999999e+00 -2.6699999999999999e+00
        -4.6233538809281993e-01 -1.4758358908125762e+00
        -2.6699999999999999e+00 -2.6699999999999999e+00
        -2.6699999999999999e+00 -2.6699999999999999e+00
        -2.6699999999999999e+00 -2.6699999999999999e+00
        -2.6699999999999999e+00 -2.6699999999999999e+00
        -2.6699999999999999e+00 -2.6699999999999999e+00
        -2.6699999999999999e+00 -2.6699999999999999e+00
        -2.6699999999999999e+00 -2.6699999999999999e+00
        -3.3901194208091356e-01 -2.5673139851985485e+00
        -2.6699999999999999e+00 -2.6699999999999999e+00
        -2.6699999999999999e+00 -2.6699999999999999e+00
        -2.2902032132508604e-01 -2.6699999999999999e+00
        -1.0230343692826318e+00 -2.6699999999999999e+00
        -1.1871864570171498e+00 -2.6699999999999999e+00
        -2.6699999999999999e+00 -2.6699999999999999e+00
        -2.6699999999999999e+00</alpha>
      <index>
        55 57 58 59 60 62 63 64 65 67 70 71 74 75 79 82 84 86 87 90 91
        92 93 94 95 96 97 100 102 104 106 108 109 110 111 112 113 149
        150 151 155 156 158 159 160 161 165 168 169 174 175 176 177 178
        181 182 183 184 186 187 188 189 191 192 193 194 197 200 201 204
        206 207 208 209 211</index></_>
    <_>
      <sv_count>47</sv_count>
      <rho>1.0000000060614564e+00</rho>
      <alpha>
        1.6903363253478614e+00 2.6699999999999999e+00
        1.6254236508255007e+00 2.6699999999999999e+00
        2.4475017819992582e+00 2.6699999999999999e+00
        2.6699999999999999e+00 2.6699999999999999e+00
        2.6699999999999999e+00 8.5091194691225280e-01
        6.9138856261081749e-01 1.0660128489975507e+00
        1.2495952373464545e+00 2.6699999999999999e+00
        2.6699999999999999e+00 7.6090434379459171e-01
        2.6699999999999999e+00 2.6699999999999999e+00
        2.6699999999999999e+00 1.6739881129657601e+00
        2.6699999999999999e+00 1.6840646989159762e+00
        3.2927859195072595e-01 2.0928981142671850e+00
        2.6699999999999999e+00 -2.6033706613775749e+00
        -2.6699999999999999e+00 -4.4286990447547081e-01
        -1.2116647800102707e+00 -2.6699999999999999e+00
        -2.6699999999999999e+00 -1.6004742910247127e+00
        -2.6699999999999999e+00 -2.6699999999999999e+00
        -1.4663288292834806e+00 -2.6699999999999999e+00
        -2.6699999999999999e+00 -2.6699999999999999e+00
        -2.6699999999999999e+00 -2.0939227229509885e+00
        -2.2586013513078469e+00 -2.6699999999999999e+00
        -2.6699999999999999e+00 -2.1032671345737532e+00
        -2.6699999999999999e+00 -2.6699999999999999e+00
        -2.3818045409298385e+00</alpha>
      <index>
        57 58 65 67 70 71 75 77 79 82 83 84 86 87 91 96 98 103 104 105
        106 110 111 112 113 212 213 214 218 220 221 223 225 228 230 231
        232 233 238 240 242 243 244 245 246 247 248</index></_>
    <_>
      <sv_count>70</sv_count>
      <rho>8.2547543191662498e-01</rho>
      <alpha>
        2.6699999999999999e+00 2.6699999999999999e+00
        2.6699999999999999e+00 2.6699999999999999e+00
        2.6699999999999999e+00 2.0351051535869678e+00
        6.3197384321398076e-01 5.8040361781672756e-01
        2.6699999999999999e+00 2.6699999999999999e+00
        2.6699999999999999e+00 2.6699999999999999e+00
        2.6699999999999999e+00 2.6699999999999999e+00
        2.6699999999999999e+00 2.6699999999999999e+00
        7.5037306703226148e-01 2.6699999999999999e+00
        2.6699999999999999e+00 2.6699999999999999e+00
        2.6699999999999999e+00 2.6699999999999999e+00
        2.6699999999999999e+00 2.6699999999999999e+00
        2.6699999999999999e+00 2.6699999999999999e+00
        2.6699999999999999e+00 2.6699999999999999e+00
        3.3157710715728206e-01 2.2860755291939130e+00
        2.6699999999999999e+00 9.3418851967588468e-01
        2.6699999999999999e+00 2.6699999999999999e+00
        1.5683624677901176e+00 -2.6699999999999999e+00
        -2.6699999999999999e+00 -1.4427702412194729e+00
        -2.6699999999999999e+00 -2.6699999999999999e+00
        -1.3024014472216476e+00 -8.1699734658712742e-01
        -2.6699999999999999e+00 -3.6842480803175437e-01
        -2.6699999999999999e+00 -2.6699999999999999e+00
        -2.6699999999999999e+00 -2.6699999999999999e+00
        -2.6699999999999999e+00 -2.6699999999999999e+00
        -2.6699999999999999e+00 -2.6699999999999999e+00
        -2.6699999999999999e+00 -2.0360706080535644e+00
        -2.6699999999999999e+00 -1.8830373442787394e+00
        -2.6271259433157486e+00 -1.6302066171201171e-01
        -2.6699999999999999e+00 -2.6699999999999999e+00
        -2.6699999999999999e+00 -2.6699999999999999e+00
        -2.6699999999999999e+00 -2.6699999999999999e+00
        -2.6699999999999999e+00 -2.6699999999999999e+00
        -2.6699999999999999e+00 -1.1482109050470723e+00
        -2.6699999999999999e+00 -2.6699999999999999e+00</alpha>
      <index>
        55 56 58 60 61 63 67 68 69 71 72 73 74 75 77 79 80 81 85 87 89
        90 91 95 96 97 99 101 102 104 107 108 110 111 112 258 259 261
        262 263 264 265 266 267 268 269 270 272 274 276 277 279 281 282
        283 285 286 287 289 290 291 292 293 296 297 298 300 302 304 305</index></_>
    <_>
      <sv_count>51</sv_count>
      <rho>1.0000000204115120e+00</rho>
      <alpha>
        2.6699999999999999e+00 2.6699999999999999e+00
        9.8392836578642839e-01 2.2914007198964561e+00
        2.6699999999999999e+00 2.6699999999999999e+00
        2.1279491000902775e+00 2.6699999999999999e+00
        2.4703377433694427e+00 9.7657396459512491e-01
        2.6699999999999999e+00 2.6699999999999999e+00
        6.8631600571810725e-01 2.6699999999999999e+00
        6.6699578010019933e-01 2.6699999999999999e+00
        1.8447498178036124e+00 2.6699999999999999e+00
        2.6699999999999999e+00 1.5384749786559713e+00
        2.6699999999999999e+00 2.6699999999999999e+00
        2.6699999999999999e+00 2.6699999999999999e+00
        -2.6699999999999999e+00 -2.5357224664202547e+00
        -2.5980990844956047e+00 -2.6699999999999999e+00
        -1.5261312569526178e+00 -1.8191698507352396e+00
        -4.8955848638388771e-01 -2.6699999999999999e+00
        -5.2021987933354974e-01 -2.5201536654563572e+00
        -3.9414856255068173e-02 -2.6699999999999999e+00
        -2.6699999999999999e+00 -2.6699999999999999e+00
        -1.7689440608740106e+00 -2.6699999999999999e+00
        -2.9549618178280562e-01 -2.6699999999999999e+00
        -1.9298185056858650e+00 -8.7688178263796968e-01
        -1.9615861487944974e+00 -2.6699999999999999e+00
        -2.6699999999999999e+00 -2.6699999999999999e+00
        -2.6699999999999999e+00 -2.6699999999999999e+00
        -4.5530250207893377e-02</alpha>
      <index>
        115 116 121 122 123 124 125 126 127 129 131 132 133 134 135 136
        137 138 139 141 143 144 145 147 154 155 156 158 162 163 164 165
        168 169 170 172 173 174 176 177 178 179 185 187 190 194 195 196
        198 201 205</index></_>
    <_>
      <sv_count>25</sv_count>
      <rho>6.8030243634972287e-01</rho>
      <alpha>
        2.6699999999999999e+00 2.6699999999999999e+00
        4.5899699808699301e-01 1.6366248664526486e+00
        2.6699999999999999e+00 1.2419919766853391e+00
        9.3929814274478540e-01 2.6699999999999999e+00
        7.8976671997711190e-01 8.0332760622392874e-01
        1.1966723937760713e+00 2.6699999999999999e+00
        2.6699999999999999e+00 -2. -1.1402183090747195e+00
        -1.2419919766853391e+00 -1.3982951408317783e+00
        -1.2861732773550409e+00 -2.6699999999999999e+00
        -2.6699999999999999e+00 -2.6699999999999999e+00
        -2.6699999999999999e+00 -2.6699999999999999e+00
        -2.6699999999999999e+00 -1.0842022472064146e-16</alpha>
      <index>
        115 116 120 122 123 124 125 126 132 133 134 135 138 212 223 229
        230 238 250 251 252 253 254 255 256</index></_>
    <_>
      <sv_count>43</sv_count>
      <rho>9.2702787402040843e-01</rho>
      <alpha>
        3.7089042700025293e-01 2.6699999999999999e+00
        2.6699999999999999e+00 8.3461767014441149e-02
        6.7661846258035796e-01 2.5381833918062759e+00
        2.6699999999999999e+00 2.6699999999999999e+00
        1.2520546677337281e+00 2.6699999999999999e+00
        4.1760306410395509e-01 1.0324687058234432e+00
        9.5245230843428688e-02 2.6699999999999999e+00
        2.6699999999999999e+00 2.6699999999999999e+00
        2.6699999999999999e+00 2.6699999999999999e+00
        2.6699999999999999e+00 2.6699999999999999e+00
        2.6699999999999999e+00 -2.6699999999999999e+00
        -1.3901061016838148e+00 -2.6699999999999999e+00
        -2.6699999999999999e+00 -2.6699999999999999e+00
        -2.2717329518593541e+00 -2.6181312917504952e-02
        -2.6699999999999999e+00 -2.6699999999999999e+00
        -2.4855440621237471e-01 -1.8197807139509430e+00
        -7.2881836566084290e-01 -1.0775673183610714e+00
        -2.6699999999999999e+00 -3.2903807751859626e-01
        -2.6699999999999999e+00 -2.6699999999999999e+00
        -1.8617830604399173e+00 -2.0674523321372007e+00
        -2.4542947452803459e+00 -2.0121633088391647e-01
        -2.6699999999999999e+00</alpha>
      <index>
        114 115 116 118 120 122 123 124 125 126 128 129 130 134 138 139
        142 143 144 145 147 257 258 262 263 264 266 267 271 273 274 277
        280 282 284 285 289 292 294 297 299 301 303</index></_>
    <_>
      <sv_count>64</sv_count>
      <rho>9.9999524717362598e-01</rho>
      <alpha>
        2.6699999999999999e+00 2.6699999999999999e+00
        2.6699999999999999e+00 5.6155355321899726e-02
        2.6699999999999999e+00 2.5282242830910056e+00
        2.6699999999999999e+00 1.8820708611725068e+00
        1.7308280276806030e+00 2.6699999999999999e+00
        3.0000576566464463e-02 2.6699999999999999e+00
        2.6699999999999999e+00 2.6699999999999999e+00
        2.6699999999999999e+00 1.0712319412706570e+00
        1.8024845812701851e+00 2.6699999999999999e+00
        2.6699999999999999e+00 2.6699999999999999e+00
        1.1711220978807948e+00 1.7481534076791607e+00
        2.6699999999999999e+00 1.4778895934536462e+00
        2.6699999999999999e+00 2.2628328642306745e+00
        7.3948112202310379e-01 2.6699999999999999e+00
        2.6699999999999999e+00 2.6699999999999999e+00
        2.6699999999999999e+00 1.9063233191685064e-01
        -2.6699999999999999e+00 -2.6699999999999999e+00
        -2.6699999999999999e+00 -2.6699999999999999e+00
        -1.5555473942193077e+00 -2.6699999999999999e+00
        -2.6699999999999999e+00 -2.6699999999999999e+00
        -2.5550356612587142e+00 -2.4933318501689978e+00
        -4.3286684738014525e-01 -2.6699999999999999e+00
        -5.8504990456170325e-01 -2.4260901392318028e+00
        -1.8915292055497146e+00 -2.6699999999999999e+00
        -2.6699999999999999e+00 -2.6699999999999999e+00
        -2.6699999999999999e+00 -9.8339868037540568e-01
        -2.6699999999999999e+00 -2.6699999999999999e+00
        -2.6699999999999999e+00 -2.4544299418796926e-02
        -1.4752669405437624e+00 -5.3063501185523310e-01
        -2.6699999999999999e+00 -6.7732365643217474e-01
        -2.6699999999999999e+00 -2.6699999999999999e+00
        -1.0604874525617878e+00 -2.6699999999999999e+00</alpha>
      <index>
        150 152 156 157 158 161 162 163 165 166 167 168 169 171 176 177
        179 180 182 183 184 185 188 190 195 199 201 204 206 209 210 211
        212 213 214 216 217 218 219 220 221 223 224 225 226 227 228 229
        230 231 232 233 234 237 238 239 241 242 244 246 247 248 249 256</index></_>
    <_>
      <sv_count>60</sv_count>
      <rho>-7.4834005061947739e-01</rho>
      <alpha>
        1.5025768036323103e-01 3.6737090458646798e-01
        5.9659308463690219e-01 2.6699999999999999e+00
        2.6699999999999999e+00 2.6699999999999999e+00
        2.6699999999999999e+00 2.6699999999999999e+00
        2.6699999999999999e+00 2.1706374765733019e+00
        3.5142224298947555e-01 8.0504056005221114e-01
        2.6699999999999999e+00 2.6699999999999999e+00
        2.1081462369626611e+00 2.6699999999999999e+00
        2.6699999999999999e+00 2.6699999999999999e+00
        2.6699999999999999e+00 6.2827052215017509e-01
        2.6699999999999999e+00 2.6699999999999999e+00
        2.6699999999999999e+00 2.6699999999999999e+00
        2.6699999999999999e+00 1.2428981638858547e+00
        2.6699999999999999e+00 2.6699999999999999e+00
        2.5384619064299661e+00 2.6699999999999999e+00
        2.6699999999999999e+00 2.6699999999999999e+00
        -2.6699999999999999e+00 -2.6699999999999999e+00
        -2.6699999999999999e+00 -2.6699999999999999e+00
        -2.6699999999999999e+00 -2.6699999999999999e+00
        -2.6699999999999999e+00 -6.4851642576921331e-01
        -2.6699999999999999e+00 -2.6699999999999999e+00
        -4.0943593547894441e-01 -2.6699999999999999e+00
        -2.6699999999999999e+00 -2.6699999999999999e+00
        -2.0667809261383256e+00 -2.4943654912437601e+00
        -2.6699999999999999e+00 -2.6699999999999999e+00
        -2.6699999999999999e+00 -2.6699999999999999e+00
        -2.6699999999999999e+00 -2.6699999999999999e+00
        -2.6699999999999999e+00 -2.6699999999999999e+00
        -2.6699999999999999e+00 -2.6699999999999999e+00
        -2.6699999999999999e+00 -2.6699999999999999e+00</alpha>
      <index>
        148 150 154 156 158 159 165 168 169 172 174 175 176 177 178 179
        182 183 184 185 187 188 191 193 196 199 201 204 206 207 208 211
        257 258 259 262 263 264 266 267 268 271 273 274 277 281 282 283
        289 290 291 295 296 297 303 304 305 306 307 308</index></_>
    <_>
      <sv_count>48</sv_count>
      <rho>-1.0000000381384635e+00</rho>
      <alpha>
        2.6448687690227728e+00 2.6699999999999999e+00
        1.7807395234654115e+00 1.8616964212083753e+00
        2.6699999999999999e+00 2.6699999999999999e+00
        4.7061804585542249e-03 2.6699999999999999e+00
        2.2001096354976674e-01 2.6699999999999999e+00
        2.6699999999999999e+00 9.6392744377187201e-01
        1.5817087576914519e+00 1.2395671317523038e+00
        2.6699999999999999e+00 1.1565413942325253e+00
        2.6699999999999999e+00 2.6699999999999999e+00
        2.6699999999999999e+00 2.6699999999999999e+00
        7.3805874229892166e-01 2.2440660254871068e+00
        2.6699999999999999e+00 2.6699999999999999e+00
        -2.6699999999999999e+00 -2.6699999999999999e+00
        -1.8155627072601793e-01 -2.6699999999999999e+00
        -2.6699999999999999e+00 -2.6699999999999999e+00
        -8.5954044304651045e-01 -2.6699999999999999e+00
        -1.6013842604579631e+00 -1.1661170203425120e-01
        -2.3079066053141530e+00 -2.6699999999999999e+00
        -1.6817566522403977e+00 -2.6699999999999999e+00
        -2.1890440865436194e+00 -2.6699999999999999e+00
        -2.6699999999999999e+00 -2.6699999999999999e+00
        -3.8465777501934506e-01 -4.8885384069923760e-01
        -1.9545797168575625e+00 -2.6699999999999999e+00
        -2.6699999999999999e+00 -2.6699999999999999e+00</alpha>
      <index>
        212 213 214 218 220 221 222 225 227 228 230 231 233 235 238 240
        242 244 245 246 247 248 254 255 258 259 260 262 263 264 266 268
        269 271 272 274 276 277 289 290 291 296 297 301 303 304 305 308</index></_></decision_functions></my_svm>
</opencv_storage>
