<?xml version="1.0"?>
<opencv_storage>
<my_svm type_id="opencv-ml-svm">
  <svm_type>C_SVC</svm_type>
  <kernel><type>RBF</type>
    <gamma>5.3830000000000000e+00</gamma></kernel>
  <C>2.6699999999999999e+00</C>
  <term_criteria><epsilon>1.1920928955078125e-07</epsilon>
    <iterations>1000</iterations></term_criteria>
  <var_all>12</var_all>
  <var_count>12</var_count>
  <class_count>6</class_count>
  <class_labels type_id="opencv-matrix">
    <rows>1</rows>
    <cols>6</cols>
    <dt>i</dt>
    <data>
      0 1 2 3 4 5</data></class_labels>
  <sv_total>623</sv_total>
  <support_vectors>
    <_>
      1.65534663e+00 1.38762307e+00 1.38762307e+00 1.66316795e+00
      8.49484980e-01 8.49484980e-01 1.52010334e+00 1.07918119e+00
      1.36336362e+00 1.46649039e+00 1.46649039e+00 1.38058794e+00</_>
    <_>
      1.65903163e+00 1.38357794e+00 1.38357794e+00 1.66490221e+00
      9.56906915e-01 9.54242527e-01 1.50788939e+00 1.00216067e+00
      1.39794004e+00 1.45154500e+00 1.42005301e+00 1.38021123e+00</_>
    <_>
      1.36336362e+00 9.64709461e-01 9.64709461e-01 1.37602425e+00
      4.77121264e-01 3.01030010e-01 1.35548151e+00 9.54242527e-01
      1.12521005e+00 1.25594163e+00 1.26573944e+00 8.49484980e-01</_>
    <_>
      1.61070716e+00 1.30103004e+00 1.30103004e+00 1.62337232e+00
      9.06456649e-01 8.49484980e-01 1.47736239e+00 1.00216067e+00
      1.27935433e+00 1.40645671e+00 1.45690691e+00 1.27935433e+00</_>
    <_>
      1.43016899e+00 1.02653921e+00 1.02653921e+00 1.45690691e+00
      4.77121264e-01 4.77121264e-01 1.42161644e+00 1.08068395e+00
      1.21162295e+00 1.30954671e+00 1.34420991e+00 8.49484980e-01</_>
    <_>
      1.60979223e+00 1.21487617e+00 1.21487617e+00 1.57213140e+00
      6.02060020e-01 6.15224481e-01 1.59234571e+00 1.23343384e+00
      1.34420991e+00 1.49494731e+00 1.47832429e+00 1.11522448e+00</_>
    <_>
      1.44296312e+00 9.34615850e-01 9.34615850e-01 1.44296312e+00
      6.02060020e-01 6.02060020e-01 1.43016899e+00 1.00216067e+00
      1.04317987e+00 1.34948504e+00 1.36539114e+00 1.20412004e+00</_>
    <_>
      1.53147888e+00 1.10742188e+00 1.10742188e+00 1.51387858e+00
      7.07486689e-01 7.84100890e-01 1.39266491e+00 1.04139268e+00
      1.15051496e+00 1.36336362e+00 1.39794004e+00 1.</_>
    <_>
      1.68020201e+00 1.31824398e+00 1.31824398e+00 1.68395734e+00
      3.01030010e-01 3.01030010e-01 1.64745343e+00 1.17705417e+00
      1.45397425e+00 1.56452250e+00 1.55309546e+00 1.54424524e+00</_>
    <_>
      1.60966122e+00 1.31214106e+00 1.31214106e+00 1.64176369e+00
      4.77121264e-01 4.77121264e-01 1.54317987e+00 1. 1.28114641e+00
      1.50851667e+00 1.54688585e+00 1.50536191e+00</_>
    <_>
      1.70564151e+00 1.36779940e+00 1.36779940e+00 1.71284866e+00
      1.04139268e+00 1.04139268e+00 1.63765574e+00 1.23119903e+00
      1.43607819e+00 1.53759098e+00 1.54949486e+00 1.51851392e+00</_>
    <_>
      1.30372751e+00 9.34615850e-01 9.34615850e-01 1.25594163e+00
      3.01030010e-01 3.49485010e-01 1.27572501e+00 9.06456649e-01
      1.04317987e+00 1.17991769e+00 1.14390087e+00 7.07486689e-01</_>
    <_>
      1.64756358e+00 1.38171399e+00 1.38171399e+00 1.64986253e+00
      7.78151274e-01 6.02060020e-01 1.45717156e+00 1.14612806e+00
      1.34948504e+00 1.39794004e+00 1.41625440e+00 1.14723313e+00</_>
    <_>
      1.65788019e+00 1.37292755e+00 1.37292755e+00 1.63914812e+00
      8.45098019e-01 7.78151274e-01 1.50851667e+00 1.08068395e+00
      1.36336362e+00 1.43607819e+00 1.40645671e+00 1.14612806e+00</_>
    <_>
      1.34948504e+00 1.06676948e+00 1.06676948e+00 1.34152353e+00
      3.01030010e-01 4.77121264e-01 1.29774809e+00 9.03090000e-01
      1.15587687e+00 1.19896996e+00 1.19100857e+00 8.45098019e-01</_>
    <_>
      1.62521005e+00 1.34287083e+00 1.34287083e+00 1.63765574e+00
      7.07486689e-01 7.84100890e-01 1.51448882e+00 1. 1.27935433e+00
      1.47928190e+00 1.48307085e+00 1.43136382e+00</_>
    <_>
      1.69235587e+00 1.30639195e+00 1.30639195e+00 1.69190764e+00
      3.01030010e-01 5.00000000e-01 1.61637104e+00 1.14723313e+00
      1.48307085e+00 1.56676948e+00 1.55258477e+00 1.38021123e+00</_>
    <_>
      1.39897978e+00 1.03409290e+00 1.03409290e+00 1.27388740e+00
      3.01030010e-01 4.77121264e-01 1.35164571e+00 9.16254461e-01
      1.11522448e+00 1.24214995e+00 1.15587687e+00 1.04317987e+00</_>
    <_>
      1.11522448e+00 8.06391954e-01 8.06391954e-01 1.35800171e+00
      3.49485010e-01 3.49485010e-01 1.05697167e+00 8.26606274e-01
      1.01871324e+00 8.92664909e-01 1.23044896e+00 1.08513081e+00</_>
    <_>
      1.45181620e+00 1. 1. 1.39087772e+00 0. 3.49485010e-01
      1.39337575e+00 1.01871324e+00 1.23044896e+00 1.32995808e+00
      1.14723313e+00 7.84100890e-01</_>
    <_>
      1.64255357e+00 1.35800171e+00 1.35800171e+00 1.63063145e+00
      7.84100890e-01 7.78151274e-01 1.49671817e+00 1.04139268e+00
      1.32418001e+00 1.43868566e+00 1.40104461e+00 1.36213791e+00</_>
    <_>
      1.49158752e+00 1.08068395e+00 1.08068395e+00 1.46419787e+00
      3.01030010e-01 3.49485010e-01 1.48863316e+00 1.08068395e+00
      1.26122212e+00 1.39337575e+00 1.38096392e+00 9.56906915e-01</_>
    <_>
      1.54406810e+00 1.14277864e+00 1.14277864e+00 1.38096392e+00
      3.49485010e-01 3.49485010e-01 1.51448882e+00 1.06836033e+00
      1.28114641e+00 1.41625440e+00 1.29774809e+00 1.24214995e+00</_>
    <_>
      1.38320637e+00 1. 1. 1.37486815e+00 3.01030010e-01 3.49485010e-01
      1.30639195e+00 1. 1.15587687e+00 1.23119903e+00 1.23119903e+00
      8.45098019e-01</_>
    <_>
      1.48307085e+00 1.05697167e+00 1.05697167e+00 1.48307085e+00
      6.98970020e-01 6.98970020e-01 1.38320637e+00 9.54242527e-01
      1.08513081e+00 1.34287083e+00 1.39932537e+00 1.25594163e+00</_>
    <_>
      1.51448882e+00 1.02653921e+00 1.02653921e+00 1.53166664e+00
      6.02060020e-01 6.15224481e-01 1.46470952e+00 1.11394334e+00
      1.15051496e+00 1.39932537e+00 1.44826317e+00 1.27875364e+00</_>
    <_>
      1.68810594e+00 1.30103004e+00 1.30103004e+00 1.70000982e+00
      4.77121264e-01 5.00000000e-01 1.63615286e+00 1.20412004e+00
      1.47149980e+00 1.56676948e+00 1.56946695e+00 1.51851392e+00</_>
    <_>
      1.28410089e+00 9.74695027e-01 9.74695027e-01 1.29497480e+00
      3.01030010e-01 3.01030010e-01 1.21162295e+00 9.03090000e-01
      1.09234571e+00 1.09234571e+00 1.11902308e+00 6.98970020e-01</_>
    <_>
      1.30372751e+00 9.34615850e-01 9.34615850e-01 1.28585446e+00 0.
      3.01030010e-01 1.31214106e+00 1.00216067e+00 1.11902308e+00
      1.14390087e+00 1.15587687e+00 1.17609131e+00</_>
    <_>
      1.53316295e+00 1.08659315e+00 1.08659315e+00 1.51448882e+00
      7.84100890e-01 6.98970020e-01 1.46470952e+00 1.08513081e+00
      1.14723313e+00 1.39828718e+00 1.36539114e+00 1.08513081e+00</_>
    <_>
      1.54389071e+00 1.14277864e+00 1.14277864e+00 1.53316295e+00
      7.07486689e-01 7.78151274e-01 1.43016899e+00 1.07918119e+00
      1.21162295e+00 1.36336362e+00 1.38171399e+00 1.20496655e+00</_>
    <_>
      1.66090274e+00 1.37486815e+00 1.37486815e+00 1.66090274e+00
      9.56906915e-01 1.00216067e+00 1.53995228e+00 1.17705417e+00
      1.36539114e+00 1.45154500e+00 1.47928190e+00 1.20496655e+00</_>
    <_>
      1.54389071e+00 1.13358581e+00 1.13358581e+00 1.51529992e+00
      7.84100890e-01 7.78151274e-01 1.43607819e+00 1.00216067e+00
      1.23343384e+00 1.36539114e+00 1.38616085e+00 1.25527251e+00</_>
    <_>
      1.55445158e+00 1.15267563e+00 1.15267563e+00 1.47050714e+00
      7.07486689e-01 6.98970020e-01 1.50935030e+00 1.15587687e+00
      1.20412004e+00 1.43255198e+00 1.30586171e+00 9.64709461e-01</_>
    <_>
      1.44296312e+00 9.95613039e-01 9.95613039e-01 1.44296312e+00
      6.98970020e-01 6.02060020e-01 1.42192769e+00 1.00216067e+00 1.
      1.34642351e+00 1.36539114e+00 1.20412004e+00</_>
    <_>
      1.36659861e+00 9.64709461e-01 9.64709461e-01 1.32271111e+00 0.
      3.01030010e-01 1.33512294e+00 9.56906915e-01 1.15051496e+00
      1.23710811e+00 1.21162295e+00 7.78151274e-01</_>
    <_>
      1.38320637e+00 1. 1. 1.34509802e+00 4.77121264e-01 5.00000000e-01
      1.36779940e+00 9.56906915e-01 1.11902308e+00 1.28410089e+00
      1.24846482e+00 9.06456649e-01</_>
    <_>
      1.32418001e+00 9.34615850e-01 9.34615850e-01 1.24214995e+00
      3.49485010e-01 3.49485010e-01 1.28410089e+00 9.16254461e-01
      1.08068395e+00 1.17705417e+00 1.10205996e+00 9.64709461e-01</_>
    <_>
      1.31419444e+00 9.64709461e-01 9.64709461e-01 1.30372751e+00
      5.00000000e-01 3.01030010e-01 1.29664302e+00 9.03090000e-01
      1.04845500e+00 1.18274403e+00 1.16316795e+00 1.</_>
    <_>
      1.62521005e+00 1.31824398e+00 1.31824398e+00 1.62337232e+00
      8.49484980e-01 8.49484980e-01 1.52653921e+00 1.04139268e+00
      1.34642351e+00 1.49226367e+00 1.43255198e+00 1.08513081e+00</_>
    <_>
      1.41400754e+00 1. 1. 1.36336362e+00 3.01030010e-01 5.00000000e-01
      1.40745664e+00 1.04317987e+00 1.17705417e+00 1.32418001e+00
      1.24846482e+00 8.62137914e-01</_>
    <_>
      1.55394399e+00 1.19458306e+00 1.19458306e+00 1.53995228e+00
      7.07486689e-01 6.98970020e-01 1.42866623e+00 9.56906915e-01
      1.30319071e+00 1.36539114e+00 1.38616085e+00 1.32271111e+00</_>
    <_>
      1.53166664e+00 1.12883925e+00 1.12883925e+00 1.46342838e+00
      6.02060020e-01 4.77121264e-01 1.48047304e+00 1.08068395e+00
      1.23710811e+00 1.38943720e+00 1.35335886e+00 1.23044896e+00</_>
    <_>
      1.44991028e+00 1.08659315e+00 1.08659315e+00 1.40309000e+00
      4.77121264e-01 3.01030010e-01 1.45181620e+00 1.08068395e+00
      1.17705417e+00 1.36539114e+00 1.29939520e+00 1.17991769e+00</_>
    <_>
      1.27388740e+00 8.92664909e-01 8.92664909e-01 1.24214995e+00
      3.01030010e-01 3.01030010e-01 1.21487617e+00 8.45098019e-01
      1.04845500e+00 1.12521005e+00 1.10205996e+00 6.98970020e-01</_>
    <_>
      1.43636942e+00 1.05697167e+00 1.05697167e+00 1.42440236e+00
      4.77121264e-01 4.77121264e-01 1.42532313e+00 1.04317987e+00
      1.17991769e+00 1.32995808e+00 1.30954671e+00 9.06456649e-01</_>
    <_>
      1.55445158e+00 1.15903163e+00 1.15903163e+00 1.52226985e+00
      7.78151274e-01 7.78151274e-01 1.41400754e+00 1. 1.23343384e+00
      1.36336362e+00 1.38171399e+00 1.23119903e+00</_>
    <_>
      1.52653921e+00 1.11522448e+00 1.11522448e+00 1.52010334e+00
      6.15224481e-01 6.98970020e-01 1.43016899e+00 1.08068395e+00
      1.23119903e+00 1.34420991e+00 1.36539114e+00 1.07918119e+00</_>
    <_>
      1.68810594e+00 1.30639195e+00 1.30639195e+00 1.69975030e+00 0.
      3.49485010e-01 1.62533200e+00 1.14723313e+00 1.48563790e+00
      1.56452250e+00 1.56820178e+00 1.51851392e+00</_>
    <_>
      1.39266491e+00 9.95613039e-01 9.95613039e-01 1.36939025e+00
      3.49485010e-01 4.77121264e-01 1.37292755e+00 1.00216067e+00
      1.15051496e+00 1.26573944e+00 1.29329360e+00 9.03090000e-01</_>
    <_>
      1.53704238e+00 1.13358581e+00 1.13358581e+00 1.54828119e+00
      6.02060020e-01 6.02060020e-01 1.49472487e+00 1.11394334e+00
      1.28817070e+00 1.39794004e+00 1.40645671e+00 1.25527251e+00</_>
    <_>
      1.50387394e+00 1.03409290e+00 1.03409290e+00 1.51711369e+00
      6.15224481e-01 7.07486689e-01 1.36939025e+00 9.54242527e-01
      1.11902308e+00 1.34287083e+00 1.41784525e+00 1.23343384e+00</_>
    <_>
      1.73863304e+00 1.31419444e+00 1.31419444e+00 1.71927118e+00
      7.07486689e-01 7.07486689e-01 1.74511969e+00 1.32271111e+00
      1.49693847e+00 1.65246058e+00 1.65661716e+00 1.51871324e+00</_>
    <_>
      1.47025824e+00 1.03409290e+00 1.03409290e+00 1.47663820e+00
      6.15224481e-01 6.02060020e-01 1.39897978e+00 9.54242527e-01
      1.11902308e+00 1.34642351e+00 1.36539114e+00 1.27935433e+00</_>
    <_>
      1.61927390e+00 1.28817070e+00 1.28817070e+00 1.62337232e+00
      9.06456649e-01 9.06456649e-01 1.47025824e+00 9.54242527e-01
      1.28114641e+00 1.42285895e+00 1.44183075e+00 1.27935433e+00</_>
    <_>
      1.43461585e+00 1.01265287e+00 1.01265287e+00 1.29939520e+00
      3.49485010e-01 3.49485010e-01 1.39932537e+00 9.64709461e-01
      1.14723313e+00 1.32271111e+00 1.15267563e+00 1.12521005e+00</_>
    <_>
      1.34152353e+00 9.74695027e-01 9.74695027e-01 1.31368291e+00
      4.77121264e-01 5.00000000e-01 1.27572501e+00 9.06456649e-01
      1.04845500e+00 1.17991769e+00 1.18460798e+00 1.04139268e+00</_>
    <_>
      1.39897978e+00 1.03409290e+00 1.03409290e+00 1.36659861e+00
      4.77121264e-01 3.01030010e-01 1.35164571e+00 1. 1.15051496e+00
      1.28114641e+00 1.26122212e+00 9.06456649e-01</_>
    <_>
      1.33185041e+00 9.34615850e-01 9.34615850e-01 1.31419444e+00
      3.01030010e-01 3.01030010e-01 1.28817070e+00 9.56906915e-01
      1.08068395e+00 1.17991769e+00 1.13358581e+00 7.07486689e-01</_>
    <_>
      1.62201476e+00 1.34642351e+00 1.34642351e+00 1.63063145e+00
      7.84100890e-01 7.84100890e-01 1.47736239e+00 1.08068395e+00
      1.32221925e+00 1.40104461e+00 1.39932537e+00 1.20496655e+00</_>
    <_>
      1.27572501e+00 9.06456649e-01 9.06456649e-01 1.23044896e+00 0.
      3.01030010e-01 1.19458306e+00 7.84100890e-01 1.08068395e+00
      1.11522448e+00 1.05697167e+00 7.84100890e-01</_>
    <_>
      1.75175917e+00 1.36213791e+00 1.36213791e+00 1.75433218e+00
      7.31199026e-01 6.98970020e-01 1.71958733e+00 1.36213791e+00
      1.51038778e+00 1.62919891e+00 1.65492153e+00 1.30157220e+00</_>
    <_>
      1.58291876e+00 1.21487617e+00 1.21487617e+00 1.62775683e+00
      7.07486689e-01 8.45098019e-01 1.48307085e+00 9.64709461e-01
      1.32271111e+00 1.46875894e+00 1.52344263e+00 1.41529429e+00</_>
    <_>
      1.30639195e+00 9.64709461e-01 9.64709461e-01 1.19458306e+00
      3.49485010e-01 3.49485010e-01 1.26381493e+00 8.62137914e-01
      1.08068395e+00 1.15051496e+00 1.06836033e+00 9.56906915e-01</_>
    <_>
      1.53759098e+00 1.11522448e+00 1.11522448e+00 1.52010334e+00
      7.78151274e-01 7.78151274e-01 1.45637667e+00 1.17705417e+00
      1.20748663e+00 1.34420991e+00 1.36213791e+00 1.</_>
    <_>
      1.64445984e+00 1.33043277e+00 1.33043277e+00 1.65587687e+00
      6.02060020e-01 6.15224481e-01 1.46850801e+00 1.00216067e+00
      1.36539114e+00 1.46265602e+00 1.47736239e+00 1.34242272e+00</_>
    <_>
      1.44296312e+00 9.64709461e-01 9.64709461e-01 1.44991028e+00
      6.98970020e-01 6.98970020e-01 1.42192769e+00 9.56906915e-01 1.
      1.34948504e+00 1.36819828e+00 1.25527251e+00</_>
    <_>
      1.67944312e+00 1.42192769e+00 1.42192769e+00 1.66490221e+00
      8.49484980e-01 9.06456649e-01 1.50194561e+00 1.04139268e+00
      1.43255198e+00 1.45154500e+00 1.42005301e+00 1.36213791e+00</_>
    <_>
      1.32612312e+00 9.28666234e-01 9.28666234e-01 1.33185041e+00
      3.01030010e-01 4.77121264e-01 1.28114641e+00 9.56906915e-01
      1.09234571e+00 1.19100857e+00 1.20496655e+00 7.84100890e-01</_>
    <_>
      1.68058050e+00 1.25052965e+00 1.25052965e+00 1.66762865e+00
      7.84100890e-01 6.02060020e-01 1.66090274e+00 1.27935433e+00
      1.42005301e+00 1.56676948e+00 1.57583809e+00 1.41497338e+00</_>
    <_>
      1.75594163e+00 1.34287083e+00 1.34287083e+00 1.72264636e+00
      7.07486689e-01 6.98970020e-01 1.73564589e+00 1.36336362e+00
      1.48307085e+00 1.63299823e+00 1.62089777e+00 1.44715798e+00</_>
    <_>
      1.23044896e+00 8.58001649e-01 8.58001649e-01 1.18274403e+00
      3.01030010e-01 3.01030010e-01 1.16922820e+00 7.84100890e-01
      1.00216067e+00 1.08068395e+00 1.05697167e+00 7.07486689e-01</_>
    <_>
      1.36659861e+00 1. 1. 1.35164571e+00 0. 0. 1.33043277e+00
      9.54242527e-01 1.17991769e+00 1.24214995e+00 1.24846482e+00
      7.78151274e-01</_>
    <_>
      1.66286039e+00 1.38320637e+00 1.38320637e+00 1.67609131e+00
      9.64709461e-01 9.54242527e-01 1.47050714e+00 1.08513081e+00
      1.39794004e+00 1.39794004e+00 1.38616085e+00 1.23343384e+00</_>
    <_>
      1.53166664e+00 1.15267563e+00 1.15267563e+00 1.52557623e+00
      5.00000000e-01 4.77121264e-01 1.47322619e+00 1.11394334e+00
      1.30954671e+00 1.36336362e+00 1.39337575e+00 1.25594163e+00</_>
    <_>
      1.57675505e+00 1.18367791e+00 1.18367791e+00 1.55697167e+00
      6.98970020e-01 6.98970020e-01 1.45717156e+00 1. 1.30586171e+00
      1.40342903e+00 1.41784525e+00 1.32221925e+00</_>
    <_>
      1.71284866e+00 1.36779940e+00 1.36779940e+00 1.70848656e+00
      9.06456649e-01 9.54242527e-01 1.64986253e+00 1.23119903e+00
      1.45690691e+00 1.56676948e+00 1.54049349e+00 1.51851392e+00</_>
    <_>
      1.69669986e+00 1.34152353e+00 1.34152353e+00 1.70848656e+00
      9.56906915e-01 9.54242527e-01 1.64745343e+00 1.23119903e+00
      1.42623997e+00 1.55797160e+00 1.55797160e+00 1.49136174e+00</_>
    <_>
      1.69235587e+00 1.35548151e+00 1.35548151e+00 1.66408777e+00
      7.84100890e-01 7.78151274e-01 1.63914812e+00 1.23119903e+00
      1.40104461e+00 1.56225216e+00 1.55258477e+00 1.39828718e+00</_>
    <_>
      1.33043277e+00 8.58001649e-01 8.58001649e-01 1.19458306e+00
      3.49485010e-01 5.00000000e-01 1.31419444e+00 9.77121234e-01
      1.00851667e+00 1.24214995e+00 9.64709461e-01 6.50515020e-01</_>
    <_>
      1.54317987e+00 1.15267563e+00 1.15267563e+00 1.51990533e+00
      6.02060020e-01 4.77121264e-01 1.51590610e+00 1.11522448e+00
      1.28410089e+00 1.41433001e+00 1.41010070e+00 1.27875364e+00</_>
    <_>
      1.63914812e+00 1.34287083e+00 1.34287083e+00 1.64445984e+00
      6.02060020e-01 6.02060020e-01 1.48377395e+00 1.04139268e+00
      1.36539114e+00 1.44743478e+00 1.46342838e+00 1.27935433e+00</_>
    <_>
      1.57072484e+00 1.19896996e+00 1.19896996e+00 1.56110799e+00
      6.98970020e-01 6.98970020e-01 1.45181620e+00 1.00216067e+00
      1.32660627e+00 1.40645671e+00 1.41625440e+00 1.32221925e+00</_>
    <_>
      1.44991028e+00 1.05697167e+00 1.05697167e+00 1.40878272e+00
      4.77121264e-01 3.49485010e-01 1.43166149e+00 1.04317987e+00
      1.20748663e+00 1.31974328e+00 1.29441583e+00 1.17705417e+00</_>
    <_>
      1.47050714e+00 1.08068395e+00 1.08068395e+00 1.47050714e+00
      4.77121264e-01 3.01030010e-01 1.41173708e+00 1.04139268e+00
      1.24214995e+00 1.32995808e+00 1.36539114e+00 1.</_>
    <_>
      1.63615286e+00 1.35800171e+00 1.35800171e+00 1.66079926e+00
      7.84100890e-01 7.84100890e-01 1.52010334e+00 1.07918119e+00
      1.34642351e+00 1.46649039e+00 1.50851667e+00 1.41625440e+00</_>
    <_>
      1.61939931e+00 1.21162295e+00 1.21162295e+00 1.60124421e+00
      6.15224481e-01 6.15224481e-01 1.59234571e+00 1.25594163e+00
      1.36539114e+00 1.50705016e+00 1.47928190e+00 1.04317987e+00</_>
    <_>
      1.48954642e+00 1.08068395e+00 1.08068395e+00 1.40878272e+00
      4.77121264e-01 5.00000000e-01 1.45717156e+00 1.08513081e+00
      1.23119903e+00 1.36336362e+00 1.31419444e+00 9.06456649e-01</_>
    <_>
      1.44296312e+00 9.95613039e-01 9.95613039e-01 1.44296312e+00
      6.02060020e-01 6.02060020e-01 1.43607819e+00 1.00216067e+00 1.
      1.36539114e+00 1.34642351e+00 1.23044896e+00</_>
    <_>
      1.44991028e+00 1.05697167e+00 1.05697167e+00 1.40309000e+00
      3.01030010e-01 1.50515005e-01 1.42192769e+00 1.08513081e+00
      1.23343384e+00 1.32271111e+00 1.28817070e+00 7.84100890e-01</_>
    <_>
      1.45690691e+00 1.03409290e+00 1.03409290e+00 1.46470952e+00
      5.00000000e-01 4.77121264e-01 1.45370567e+00 1.08068395e+00
      1.23343384e+00 1.33925915e+00 1.33925915e+00 1.17609131e+00</_>
    <_>
      1.71576226e+00 1.37292755e+00 1.37292755e+00 1.69669986e+00
      6.02060020e-01 6.02060020e-01 1.65651155e+00 1.23119903e+00
      1.49934757e+00 1.54984033e+00 1.54139268e+00 1.51931012e+00</_>
    <_>
      1.18274403e+00 8.06391954e-01 8.06391954e-01 1.36779940e+00
      4.77121264e-01 3.49485010e-01 1.14277864e+00 9.16254461e-01
      9.77121234e-01 9.93385851e-01 1.27935433e+00 1.08068395e+00</_>
    <_>
      1.59544587e+00 1.21487617e+00 1.21487617e+00 1.56110799e+00
      6.02060020e-01 4.77121264e-01 1.57056808e+00 1.20496655e+00
      1.34948504e+00 1.47149980e+00 1.44548976e+00 1.04317987e+00</_>
    <_>
      1.31368291e+00 9.64709461e-01 9.64709461e-01 1.26381493e+00
      3.01030010e-01 0. 1.26953804e+00 9.06456649e-01 1.08513081e+00
      1.15587687e+00 1.12521005e+00 1.07918119e+00</_>
    <_>
      1.40645671e+00 1.03409290e+00 1.03409290e+00 1.39266491e+00
      4.77121264e-01 4.77121264e-01 1.39794004e+00 1.00216067e+00
      1.15051496e+00 1.29329360e+00 1.29329360e+00 1.14723313e+00</_>
    <_>
      1.26381493e+00 8.58001649e-01 8.58001649e-01 1.23269141e+00
      3.01030010e-01 3.01030010e-01 1.19896996e+00 8.45098019e-01
      1.00216067e+00 1.11902308e+00 1.09234571e+00 7.84100890e-01</_>
    <_>
      1.38394880e+00 1.10205996e+00 1.10205996e+00 1.46006167e+00
      6.02060020e-01 6.98970020e-01 1.30372751e+00 9.56906915e-01
      1.14723313e+00 1.27875364e+00 1.36819828e+00 1.17991769e+00</_>
    <_>
      1.53759098e+00 1.11522448e+00 1.11522448e+00 1.52010334e+00
      6.98970020e-01 6.98970020e-01 1.43461585e+00 1.14612806e+00
      1.23343384e+00 1.34420991e+00 1.36336362e+00 1.11394334e+00</_>
    <_>
      1.24846482e+00 8.49484980e-01 8.49484980e-01 1.26122212e+00
      3.49485010e-01 3.01030010e-01 1.32756925e+00 8.45098019e-01
      9.16254461e-01 1.22123992e+00 1.19896996e+00 1.23044896e+00</_>
    <_>
      1.62775683e+00 1.31824398e+00 1.31824398e+00 1.62979698e+00
      9.54242527e-01 9.56906915e-01 1.51265287e+00 1.00216067e+00
      1.32271111e+00 1.41400754e+00 1.44296312e+00 1.38058794e+00</_>
    <_>
      1.31419444e+00 9.28666234e-01 9.28666234e-01 1.31419444e+00
      4.77121264e-01 6.02060020e-01 1.25052965e+00 1. 1.00851667e+00
      1.06836033e+00 1.06836033e+00 7.78151274e-01</_>
    <_>
      1.56061578e+00 1.15903163e+00 1.15903163e+00 1.52653921e+00
      8.49484980e-01 8.49484980e-01 1.46239805e+00 1.20496655e+00
      1.23119903e+00 1.29329360e+00 1.29939520e+00 1.07918119e+00</_>
    <_>
      1.27388740e+00 8.49484980e-01 8.49484980e-01 1.24214995e+00
      4.77121264e-01 6.02060020e-01 1.21162295e+00 9.06456649e-01
      9.56906915e-01 1.03222895e+00 1.03222895e+00 8.45098019e-01</_>
    <_>
      1.70981264e+00 1.29664302e+00 1.29664302e+00 1.63730979e+00
      9.03090000e-01 9.03090000e-01 1.65148997e+00 1.39794004e+00
      1.38616085e+00 1.47322619e+00 1.44493091e+00 1.20412004e+00</_>
    <_>
      1.12763619e+00 7.65739441e-01 7.65739441e-01 1.16922820e+00
      3.01030010e-01 3.01030010e-01 1.05697167e+00 7.78151274e-01
      8.49484980e-01 8.81713986e-01 9.64709461e-01 6.98970020e-01</_>
    <_>
      1.55913234e+00 1.10742188e+00 1.10742188e+00 1.53704238e+00
      8.49484980e-01 8.45098019e-01 1.48307085e+00 1.20496655e+00
      1.17705417e+00 1.31974328e+00 1.32995808e+00 1.08068395e+00</_>
    <_>
      1.58068395e+00 1.19369495e+00 1.19369495e+00 1.54828119e+00
      7.84100890e-01 8.45098019e-01 1.52402663e+00 1.25527251e+00
      1.25793695e+00 1.35164571e+00 1.33325899e+00 1.11394334e+00</_>
    <_>
      1.53704238e+00 1.10742188e+00 1.10742188e+00 1.54845500e+00
      9.03090000e-01 8.49484980e-01 1.43166149e+00 1.17609131e+00
      1.15587687e+00 1.25594163e+00 1.37175488e+00 1.11522448e+00</_>
    <_>
      1.24214995e+00 8.06391954e-01 8.06391954e-01 1.29441583e+00
      4.77121264e-01 4.77121264e-01 1.19190764e+00 9.03090000e-01
      9.56906915e-01 1.05697167e+00 1.01871324e+00 7.84100890e-01</_>
    <_>
      1.27388740e+00 8.92664909e-01 8.92664909e-01 1.24214995e+00
      3.01030010e-01 3.01030010e-01 1.23119903e+00 9.03090000e-01
      1.04317987e+00 1.08217645e+00 1.04845500e+00 8.45098019e-01</_>
    <_>
      1.18274403e+00 7.52574980e-01 7.52574980e-01 1.16922820e+00 0.
      3.01030010e-01 1.08068395e+00 7.84100890e-01 9.16254461e-01
      8.81713986e-01 9.64709461e-01 6.98970020e-01</_>
    <_>
      1.73119903e+00 1.31824398e+00 1.31824398e+00 1.75433218e+00
      1.00216067e+00 1.04139268e+00 1.68133545e+00 1.46265602e+00
      1.42285895e+00 1.48679483e+00 1.50536191e+00 1.25527251e+00</_>
    <_>
      1.31824398e+00 9.34615850e-01 9.34615850e-01 1.23044896e+00
      4.77121264e-01 6.15224481e-01 1.12763619e+00 8.49484980e-01
      9.56906915e-01 1.04317987e+00 9.31661427e-01 7.07486689e-01</_>
    <_>
      1.56484497e+00 1.13358581e+00 1.13358581e+00 1.52010334e+00
      9.06456649e-01 8.45098019e-01 1.49293768e+00 1.17705417e+00
      1.14612806e+00 1.34509802e+00 1.31419444e+00 1.14612806e+00</_>
    <_>
      1.72863805e+00 1.43461585e+00 1.43461585e+00 1.70181763e+00
      8.49484980e-01 8.45098019e-01 1.64187670e+00 1.30157220e+00
      1.53222895e+00 1.52940273e+00 1.48236549e+00 1.25594163e+00</_>
    <_>
      1.83010066e+00 1.40845191e+00 1.40845191e+00 1.78765166e+00
      1.11394334e+00 1.07918119e+00 1.78445268e+00 1.54477596e+00
      1.47808421e+00 1.60489154e+00 1.56110799e+00 1.32271111e+00</_>
    <_>
      1.43954790e+00 1.05360496e+00 1.05360496e+00 1.45690691e+00
      7.07486689e-01 6.98970020e-01 1.40206969e+00 1.11394334e+00
      1.12521005e+00 1.20748663e+00 1.26445830e+00 1.</_>
    <_>
      1.31419444e+00 8.92664909e-01 8.92664909e-01 1.34948504e+00
      6.02060020e-01 6.98970020e-01 1.25052965e+00 1. 9.56906915e-01
      1.06836033e+00 1.10205996e+00 8.45098019e-01</_>
    <_>
      1.57993388e+00 1.23564589e+00 1.23564589e+00 1.61329997e+00
      9.03090000e-01 9.56906915e-01 1.45370567e+00 1.11394334e+00
      1.32271111e+00 1.35335886e+00 1.42285895e+00 1.20496655e+00</_>
    <_>
      1.64176369e+00 1.33512294e+00 1.33512294e+00 1.62979698e+00
      9.54242527e-01 1.00216067e+00 1.51265287e+00 1. 1.32271111e+00
      1.42866623e+00 1.44296312e+00 1.34242272e+00</_>
    <_>
      1.61471295e+00 1.23564589e+00 1.23564589e+00 1.48236549e+00
      7.84100890e-01 7.84100890e-01 1.54049349e+00 1.23343384e+00
      1.30103004e+00 1.39337575e+00 1.31419444e+00 1.08513081e+00</_>
    <_>
      1.38652730e+00 9.95613039e-01 9.95613039e-01 1.42161644e+00
      5.00000000e-01 4.77121264e-01 1.33043277e+00 1.00216067e+00
      1.18460798e+00 1.19458306e+00 1.23269141e+00 9.54242527e-01</_>
    <_>
      1.57918119e+00 1.12883925e+00 1.12883925e+00 1.44069231e+00
      8.49484980e-01 7.84100890e-01 1.52246583e+00 1.17705417e+00
      1.17705417e+00 1.39932537e+00 1.20748663e+00 1.11902308e+00</_>
    <_>
      1.68058050e+00 1.26573944e+00 1.26573944e+00 1.61939931e+00
      9.03090000e-01 9.06456649e-01 1.61522448e+00 1.38058794e+00
      1.34642351e+00 1.41910958e+00 1.39932537e+00 1.17609131e+00</_>
    <_>
      1.64445984e+00 1.35164571e+00 1.35164571e+00 1.63949108e+00
      9.06456649e-01 9.06456649e-01 1.46239805e+00 1.11522448e+00
      1.34287083e+00 1.32612312e+00 1.37175488e+00 1.25793695e+00</_>
    <_>
      1.60381722e+00 1.24777222e+00 1.24777222e+00 1.56436110e+00
      5.00000000e-01 4.77121264e-01 1.55697167e+00 1.25527251e+00
      1.39794004e+00 1.36779940e+00 1.39932537e+00 1.11522448e+00</_>
    <_>
      1.37292755e+00 9.74695027e-01 9.74695027e-01 1.26445830e+00
      1.50515005e-01 3.49485010e-01 1.25594163e+00 9.64709461e-01
      1.14612806e+00 1.11522448e+00 1. 7.84100890e-01</_>
    <_>
      1.50194561e+00 1.08068395e+00 1.08068395e+00 1.51387858e+00
      8.45098019e-01 7.78151274e-01 1.44183075e+00 1.14723313e+00
      1.11902308e+00 1.26445830e+00 1.36336362e+00 1.17609131e+00</_>
    <_>
      1.65148997e+00 1.39266491e+00 1.39266491e+00 1.66852987e+00
      9.64709461e-01 9.06456649e-01 1.48307085e+00 1.17705417e+00
      1.38058794e+00 1.32612312e+00 1.35164571e+00 1.25527251e+00</_>
    <_>
      1.54845500e+00 1.08659315e+00 1.08659315e+00 1.54264534e+00
      9.06456649e-01 9.06456649e-01 1.46342838e+00 1.20412004e+00
      1.15051496e+00 1.29939520e+00 1.34948504e+00 1.07918119e+00</_>
    <_>
      1.19458306e+00 8.06391954e-01 8.06391954e-01 1.21887529e+00
      5.00000000e-01 4.77121264e-01 1.12883925e+00 8.45098019e-01
      8.49484980e-01 9.77121234e-01 9.77121234e-01 6.98970020e-01</_>
    <_>
      1.56962466e+00 1.08068395e+00 1.08068395e+00 1.50851667e+00
      8.49484980e-01 7.78151274e-01 1.49472487e+00 1.14723313e+00
      1.14723313e+00 1.37602425e+00 1.28410089e+00 1.11394334e+00</_>
    <_>
      1.65619445e+00 1.26445830e+00 1.26445830e+00 1.61432850e+00
      8.45098019e-01 8.45098019e-01 1.61070716e+00 1.34287083e+00
      1.35335886e+00 1.40645671e+00 1.41497338e+00 1.20496655e+00</_>
    <_>
      1.34152353e+00 9.34615850e-01 9.34615850e-01 1.17219615e+00
      3.49485010e-01 3.49485010e-01 1.25052965e+00 9.06456649e-01
      1.04139268e+00 1.12521005e+00 1. 7.84100890e-01</_>
    <_>
      1.53759098e+00 1.13358581e+00 1.13358581e+00 1.53147888e+00
      8.45098019e-01 8.45098019e-01 1.42986929e+00 1.17609131e+00
      1.17705417e+00 1.27141273e+00 1.33419299e+00 1.11394334e+00</_>
    <_>
      1.57993388e+00 1.12883925e+00 1.12883925e+00 1.51121414e+00
      8.49484980e-01 8.45098019e-01 1.51387858e+00 1.17705417e+00
      1.14723313e+00 1.39337575e+00 1.25793695e+00 1.11522448e+00</_>
    <_>
      1.14390087e+00 7.52574980e-01 7.52574980e-01 1.16922820e+00
      3.01030010e-01 3.49485010e-01 1.05697167e+00 8.49484980e-01
      8.62137914e-01 9.16254461e-01 9.06456649e-01 6.02060020e-01</_>
    <_>
      1.65321255e+00 1.40206969e+00 1.40206969e+00 1.65788019e+00
      9.16254461e-01 9.56906915e-01 1.49338591e+00 1.20412004e+00
      1.36213791e+00 1.34509802e+00 1.36939025e+00 1.25527251e+00</_>
    <_>
      1.55360496e+00 1.10742188e+00 1.10742188e+00 1.52557623e+00
      8.45098019e-01 7.78151274e-01 1.46239805e+00 1.20496655e+00
      1.17991769e+00 1.29329360e+00 1.33419299e+00 1.04317987e+00</_>
    <_>
      1.68133545e+00 1.38762307e+00 1.38762307e+00 1.67609131e+00
      9.06456649e-01 9.06456649e-01 1.49472487e+00 1.14723313e+00
      1.43402815e+00 1.37602425e+00 1.38943720e+00 1.23119903e+00</_>
    <_>
      1.59600484e+00 1.24286067e+00 1.24286067e+00 1.59600484e+00
      9.06456649e-01 9.06456649e-01 1.47322619e+00 1.14612806e+00
      1.20496655e+00 1.35800171e+00 1.34509802e+00 1.11394334e+00</_>
    <_>
      1.24214995e+00 8.49484980e-01 8.49484980e-01 1.24214995e+00
      6.02060020e-01 6.02060020e-01 1.19369495e+00 9.03090000e-01
      9.06456649e-01 1.03222895e+00 1.03222895e+00 7.78151274e-01</_>
    <_>
      1.37602425e+00 1. 1. 1.42161644e+00 6.15224481e-01 6.02060020e-01
      1.34642351e+00 1.04317987e+00 1.11902308e+00 1.19458306e+00
      1.18274403e+00 9.03090000e-01</_>
    <_>
      1.58291876e+00 1.10475755e+00 1.10475755e+00 1.47322619e+00
      9.06456649e-01 9.06456649e-01 1.53110290e+00 1.17609131e+00
      1.17705417e+00 1.39932537e+00 1.17609131e+00 1.15587687e+00</_>
    <_>
      1.33325899e+00 9.95613039e-01 9.95613039e-01 1.32271111e+00
      4.77121264e-01 4.77121264e-01 1.28351319e+00 1. 1.04845500e+00
      1.11394334e+00 1.11394334e+00 8.45098019e-01</_>
    <_>
      1.58068395e+00 1.12883925e+00 1.12883925e+00 1.46239805e+00
      8.45098019e-01 7.84100890e-01 1.53072619e+00 1.14612806e+00
      1.17609131e+00 1.41497338e+00 1.14723313e+00 1.17991769e+00</_>
    <_>
      1.12763619e+00 6.98970020e-01 6.98970020e-01 1.12763619e+00 0.
      3.01030010e-01 1.05360496e+00 7.84100890e-01 8.49484980e-01
      8.62137914e-01 9.16254461e-01 6.02060020e-01</_>
    <_>
      1.64745343e+00 1.36779940e+00 1.36779940e+00 1.65788019e+00
      9.06456649e-01 9.54242527e-01 1.49293768e+00 1.17609131e+00
      1.36336362e+00 1.36336362e+00 1.36939025e+00 1.25594163e+00</_>
    <_>
      1.63358581e+00 1.35841882e+00 1.35841882e+00 1.64390087e+00
      8.49484980e-01 9.06456649e-01 1.48307085e+00 1.14612806e+00
      1.36336362e+00 1.36336362e+00 1.34509802e+00 1.17609131e+00</_>
    <_>
      1.16922820e+00 7.65739441e-01 7.65739441e-01 1.18274403e+00
      3.01030010e-01 3.01030010e-01 1.10475755e+00 8.49484980e-01
      9.03090000e-01 9.16254461e-01 9.77121234e-01 6.02060020e-01</_>
    <_>
      1.39266491e+00 1.02653921e+00 1.02653921e+00 1.39932537e+00
      5.00000000e-01 6.02060020e-01 1.35800171e+00 1.07918119e+00
      1.11902308e+00 1.18274403e+00 1.17219615e+00 9.03090000e-01</_>
    <_>
      1.56962466e+00 1.10475755e+00 1.10475755e+00 1.50788939e+00
      9.06456649e-01 8.45098019e-01 1.47322619e+00 1.17705417e+00
      1.14723313e+00 1.33419299e+00 1.32660627e+00 1.07918119e+00</_>
    <_>
      1.39087772e+00 1. 1. 1.35883522e+00 6.02060020e-01 6.15224481e-01
      1.32756925e+00 1.04139268e+00 1.08068395e+00 1.17219615e+00
      1.12763619e+00 9.56906915e-01</_>
    <_>
      1.29441583e+00 8.92664909e-01 8.92664909e-01 1.29441583e+00
      6.02060020e-01 6.02060020e-01 1.24777222e+00 1. 9.56906915e-01
      1.09234571e+00 1.03222895e+00 7.84100890e-01</_>
    <_>
      1.70496655e+00 1.28351319e+00 1.28351319e+00 1.67599475e+00
      9.56906915e-01 9.54242527e-01 1.66490221e+00 1.41497338e+00
      1.38357794e+00 1.48679483e+00 1.45424247e+00 1.20412004e+00</_>
    <_>
      1.57993388e+00 1.22123992e+00 1.22123992e+00 1.61329997e+00
      9.06456649e-01 9.54242527e-01 1.46547449e+00 1.11394334e+00
      1.32221925e+00 1.37175488e+00 1.40645671e+00 1.17705417e+00</_>
    <_>
      1.28410089e+00 8.58001649e-01 8.58001649e-01 1.24214995e+00
      3.01030010e-01 4.77121264e-01 1.19190764e+00 9.03090000e-01
      9.56906915e-01 1.05697167e+00 9.93385851e-01 8.49484980e-01</_>
    <_>
      1.50935030e+00 1.12883925e+00 1.12883925e+00 1.49671817e+00
      6.98970020e-01 6.98970020e-01 1.46547449e+00 1.20412004e+00
      1.23710811e+00 1.28585446e+00 1.29441583e+00 1.04139268e+00</_>
    <_>
      1.66852987e+00 1.40745664e+00 1.40745664e+00 1.64445984e+00
      9.06456649e-01 9.06456649e-01 1.51265287e+00 1.11522448e+00
      1.38058794e+00 1.39266491e+00 1.34948504e+00 1.20412004e+00</_>
    <_>
      1.51990533e+00 1.15267563e+00 1.15267563e+00 1.48377395e+00
      4.77121264e-01 6.02060020e-01 1.46342838e+00 1.20496655e+00
      1.28817070e+00 1.27815127e+00 1.24214995e+00 1.</_>
    <_>
      1.56962466e+00 1.10475755e+00 1.10475755e+00 1.51387858e+00
      7.84100890e-01 7.78151274e-01 1.47322619e+00 1.20496655e+00
      1.14612806e+00 1.32995808e+00 1.28410089e+00 1.07918119e+00</_>
    <_>
      1.66652203e+00 1.37486815e+00 1.37486815e+00 1.66090274e+00
      9.56906915e-01 9.56906915e-01 1.52246583e+00 1.20412004e+00
      1.40104461e+00 1.37602425e+00 1.38652730e+00 1.39828718e+00</_>
    <_>
      1.68883526e+00 1.28114641e+00 1.28114641e+00 1.60979223e+00
      9.54242527e-01 9.56906915e-01 1.62089777e+00 1.38171399e+00
      1.34420991e+00 1.43016899e+00 1.41497338e+00 1.17609131e+00</_>
    <_>
      1.16922820e+00 8.06391954e-01 8.06391954e-01 1.12763619e+00
      4.77121264e-01 4.77121264e-01 1.10475755e+00 8.45098019e-01
      8.45098019e-01 9.64709461e-01 9.31661427e-01 6.02060020e-01</_>
    <_>
      1.35164571e+00 9.64709461e-01 9.64709461e-01 1.34152353e+00
      4.77121264e-01 6.02060020e-01 1.31419444e+00 1.04139268e+00
      1.04845500e+00 1.14390087e+00 1.10205996e+00 8.45098019e-01</_>
    <_>
      1.48470795e+00 1.13358581e+00 1.13358581e+00 1.56484497e+00
      8.49484980e-01 8.49484980e-01 1.32756925e+00 1.08068395e+00
      1.15587687e+00 1.19100857e+00 1.42005301e+00 1.07918119e+00</_>
    <_>
      1.24286067e+00 8.26606274e-01 8.26606274e-01 1.17219615e+00
      3.01030010e-01 3.49485010e-01 1.19369495e+00 9.16254461e-01
      9.54242527e-01 1.00851667e+00 9.51545000e-01 7.07486689e-01</_>
    <_>
      1.52010334e+00 1.10742188e+00 1.10742188e+00 1.54845500e+00
      8.49484980e-01 8.49484980e-01 1.43461585e+00 1.17705417e+00
      1.15587687e+00 1.26445830e+00 1.35335886e+00 1.11394334e+00</_>
    <_>
      1.52168119e+00 1.12883925e+00 1.12883925e+00 1.47322619e+00
      4.77121264e-01 5.00000000e-01 1.47322619e+00 1.17609131e+00
      1.30586171e+00 1.32612312e+00 1.25257504e+00 1.04317987e+00</_>
    <_>
      1.63811600e+00 1.23119903e+00 1.23119903e+00 1.59544587e+00
      9.03090000e-01 9.03090000e-01 1.58306694e+00 1.32271111e+00
      1.30319071e+00 1.40309000e+00 1.35883522e+00 1.11522448e+00</_>
    <_>
      1.63914812e+00 1.34642351e+00 1.34642351e+00 1.64176369e+00
      9.06456649e-01 9.06456649e-01 1.48400784e+00 1.11902308e+00
      1.34287083e+00 1.34509802e+00 1.37175488e+00 1.25594163e+00</_>
    <_>
      1.65534663e+00 1.38357794e+00 1.38357794e+00 1.63615286e+00
      9.06456649e-01 8.45098019e-01 1.50280476e+00 1.11394334e+00
      1.36213791e+00 1.38320637e+00 1.34948504e+00 1.23044896e+00</_>
    <_>
      1.69975030e+00 1.29774809e+00 1.29774809e+00 1.68617976e+00
      4.77121264e-01 6.02060020e-01 1.57383811e+00 1.30103004e+00
      1.45690691e+00 1.44183075e+00 1.44826317e+00 1.20748663e+00</_>
    <_>
      1.58291876e+00 1.12883925e+00 1.12883925e+00 1.44069231e+00
      8.45098019e-01 7.84100890e-01 1.52402663e+00 1.15051496e+00
      1.17991769e+00 1.41400754e+00 1.20748663e+00 1.11902308e+00</_>
    <_>
      1.14390087e+00 7.52574980e-01 7.52574980e-01 1.18367791e+00
      4.77121264e-01 5.00000000e-01 1.05697167e+00 7.78151274e-01
      8.01029980e-01 8.81713986e-01 9.56906915e-01 7.07486689e-01</_>
    <_>
      1.88398588e+00 1.46342838e+00 1.46342838e+00 1.82660627e+00
      1.14612806e+00 1.14612806e+00 1.81419444e+00 1.59120739e+00
      1.52344263e+00 1.63522291e+00 1.60768652e+00 1.36172783e+00</_>
    <_>
      1.37602425e+00 1. 1. 1.47025824e+00 7.84100890e-01 8.49484980e-01
      1.30103004e+00 1.04139268e+00 1.01871324e+00 1.11394334e+00
      1.21162295e+00 7.07486689e-01</_>
    <_>
      1.62823856e+00 1.25052965e+00 1.25052965e+00 1.57009685e+00
      9.03090000e-01 9.06456649e-01 1.56580937e+00 1.27935433e+00
      1.30157220e+00 1.40309000e+00 1.35841882e+00 1.14723313e+00</_>
    <_>
      1.72543240e+00 1.29774809e+00 1.29774809e+00 1.70386541e+00
      1.00216067e+00 9.54242527e-01 1.68865311e+00 1.46239805e+00
      1.40342903e+00 1.47832429e+00 1.48236549e+00 1.23119903e+00</_>
    <_>
      1.34509802e+00 9.95613039e-01 9.95613039e-01 1.33185041e+00
      5.00000000e-01 4.77121264e-01 1.26953804e+00 9.03090000e-01
      1.09234571e+00 1.11522448e+00 1.15587687e+00 9.06456649e-01</_>
    <_>
      1.53832018e+00 1.15267563e+00 1.15267563e+00 1.54317987e+00
      7.78151274e-01 7.78151274e-01 1.49472487e+00 1.23044896e+00
      1.23710811e+00 1.32612312e+00 1.32612312e+00 1.04139268e+00</_>
    <_>
      1.66090274e+00 1.37755609e+00 1.37755609e+00 1.65756512e+00
      1.04317987e+00 1.00851667e+00 1.45637667e+00 1.17991769e+00
      1.34242272e+00 1.32418001e+00 1.36539114e+00 1.14723313e+00</_>
    <_>
      1.41400754e+00 1.05697167e+00 1.05697167e+00 1.33325899e+00
      3.01030010e-01 3.01030010e-01 1.31214106e+00 1.04317987e+00
      1.17705417e+00 1.15587687e+00 1.09794986e+00 8.49484980e-01</_>
    <_>
      1.62521005e+00 1.32418001e+00 1.32418001e+00 1.61989987e+00
      9.56906915e-01 9.64709461e-01 1.49293768e+00 1.14612806e+00
      1.25793695e+00 1.36939025e+00 1.35164571e+00 1.14723313e+00</_>
    <_>
      1.89426100e+00 1.47469497e+00 1.47469497e+00 1.86271083e+00
      9.06456649e-01 8.49484980e-01 1.82300568e+00 1.61291301e+00
      1.66922820e+00 1.65051496e+00 1.61902308e+00 1.34287083e+00</_>
    <_>
      1.57009685e+00 1.10475755e+00 1.10475755e+00 1.46239805e+00
      7.78151274e-01 7.84100890e-01 1.48586977e+00 1.04317987e+00
      1.14612806e+00 1.38652730e+00 1.17991769e+00 1.25594163e+00</_>
    <_>
      1.50851667e+00 1.08659315e+00 1.08659315e+00 1.52010334e+00
      8.49484980e-01 8.45098019e-01 1.41910958e+00 1.14612806e+00
      1.15051496e+00 1.25594163e+00 1.33925915e+00 1.14723313e+00</_>
    <_>
      1.65903163e+00 1.40645671e+00 1.40645671e+00 1.67395759e+00
      9.56906915e-01 1.00216067e+00 1.54984033e+00 1.23119903e+00
      1.39932537e+00 1.38320637e+00 1.40309000e+00 1.38058794e+00</_>
    <_>
      1.14277864e+00 8.06391954e-01 8.06391954e-01 1.16922820e+00
      3.01030010e-01 3.01030010e-01 1.08068395e+00 7.78151274e-01
      9.06456649e-01 9.31661427e-01 9.31661427e-01 6.98970020e-01</_>
    <_>
      1.57918119e+00 1.10742188e+00 1.10742188e+00 1.47322619e+00
      7.84100890e-01 8.62137914e-01 1.53110290e+00 1.11394334e+00
      1.17609131e+00 1.41400754e+00 1.17705417e+00 1.21162295e+00</_>
    <_>
      1.47050714e+00 1.05360496e+00 1.05360496e+00 1.36939025e+00
      6.02060020e-01 6.15224481e-01 1.39373028e+00 1.11522448e+00
      1.14723313e+00 1.24214995e+00 1.16922820e+00 9.54242527e-01</_>
    <_>
      1.16922820e+00 8.06391954e-01 8.06391954e-01 1.18367791e+00
      3.01030010e-01 3.01030010e-01 1.02653921e+00 6.98970020e-01
      9.64709461e-01 8.81713986e-01 9.77121234e-01 7.84100890e-01</_>
    <_>
      1.43016899e+00 1. 1. 1.42440236e+00 6.02060020e-01 6.02060020e-01
      1.39514256e+00 1.07918119e+00 1.15051496e+00 1.24214995e+00
      1.23044896e+00 1.</_>
    <_>
      1.52168119e+00 1.10475755e+00 1.10475755e+00 1.54389071e+00
      6.98970020e-01 7.07486689e-01 1.43016899e+00 1.17991769e+00
      1.22435319e+00 1.25257504e+00 1.36539114e+00 1.08513081e+00</_>
    <_>
      1.31368291e+00 1. 1. 1.36659861e+00 6.02060020e-01 6.02060020e-01
      1.19190764e+00 9.54242527e-01 9.64709461e-01 1.04845500e+00
      1.09234571e+00 7.84100890e-01</_>
    <_>
      1.28585446e+00 9.28666234e-01 9.28666234e-01 1.31368291e+00
      6.02060020e-01 4.77121264e-01 1.22123992e+00 9.56906915e-01
      9.77121234e-01 1.04845500e+00 1.09234571e+00 7.78151274e-01</_>
    <_>
      1.19458306e+00 7.52574980e-01 7.52574980e-01 1.18274403e+00
      4.77121264e-01 4.77121264e-01 1.10475755e+00 8.49484980e-01
      9.06456649e-01 9.16254461e-01 9.77121234e-01 6.98970020e-01</_>
    <_>
      1.50935030e+00 1.08068395e+00 1.08068395e+00 1.56692910e+00
      7.07486689e-01 6.98970020e-01 1.43607819e+00 1.20748663e+00
      1.27141273e+00 1.23044896e+00 1.34642351e+00 1.04845500e+00</_>
    <_>
      1.36659861e+00 9.64709461e-01 9.64709461e-01 1.37602425e+00
      6.02060020e-01 6.98970020e-01 1.32756925e+00 1.04317987e+00
      1.08068395e+00 1.14390087e+00 1.17219615e+00 9.03090000e-01</_>
    <_>
      1.53704238e+00 1.10742188e+00 1.10742188e+00 1.54845500e+00
      8.45098019e-01 8.45098019e-01 1.43461585e+00 1.23119903e+00
      1.18460798e+00 1.24846482e+00 1.36819828e+00 1.04317987e+00</_>
    <_>
      1.52634692e+00 1.06676948e+00 1.06676948e+00 1.32612312e+00
      6.15224481e-01 7.31199026e-01 1.40206969e+00 1.11902308e+00
      1.21162295e+00 1.27935433e+00 1.10475755e+00 9.64709461e-01</_>
    <_>
      1.18274403e+00 8.06391954e-01 8.06391954e-01 1.19458306e+00
      3.01030010e-01 4.77121264e-01 1.12883925e+00 8.45098019e-01
      9.06456649e-01 9.77121234e-01 9.77121234e-01 6.98970020e-01</_>
    <_>
      1.43016899e+00 1.08068395e+00 1.08068395e+00 1.42866623e+00
      6.98970020e-01 6.98970020e-01 1.34287083e+00 1.07918119e+00
      1.09234571e+00 1.17219615e+00 1.19896996e+00 9.54242527e-01</_>
    <_>
      1.23044896e+00 8.06391954e-01 8.06391954e-01 1.21887529e+00
      4.77121264e-01 4.77121264e-01 1.15051496e+00 9.03090000e-01
      9.06456649e-01 1.00851667e+00 9.77121234e-01 7.07486689e-01</_>
    <_>
      1.19458306e+00 8.58001649e-01 8.58001649e-01 1.23044896e+00 0.
      3.49485010e-01 1.13358581e+00 8.45098019e-01 1.05697167e+00
      9.51545000e-01 1.01871324e+00 7.84100890e-01</_>
    <_>
      1.54984033e+00 1.15267563e+00 1.15267563e+00 1.54548156e+00
      7.78151274e-01 7.78151274e-01 1.52402663e+00 1.20412004e+00
      1.26122212e+00 1.36659861e+00 1.37486815e+00 1.08068395e+00</_>
    <_>
      1.83010066e+00 1.43461585e+00 1.43461585e+00 1.79407978e+00
      1.11394334e+00 1.07918119e+00 1.78689981e+00 1.54424524e+00
      1.50851667e+00 1.59347820e+00 1.59544587e+00 1.36213791e+00</_>
    <_>
      1.50935030e+00 1.10742188e+00 1.10742188e+00 1.49671817e+00
      7.84100890e-01 7.78151274e-01 1.47469497e+00 1.17705417e+00
      1.20748663e+00 1.29441583e+00 1.27388740e+00 1.04139268e+00</_>
    <_>
      1.47050714e+00 1.10742188e+00 1.10742188e+00 1.37602425e+00
      6.02060020e-01 6.15224481e-01 1.40645671e+00 1.07918119e+00
      1.17991769e+00 1.26445830e+00 1.22123992e+00 1.</_>
    <_>
      1.46470952e+00 1.08659315e+00 1.08659315e+00 1.56962466e+00
      7.78151274e-01 7.84100890e-01 1.30103004e+00 1.11522448e+00
      1.15587687e+00 1.12521005e+00 1.43255198e+00 1.00216067e+00</_>
    <_>
      1.71162295e+00 1.43461585e+00 1.43461585e+00 1.70790386e+00
      8.45098019e-01 7.78151274e-01 1.63533938e+00 1.27935433e+00
      1.48563790e+00 1.51448882e+00 1.47322619e+00 1.30157220e+00</_>
    <_>
      1.20748663e+00 8.58001649e-01 8.58001649e-01 1.21887529e+00
      5.00000000e-01 4.77121264e-01 1.10475755e+00 7.78151274e-01
      9.06456649e-01 9.77121234e-01 9.77121234e-01 7.78151274e-01</_>
    <_>
      1.67609131e+00 1.40845191e+00 1.40845191e+00 1.66090274e+00
      8.45098019e-01 7.84100890e-01 1.46342838e+00 1.14612806e+00
      1.41784525e+00 1.35335886e+00 1.36819828e+00 1.17609131e+00</_>
    <_>
      1.65321255e+00 1.34152353e+00 1.34152353e+00 1.66490221e+00
      1.00216067e+00 1.00216067e+00 1.46006167e+00 1.17705417e+00
      1.34242272e+00 1.36213791e+00 1.32660627e+00 1.11394334e+00</_>
    <_>
      1.25257504e+00 8.49484980e-01 8.49484980e-01 1.21887529e+00
      3.01030010e-01 3.01030010e-01 1.15267563e+00 9.06456649e-01
      9.56906915e-01 1.00216067e+00 9.31661427e-01 7.07486689e-01</_>
    <_>
      1.51121414e+00 1.08659315e+00 1.08659315e+00 1.32612312e+00
      6.15224481e-01 6.15224481e-01 1.40845191e+00 1.11522448e+00
      1.17991769e+00 1.28410089e+00 1.12883925e+00 9.06456649e-01</_>
    <_>
      1.39087772e+00 1. 1. 1.30639195e+00 5.00000000e-01 6.15224481e-01
      1.31214106e+00 1.00216067e+00 1.08068395e+00 1.14390087e+00
      1.14277864e+00 9.06456649e-01</_>
    <_>
      1.48977423e+00 1.05697167e+00 1.05697167e+00 1.51387858e+00
      8.49484980e-01 8.45098019e-01 1.44183075e+00 1.14612806e+00
      1.11902308e+00 1.28585446e+00 1.35164571e+00 1.17705417e+00</_>
    <_>
      1.65534663e+00 1.35800171e+00 1.35800171e+00 1.64986253e+00
      8.49484980e-01 9.06456649e-01 1.46547449e+00 1.14723313e+00
      1.39932537e+00 1.34948504e+00 1.38616085e+00 1.14723313e+00</_>
    <_>
      1.72681201e+00 1.30103004e+00 1.30103004e+00 1.68058050e+00
      1.00216067e+00 1. 1.67599475e+00 1.41625440e+00 1.38171399e+00
      1.49583447e+00 1.45072913e+00 1.20748663e+00</_>
    <_>
      1.31419444e+00 8.92664909e-01 8.92664909e-01 1.29497480e+00
      6.02060020e-01 6.15224481e-01 1.23564589e+00 9.54242527e-01
      1.01871324e+00 1.04845500e+00 1.05697167e+00 8.49484980e-01</_>
    <_>
      1.38096392e+00 9.34615850e-01 9.34615850e-01 1.41497338e+00
      4.77121264e-01 6.02060020e-01 1.33043277e+00 1.07918119e+00
      1.01871324e+00 1.14390087e+00 1.21162295e+00 1.04317987e+00</_>
    <_>
      1.48307085e+00 9.95613039e-01 9.95613039e-01 1.44296312e+00
      6.15224481e-01 6.98970020e-01 1.42532313e+00 1.04845500e+00
      1.07918119e+00 1.30954671e+00 1.24846482e+00 1.00216067e+00</_>
    <_>
      1.23710811e+00 7.65739441e-01 7.65739441e-01 1.29441583e+00 0. 0.
      1.22123992e+00 8.62137914e-01 1.03222895e+00 1.11522448e+00
      1.12521005e+00 1.04317987e+00</_>
    <_>
      1.43954790e+00 1. 1. 1.32612312e+00 4.77121264e-01 5.00000000e-01
      1.42986929e+00 1.04317987e+00 1.04317987e+00 1.28410089e+00
      1.19369495e+00 1.20496655e+00</_>
    <_>
      1.37486815e+00 8.92664909e-01 8.92664909e-01 1.27815127e+00
      3.01030010e-01 3.01030010e-01 1.31419444e+00 1.00851667e+00
      1.04317987e+00 1.15587687e+00 1.01265287e+00 1.11902308e+00</_>
    <_>
      1.50451291e+00 1.03409290e+00 1.03409290e+00 1.49671817e+00
      7.78151274e-01 7.84100890e-01 1.46239805e+00 1.04139268e+00
      1.04845500e+00 1.35883522e+00 1.39337575e+00 1.30157220e+00</_>
    <_>
      1.45690691e+00 1. 1. 1.47025824e+00 7.84100890e-01 7.78151274e-01
      1.26953804e+00 1.00216067e+00 9.64709461e-01 1.20496655e+00
      1.30319071e+00 9.06456649e-01</_>
    <_>
      1.41173708e+00 9.64709461e-01 9.64709461e-01 1.26445830e+00
      5.00000000e-01 5.00000000e-01 1.37486815e+00 1.05697167e+00
      1.04845500e+00 1.25527251e+00 9.95613039e-01 9.93385851e-01</_>
    <_>
      1.50216067e+00 1. 1. 1.50216067e+00 6.98970020e-01 6.02060020e-01
      1.40206969e+00 1.04317987e+00 1.04317987e+00 1.30586171e+00
      1.36336362e+00 1.17609131e+00</_>
    <_>
      1.43166149e+00 9.74695027e-01 9.74695027e-01 1.24286067e+00
      7.31199026e-01 7.07486689e-01 1.31419444e+00 1.01871324e+00
      9.16254461e-01 1.20748663e+00 8.49484980e-01 9.34615850e-01</_>
    <_>
      1.49693847e+00 1.04845500e+00 1.04845500e+00 1.42440236e+00
      7.65739441e-01 7.07486689e-01 1.35800171e+00 1.03222895e+00
      9.64709461e-01 1.26573944e+00 1.04845500e+00 8.81713986e-01</_>
    <_>
      1.49293768e+00 9.51545000e-01 9.51545000e-01 1.17609131e+00
      3.49485010e-01 6.50515020e-01 1.47736239e+00 1.12521005e+00
      1.20832026e+00 1.36336362e+00 1.10205996e+00 1.20832026e+00</_>
    <_>
      1.53759098e+00 1.06836033e+00 1.06836033e+00 1.48863316e+00
      6.02060020e-01 6.50515020e-01 1.40645671e+00 9.56906915e-01
      1.01871324e+00 1.34420991e+00 1.28817070e+00 1.25527251e+00</_>
    <_>
      1.38762307e+00 9.95613039e-01 9.95613039e-01 1.52010334e+00
      7.84100890e-01 7.78151274e-01 1.17609131e+00 9.56906915e-01
      9.64709461e-01 1.11394334e+00 1.41784525e+00 9.54242527e-01</_>
    <_>
      1.27815127e+00 7.65739441e-01 7.65739441e-01 1.27388740e+00
      4.77121264e-01 5.00000000e-01 1.15051496e+00 9.03090000e-01
      8.26606274e-01 1.00851667e+00 1.07918119e+00 9.06456649e-01</_>
    <_>
      1.36939025e+00 9.34615850e-01 9.34615850e-01 1.39932537e+00
      6.02060020e-01 6.02060020e-01 1.32418001e+00 1.04317987e+00
      9.51545000e-01 1.14277864e+00 1.19896996e+00 1.23044896e+00</_>
    <_>
      1.64445984e+00 1.27388740e+00 1.27388740e+00 1.61637104e+00
      8.49484980e-01 9.03090000e-01 1.55445158e+00 1.12521005e+00
      1.32271111e+00 1.45397425e+00 1.40309000e+00 1.30157220e+00</_>
    <_>
      1.47663820e+00 1. 1. 1.43636942e+00 6.02060020e-01 6.02060020e-01
      1.38357794e+00 1.00216067e+00 1.07918119e+00 1.30319071e+00
      1.28817070e+00 1.08068395e+00</_>
    <_>
      1.78351319e+00 1.30103004e+00 1.30103004e+00 1.73739946e+00
      1.07918119e+00 1.04317987e+00 1.77010214e+00 1.39828718e+00
      1.21162295e+00 1.62386394e+00 1.53147888e+00 1.65331972e+00</_>
    <_>
      1.66439354e+00 1.24777222e+00 1.24777222e+00 1.60542667e+00
      8.49484980e-01 8.45098019e-01 1.65321255e+00 1.32221925e+00
      1.19896996e+00 1.48977423e+00 1.40645671e+00 1.50514996e+00</_>
    <_>
      1.50935030e+00 1.05697167e+00 1.05697167e+00 1.40645671e+00
      4.77121264e-01 5.00000000e-01 1.51265287e+00 1.08513081e+00
      1.20496655e+00 1.36779940e+00 1.32660627e+00 1.30157220e+00</_>
    <_>
      1.64255357e+00 1.30372751e+00 1.30372751e+00 1.61989987e+00
      9.06456649e-01 9.54242527e-01 1.50194561e+00 1.08068395e+00
      1.30103004e+00 1.43402815e+00 1.34509802e+00 1.30319071e+00</_>
    <_>
      1.04845500e+00 8.49484980e-01 8.49484980e-01 1.28114641e+00
      4.77121264e-01 5.00000000e-01 1.08068395e+00 7.65739441e-01
      8.92664909e-01 8.62137914e-01 1.11522448e+00 1.03222895e+00</_>
    <_>
      1.61637104e+00 1.28817070e+00 1.28817070e+00 1.60205996e+00
      6.98970020e-01 6.15224481e-01 1.45181620e+00 9.54242527e-01
      1.34242272e+00 1.39337575e+00 1.37175488e+00 1.36213791e+00</_>
    <_>
      1.59049284e+00 1.21487617e+00 1.21487617e+00 1.61471295e+00
      7.07486689e-01 7.84100890e-01 1.47469497e+00 1.17705417e+00
      1.25594163e+00 1.34948504e+00 1.44183075e+00 1.41497338e+00</_>
    <_>
      1.49561298e+00 1. 1. 1.49671817e+00 7.07486689e-01 6.98970020e-01
      1.36659861e+00 9.56906915e-01 1.00216067e+00 1.30157220e+00
      1.36539114e+00 1.23119903e+00</_>
    <_>
      1.24286067e+00 9.28666234e-01 9.28666234e-01 1.46342838e+00
      6.02060020e-01 6.15224481e-01 1.14723313e+00 1.06836033e+00
      9.51545000e-01 7.65739441e-01 1.30103004e+00 9.64709461e-01</_>
    <_>
      1.36939025e+00 9.34615850e-01 9.34615850e-01 1.35164571e+00
      4.77121264e-01 6.02060020e-01 1.35800171e+00 1. 1.00851667e+00
      1.20748663e+00 1.16922820e+00 1.17609131e+00</_>
    <_>
      1.33185041e+00 8.58001649e-01 8.58001649e-01 1.29441583e+00
      5.00000000e-01 5.00000000e-01 1.30319071e+00 7.07486689e-01
      7.07486689e-01 1.28410089e+00 1.18460798e+00 1.00216067e+00</_>
    <_>
      1.57568491e+00 1.09794986e+00 1.09794986e+00 1.47050714e+00
      7.78151274e-01 7.78151274e-01 1.54193044e+00 1.20412004e+00
      1.05697167e+00 1.39087772e+00 1.25257504e+00 1.38021123e+00</_>
    <_>
      1.54317987e+00 1.11394334e+00 1.11394334e+00 1.43868566e+00
      6.98970020e-01 7.07486689e-01 1.50536191e+00 1.14612806e+00
      9.93385851e-01 1.35841882e+00 1.22435319e+00 1.32418001e+00</_>
    <_>
      1.43016899e+00 9.95613039e-01 9.95613039e-01 1.50194561e+00
      7.84100890e-01 7.78151274e-01 1.28114641e+00 1.04139268e+00
      1.00851667e+00 1.15051496e+00 1.37175488e+00 1.04139268e+00</_>
    <_>
      1.61083746e+00 1.28817070e+00 1.28817070e+00 1.59558570e+00
      7.07486689e-01 7.07486689e-01 1.46850801e+00 9.54242527e-01
      1.32271111e+00 1.40309000e+00 1.36336362e+00 1.27935433e+00</_>
    <_>
      1.39266491e+00 9.64709461e-01 9.64709461e-01 1.50451291e+00
      7.78151274e-01 6.98970020e-01 1.39897978e+00 1.11902308e+00
      1.01871324e+00 1.22123992e+00 1.31419444e+00 1.27875364e+00</_>
    <_>
      1.58644736e+00 1.25594163e+00 1.25594163e+00 1.58920062e+00
      6.15224481e-01 6.15224481e-01 1.45637667e+00 9.06456649e-01
      1.32221925e+00 1.40878272e+00 1.34509802e+00 1.34242272e+00</_>
    <_>
      1.73044896e+00 1.22123992e+00 1.22123992e+00 1.69369495e+00 1.
      9.56906915e-01 1.70284390e+00 1.39828718e+00 1.14390087e+00
      1.53166664e+00 1.45424247e+00 1.53147888e+00</_>
    <_>
      1.53759098e+00 9.74695027e-01 9.74695027e-01 1.46470952e+00
      7.78151274e-01 7.78151274e-01 1.48400784e+00 1.14612806e+00
      1.01871324e+00 1.34107256e+00 1.24214995e+00 1.27935433e+00</_>
    <_>
      1.26573944e+00 8.92664909e-01 8.92664909e-01 1.51871324e+00
      5.00000000e-01 6.15224481e-01 1.42005301e+00 1.00851667e+00
      1.12763619e+00 1.23269141e+00 1.36336362e+00 1.26573944e+00</_>
    <_>
      1.59049284e+00 1.25052965e+00 1.25052965e+00 1.58920062e+00
      6.98970020e-01 7.07486689e-01 1.46850801e+00 1.00216067e+00
      1.32271111e+00 1.38096392e+00 1.37602425e+00 1.34287083e+00</_>
    <_>
      1.59333694e+00 1.18367791e+00 1.18367791e+00 1.58513081e+00
      8.01029980e-01 7.78151274e-01 1.48863316e+00 1.07918119e+00
      1.30586171e+00 1.41010070e+00 1.40878272e+00 1.39932537e+00</_>
    <_>
      1.44296312e+00 9.34615850e-01 9.34615850e-01 1.33325899e+00
      6.15224481e-01 6.98970020e-01 1.31824398e+00 1.04317987e+00
      9.03090000e-01 1.20496655e+00 1.04845500e+00 7.84100890e-01</_>
    <_>
      1.31419444e+00 8.58001649e-01 8.58001649e-01 1.24214995e+00
      5.00000000e-01 4.77121264e-01 1.13358581e+00 9.06456649e-01
      7.07486689e-01 1. 1.00216067e+00 7.78151274e-01</_>
    <_>
      1.91666925e+00 1.45208716e+00 1.45208716e+00 1.87663829e+00
      1.14612806e+00 1.08068395e+00 1.86250639e+00 1.43166149e+00
      1.47928190e+00 1.75480282e+00 1.71927118e+00 1.69028652e+00</_>
    <_>
      1.26445830e+00 7.65739441e-01 7.65739441e-01 1.24214995e+00
      4.77121264e-01 5.00000000e-01 1.15051496e+00 9.03090000e-01
      7.84100890e-01 1.00851667e+00 1.00851667e+00 1.</_>
    <_>
      1.33325899e+00 9.34615850e-01 9.34615850e-01 1.33185041e+00
      5.00000000e-01 5.00000000e-01 1.19369495e+00 9.03090000e-01
      8.01029980e-01 1.08513081e+00 1.11394334e+00 1.07918119e+00</_>
    <_>
      1.49158752e+00 1.02653921e+00 1.02653921e+00 1.50851667e+00
      7.78151274e-01 8.45098019e-01 1.45208716e+00 1.07918119e+00
      1.00851667e+00 1.34509802e+00 1.37175488e+00 1.23119903e+00</_>
    <_>
      1.60542667e+00 1.28817070e+00 1.28817070e+00 1.62201476e+00
      6.98970020e-01 6.02060020e-01 1.47273433e+00 1.11522448e+00
      1.32271111e+00 1.36939025e+00 1.40645671e+00 1.36539114e+00</_>
    <_>
      1.34509802e+00 8.92664909e-01 8.92664909e-01 1.37602425e+00
      4.77121264e-01 4.77121264e-01 1.33512294e+00 1.00216067e+00
      1.05697167e+00 1.18367791e+00 1.17219615e+00 1.17609131e+00</_>
    <_>
      1.36939025e+00 9.34615850e-01 9.34615850e-01 1.21887529e+00
      4.77121264e-01 4.77121264e-01 1.35463500e+00 9.16254461e-01
      1.00216067e+00 1.20748663e+00 1.05697167e+00 1.</_>
    <_>
      1.81638050e+00 1.33512294e+00 1.33512294e+00 1.77875364e+00 1.
      9.54242527e-01 1.84282613e+00 1.41529429e+00 1.35335886e+00
      1.69740093e+00 1.63765574e+00 1.74825728e+00</_>
    <_>
      1.44991028e+00 9.95613039e-01 9.95613039e-01 1.47025824e+00
      6.98970020e-01 6.98970020e-01 1.39373028e+00 1. 1.04139268e+00
      1.27388740e+00 1.28585446e+00 1.17705417e+00</_>
    <_>
      1.48307085e+00 1.02653921e+00 1.02653921e+00 1.47832429e+00
      6.15224481e-01 6.98970020e-01 1.36213791e+00 1.04317987e+00
      1.04845500e+00 1.25793695e+00 1.29329360e+00 1.00851667e+00</_>
    <_>
      1.64756358e+00 1.28817070e+00 1.28817070e+00 1.57507110e+00
      9.06456649e-01 9.03090000e-01 1.52940273e+00 1.04139268e+00
      1.23119903e+00 1.46419787e+00 1.34509802e+00 1.39794004e+00</_>
    <_>
      1.39794004e+00 9.95613039e-01 9.95613039e-01 1.52010334e+00
      7.84100890e-01 8.45098019e-01 1.15903163e+00 1.00216067e+00
      1.00851667e+00 1.11902308e+00 1.38171399e+00 9.06456649e-01</_>
    <_>
      1.50451291e+00 1.03409290e+00 1.03409290e+00 1.49671817e+00
      6.98970020e-01 7.78151274e-01 1.41784525e+00 1.08068395e+00
      1.04845500e+00 1.31974328e+00 1.38943720e+00 1.23119903e+00</_>
    <_>
      1.41497338e+00 1.02653921e+00 1.02653921e+00 1.47663820e+00
      7.07486689e-01 6.98970020e-01 1.19369495e+00 1.04317987e+00
      9.51545000e-01 1.04317987e+00 1.20412004e+00 1.00216067e+00</_>
    <_>
      1.70964742e+00 1.26381493e+00 1.26381493e+00 1.61070716e+00
      8.45098019e-01 8.49484980e-01 1.71096635e+00 1.36213791e+00
      1.26573944e+00 1.54389071e+00 1.48863316e+00 1.51851392e+00</_>
    <_>
      1.39794004e+00 9.34615850e-01 9.34615850e-01 1.33419299e+00
      5.00000000e-01 3.49485010e-01 1.41910958e+00 9.56906915e-01
      1.08068395e+00 1.28817070e+00 1.21487617e+00 1.23044896e+00</_>
    <_>
      1.36939025e+00 9.06456649e-01 9.06456649e-01 1.31419444e+00
      6.02060020e-01 6.98970020e-01 1.29774809e+00 1. 8.62137914e-01
      1.14390087e+00 1.10205996e+00 1.11394334e+00</_>
    <_>
      1.62484372e+00 1.10742188e+00 1.10742188e+00 1.53147888e+00
      8.49484980e-01 8.49484980e-01 1.55913234e+00 1.25793695e+00
      1.08068395e+00 1.42285895e+00 1.23343384e+00 1.30157220e+00</_>
    <_>
      1.59006298e+00 1.28351319e+00 1.28351319e+00 1.62201476e+00
      6.02060020e-01 6.15224481e-01 1.47273433e+00 1.07918119e+00
      1.32271111e+00 1.35883522e+00 1.42623997e+00 1.38357794e+00</_>
    <_>
      1.33325899e+00 9.74695027e-01 9.74695027e-01 1.28410089e+00
      6.15224481e-01 6.15224481e-01 1.19369495e+00 8.45098019e-01
      7.84100890e-01 1.09234571e+00 1.04845500e+00 1.</_>
    <_>
      1.53147888e+00 1.08068395e+00 1.08068395e+00 1.49561298e+00
      6.98970020e-01 7.84100890e-01 1.45208716e+00 1.15051496e+00
      1.14612806e+00 1.29329360e+00 1.31974328e+00 1.04317987e+00</_>
    <_>
      1.54949486e+00 1.06676948e+00 1.06676948e+00 1.49158752e+00
      7.78151274e-01 7.78151274e-01 1.53667581e+00 1.23044896e+00
      1.05697167e+00 1.35841882e+00 1.31368291e+00 1.38021123e+00</_>
    <_>
      1.69369495e+00 1.29774809e+00 1.29774809e+00 1.66316795e+00
      7.78151274e-01 8.49484980e-01 1.60742188e+00 1.25527251e+00
      1.41529429e+00 1.53446376e+00 1.46649039e+00 1.23044896e+00</_>
    <_>
      1.60475755e+00 1.28817070e+00 1.28817070e+00 1.60542667e+00
      7.84100890e-01 7.78151274e-01 1.46547449e+00 1.11394334e+00
      1.28114641e+00 1.37175488e+00 1.43868566e+00 1.27935433e+00</_>
    <_>
      1.41784525e+00 9.77121234e-01 9.77121234e-01 1.31419444e+00
      3.49485010e-01 3.49485010e-01 1.38943720e+00 1.08217645e+00
      1.04845500e+00 1.29939520e+00 9.06456649e-01 9.06456649e-01</_>
    <_>
      1.50216067e+00 9.64709461e-01 9.64709461e-01 1.51387858e+00
      6.02060020e-01 6.98970020e-01 1.41910958e+00 1. 1.08513081e+00
      1.32612312e+00 1.36819828e+00 1.27935433e+00</_>
    <_>
      1.23044896e+00 6.98970020e-01 6.98970020e-01 1.20832026e+00
      4.77121264e-01 4.77121264e-01 1.10742188e+00 7.84100890e-01
      6.98970020e-01 9.64709461e-01 1.01871324e+00 9.54242527e-01</_>
    <_>
      1.43461585e+00 9.64709461e-01 9.64709461e-01 1.28817070e+00
      7.07486689e-01 7.07486689e-01 1.40745664e+00 1.01871324e+00
      1.00216067e+00 1.28410089e+00 1. 1.15587687e+00</_>
    <_>
      1.47025824e+00 9.64709461e-01 9.64709461e-01 1.50935030e+00
      7.07486689e-01 6.98970020e-01 1.34152353e+00 9.54242527e-01
      9.64709461e-01 1.28114641e+00 1.36336362e+00 1.11394334e+00</_>
    <_>
      1.29441583e+00 8.49484980e-01 8.49484980e-01 1.39087772e+00
      6.98970020e-01 6.15224481e-01 1.20748663e+00 9.64709461e-01
      9.06456649e-01 1.04845500e+00 1.21728444e+00 1.14612806e+00</_>
    <_>
      1.59006298e+00 1.21487617e+00 1.21487617e+00 1.61471295e+00
      4.77121264e-01 3.01030010e-01 1.46239805e+00 1.15051496e+00
      1.30157220e+00 1.37602425e+00 1.42005301e+00 1.25594163e+00</_>
    <_>
      1.29441583e+00 8.26606274e-01 8.26606274e-01 1.28585446e+00
      3.01030010e-01 3.01030010e-01 1.19190764e+00 8.45098019e-01
      9.16254461e-01 1.06836033e+00 1.09234571e+00 1.04317987e+00</_>
    <_>
      1.49671817e+00 1.05360496e+00 1.05360496e+00 1.31419444e+00
      6.15224481e-01 7.07486689e-01 1.46850801e+00 1.04845500e+00
      1.04845500e+00 1.35800171e+00 1.08068395e+00 1.20748663e+00</_>
    <_>
      1.41625440e+00 9.64709461e-01 9.64709461e-01 1.31419444e+00
      5.00000000e-01 4.77121264e-01 1.30639195e+00 1.01871324e+00
      9.54242527e-01 1.21162295e+00 1. 7.31199026e-01</_>
    <_>
      1.18274403e+00 6.98970020e-01 6.98970020e-01 1.14277864e+00
      3.01030010e-01 4.77121264e-01 1.06676948e+00 7.07486689e-01
      6.15224481e-01 9.56906915e-01 9.06456649e-01 8.45098019e-01</_>
    <_>
      1.27572501e+00 8.06391954e-01 8.06391954e-01 1.14390087e+00
      5.00000000e-01 4.77121264e-01 1.15587687e+00 8.62137914e-01
      7.84100890e-01 1.04317987e+00 8.81713986e-01 7.84100890e-01</_>
    <_>
      1.36779940e+00 8.92664909e-01 8.92664909e-01 1.21487617e+00
      5.00000000e-01 6.15224481e-01 1.37755609e+00 1.01871324e+00
      9.56906915e-01 1.23710811e+00 6.15224481e-01 1.11522448e+00</_>
    <_>
      1.45690691e+00 1. 1. 1.48954642e+00 7.07486689e-01 6.98970020e-01
      1.26573944e+00 1.04139268e+00 1.01871324e+00 1.14723313e+00
      1.32271111e+00 9.06456649e-01</_>
    <_>
      1.16922820e+00 7.65739441e-01 7.65739441e-01 1.37755609e+00
      4.77121264e-01 3.01030010e-01 1.12521005e+00 1.06836033e+00
      7.07486689e-01 8.62137914e-01 1.25527251e+00 9.64709461e-01</_>
    <_>
      1.46342838e+00 1.04845500e+00 1.04845500e+00 1.19369495e+00
      6.50515020e-01 6.02060020e-01 1.42866623e+00 1.01871324e+00
      1.17219615e+00 1.32418001e+00 9.06456649e-01 1.27141273e+00</_>
    <_>
      1.47050714e+00 9.34615850e-01 9.34615850e-01 1.45690691e+00
      6.98970020e-01 6.98970020e-01 1.35841882e+00 1.04317987e+00
      1.00216067e+00 1.27875364e+00 1.28114641e+00 8.49484980e-01</_>
    <_>
      1.34287083e+00 1.01871324e+00 1.01871324e+00 1.35335886e+00
      7.84100890e-01 7.07486689e-01 1.32660627e+00 1.00851667e+00
      1.00216067e+00 1.14390087e+00 1.17219615e+00 1.23710811e+00</_>
    <_>
      1.25257504e+00 9.34615850e-01 9.34615850e-01 1.23044896e+00
      6.02060020e-01 6.02060020e-01 1.19190764e+00 8.45098019e-01
      8.49484980e-01 1.06836033e+00 1.06836033e+00 1.</_>
    <_>
      1.43607819e+00 1.03409290e+00 1.03409290e+00 1.47736239e+00
      8.45098019e-01 8.49484980e-01 1.39794004e+00 1.11522448e+00
      1.04317987e+00 1.24214995e+00 1.31974328e+00 1.20412004e+00</_>
    <_>
      1.41173708e+00 1.09794986e+00 1.09794986e+00 1.52010334e+00
      7.84100890e-01 7.78151274e-01 1.31824398e+00 1.08068395e+00
      1.08513081e+00 1.14390087e+00 1.38943720e+00 1.30157220e+00</_>
    <_>
      1.49226367e+00 1.14390087e+00 1.14390087e+00 1.48307085e+00
      8.49484980e-01 8.45098019e-01 1.45154500e+00 1.11522448e+00
      1.17705417e+00 1.30639195e+00 1.32612312e+00 1.14612806e+00</_>
    <_>
      1.41625440e+00 1.01265287e+00 1.01265287e+00 1.44296312e+00
      7.84100890e-01 7.78151274e-01 1.36819828e+00 1.07918119e+00
      1.04317987e+00 1.24214995e+00 1.29329360e+00 1.11394334e+00</_>
    <_>
      1.66772890e+00 1.28817070e+00 1.28817070e+00 1.65944886e+00
      9.06456649e-01 9.56906915e-01 1.58306694e+00 1.30157220e+00
      1.34642351e+00 1.45397425e+00 1.40645671e+00 1.30103004e+00</_>
    <_>
      1.39087772e+00 1.09794986e+00 1.09794986e+00 1.33185041e+00
      4.77121264e-01 6.02060020e-01 1.39514256e+00 8.45098019e-01
      1.11902308e+00 1.30103004e+00 1.24777222e+00 1.41529429e+00</_>
    <_>
      1.28585446e+00 9.34615850e-01 9.34615850e-01 1.31419444e+00
      4.77121264e-01 5.00000000e-01 1.32418001e+00 8.45098019e-01
      9.16254461e-01 1.19190764e+00 1.21487617e+00 1.34287083e+00</_>
    <_>
      1.53759098e+00 1.22123992e+00 1.22123992e+00 1.49561298e+00
      8.45098019e-01 7.78151274e-01 1.52402663e+00 1.11522448e+00
      1.25793695e+00 1.37755609e+00 1.38762307e+00 1.54406810e+00</_>
    <_>
      1.31368291e+00 1.01265287e+00 1.01265287e+00 1.35841882e+00 0. 0.
      1.31824398e+00 9.06456649e-01 1.19100857e+00 1.19896996e+00
      1.25257504e+00 1.36172783e+00</_>
    <_>
      1.35800171e+00 1.01871324e+00 1.01871324e+00 1.35335886e+00
      6.15224481e-01 6.15224481e-01 1.40578747e+00 9.77121234e-01
      1.08068395e+00 1.24286067e+00 1.25052965e+00 1.38357794e+00</_>
    <_>
      1.65267563e+00 1.38762307e+00 1.38762307e+00 1.65267563e+00
      9.06456649e-01 9.03090000e-01 1.50366044e+00 1.17705417e+00
      1.36819828e+00 1.41010070e+00 1.40645671e+00 1.23044896e+00</_>
    <_>
      1.52010334e+00 1.12763619e+00 1.12763619e+00 1.49671817e+00
      8.49484980e-01 8.45098019e-01 1.45370567e+00 1.17609131e+00
      1.17991769e+00 1.28585446e+00 1.33925915e+00 1.14723313e+00</_>
    <_>
      1.44380867e+00 1.04845500e+00 1.04845500e+00 1.46342838e+00
      8.49484980e-01 7.78151274e-01 1.39373028e+00 1.08068395e+00
      1.04139268e+00 1.23269141e+00 1.27815127e+00 1.11394334e+00</_>
    <_>
      1.32660627e+00 9.95613039e-01 9.95613039e-01 1.32756925e+00
      6.15224481e-01 6.15224481e-01 1.38652730e+00 9.64709461e-01
      1.01265287e+00 1.23564589e+00 1.22435319e+00 1.38616085e+00</_>
    <_>
      1.51387858e+00 1.11522448e+00 1.11522448e+00 1.48977423e+00
      7.78151274e-01 8.45098019e-01 1.46342838e+00 1.14612806e+00
      1.17705417e+00 1.31419444e+00 1.32612312e+00 1.17609131e+00</_>
    <_>
      1.52168119e+00 1.21887529e+00 1.21887529e+00 1.39794004e+00
      8.45098019e-01 7.78151274e-01 1.50194561e+00 1.10205996e+00
      1.26445830e+00 1.38357794e+00 8.06391954e-01 1.10205996e+00</_>
    <_>
      1.42532313e+00 1.12763619e+00 1.12763619e+00 1.50851667e+00
      8.45098019e-01 8.45098019e-01 1.31419444e+00 1.04139268e+00
      1.11522448e+00 1.14390087e+00 1.34948504e+00 1.20496655e+00</_>
    <_>
      1.49671817e+00 1.11522448e+00 1.11522448e+00 1.47736239e+00
      7.07486689e-01 6.15224481e-01 1.45154500e+00 1.08068395e+00
      1.20496655e+00 1.31419444e+00 1.31974328e+00 1.25594163e+00</_>
    <_>
      1.37486815e+00 1. 1. 1.28410089e+00 7.07486689e-01 6.98970020e-01
      1.32756925e+00 1.00216067e+00 9.56906915e-01 1.19100857e+00
      1.10205996e+00 9.54242527e-01</_>
    <_>
      1.30372751e+00 9.74695027e-01 9.74695027e-01 1.28410089e+00
      6.98970020e-01 7.78151274e-01 1.29497480e+00 8.45098019e-01
      1.04317987e+00 1.15051496e+00 1.15051496e+00 1.20412004e+00</_>
    <_>
      1.67219615e+00 1.33512294e+00 1.33512294e+00 1.65587687e+00
      9.06456649e-01 9.06456649e-01 1.56371439e+00 1.20412004e+00
      1.34948504e+00 1.48307085e+00 1.45154500e+00 1.38058794e+00</_>
    <_>
      1.50280476e+00 1.16316795e+00 1.16316795e+00 1.39266491e+00
      6.50515020e-01 7.07486689e-01 1.46342838e+00 1.10205996e+00
      1.26122212e+00 1.28585446e+00 1.19896996e+00 1.38943720e+00</_>
    <_>
      1.68497884e+00 1.42192769e+00 1.42192769e+00 1.63949108e+00
      1.00216067e+00 1. 1.52634692e+00 1.14723313e+00 1.41529429e+00
      1.42623997e+00 1.35164571e+00 1.32271111e+00</_>
    <_>
      1.48470795e+00 1.12763619e+00 1.12763619e+00 1.47736239e+00
      8.49484980e-01 7.78151274e-01 1.42926860e+00 1.11522448e+00
      1.14723313e+00 1.27815127e+00 1.31974328e+00 1.14612806e+00</_>
    <_>
      1.66772890e+00 1.31419444e+00 1.31419444e+00 1.63393772e+00
      6.02060020e-01 6.15224481e-01 1.56110799e+00 1.15587687e+00
      1.30954671e+00 1.49158752e+00 1.43136382e+00 1.43136382e+00</_>
    <_>
      1.53147888e+00 1.21487617e+00 1.21487617e+00 1.51387858e+00
      9.54242527e-01 9.03090000e-01 1.55445158e+00 1.23119903e+00
      1.25793695e+00 1.37292755e+00 1.33043277e+00 1.41497338e+00</_>
    <_>
      1.64445984e+00 1.38762307e+00 1.38762307e+00 1.65267563e+00
      9.56906915e-01 9.03090000e-01 1.48307085e+00 1.11522448e+00
      1.38357794e+00 1.35164571e+00 1.40878272e+00 1.34287083e+00</_>
    <_>
      1.52634692e+00 1.19896996e+00 1.19896996e+00 1.51285768e+00
      7.84100890e-01 8.01029980e-01 1.56110799e+00 1.15587687e+00
      1.27875364e+00 1.38394880e+00 1.38762307e+00 1.54565763e+00</_>
    <_>
      1.40878272e+00 1.10742188e+00 1.10742188e+00 1.42192769e+00
      7.84100890e-01 8.45098019e-01 1.40645671e+00 1.00216067e+00
      1.15587687e+00 1.24777222e+00 1.25594163e+00 1.25793695e+00</_>
    <_>
      1.37755609e+00 1.03222895e+00 1.03222895e+00 1.55512643e+00
      7.84100890e-01 7.84100890e-01 1.45370567e+00 1.04317987e+00
      1.11902308e+00 1.30639195e+00 1.43461585e+00 1.34642351e+00</_>
    <_>
      1.43868566e+00 1.01265287e+00 1.01265287e+00 1.39897978e+00
      6.98970020e-01 7.78151274e-01 1.39514256e+00 1.08068395e+00
      1.11522448e+00 1.26573944e+00 1.23269141e+00 1.11522448e+00</_>
    <_>
      1.28410089e+00 9.34615850e-01 9.34615850e-01 1.26381493e+00
      6.02060020e-01 6.15224481e-01 1.25052965e+00 9.03090000e-01
      1.00216067e+00 1.09794986e+00 1.06836033e+00 9.06456649e-01</_>
    <_>
      1.31368291e+00 9.51545000e-01 9.51545000e-01 1.29441583e+00
      6.98970020e-01 6.98970020e-01 1.33512294e+00 9.06456649e-01
      1.00216067e+00 1.17219615e+00 1.15051496e+00 1.30103004e+00</_>
    <_>
      1.29441583e+00 9.64709461e-01 9.64709461e-01 1.28410089e+00
      6.98970020e-01 6.98970020e-01 1.21162295e+00 1. 8.49484980e-01
      1.04845500e+00 1.08513081e+00 7.78151274e-01</_>
    <_>
      1.57993388e+00 1.25594163e+00 1.25594163e+00 1.56962466e+00
      9.56906915e-01 9.54242527e-01 1.55697167e+00 1.25527251e+00
      1.32660627e+00 1.36779940e+00 1.33185041e+00 1.14612806e+00</_>
    <_>
      1.26445830e+00 9.64709461e-01 9.64709461e-01 1.28410089e+00
      6.02060020e-01 6.98970020e-01 1.25594163e+00 9.03090000e-01
      9.16254461e-01 1.08659315e+00 1.13358581e+00 1.20748663e+00</_>
    <_>
      1.45181620e+00 1.06676948e+00 1.06676948e+00 1.44991028e+00
      7.78151274e-01 7.78151274e-01 1.36978614e+00 1.04139268e+00
      1.04139268e+00 1.26573944e+00 1.29329360e+00 1.14723313e+00</_>
    <_>
      1.37602425e+00 1.11522448e+00 1.11522448e+00 1.46006167e+00
      6.02060020e-01 6.02060020e-01 1.44493091e+00 1.00851667e+00
      1.19896996e+00 1.30103004e+00 1.30372751e+00 1.41784525e+00</_>
    <_>
      1.51387858e+00 1.14277864e+00 1.14277864e+00 1.47736239e+00
      7.78151274e-01 6.98970020e-01 1.47322619e+00 1.14612806e+00
      1.17705417e+00 1.33325899e+00 1.29939520e+00 1.14612806e+00</_>
    <_>
      1.48307085e+00 1.06676948e+00 1.06676948e+00 1.48977423e+00
      6.98970020e-01 6.98970020e-01 1.45154500e+00 1.11522448e+00
      1.20496655e+00 1.30639195e+00 1.33419299e+00 1.11522448e+00</_>
    <_>
      1.37755609e+00 1.04845500e+00 1.04845500e+00 1.33325899e+00
      7.07486689e-01 6.98970020e-01 1.40206969e+00 1.00851667e+00
      1.08068395e+00 1.21162295e+00 1.19369495e+00 1.34287083e+00</_>
    <_>
      1.63288045e+00 1.35800171e+00 1.35800171e+00 1.59558570e+00
      7.07486689e-01 6.98970020e-01 1.51387858e+00 1.04139268e+00
      1.34642351e+00 1.43016899e+00 1.32612312e+00 1.43166149e+00</_>
    <_>
      1.62883925e+00 1.38762307e+00 1.38762307e+00 1.64756358e+00
      1.00216067e+00 1.00216067e+00 1.48047304e+00 1.04317987e+00
      1.28817070e+00 1.42623997e+00 1.43607819e+00 1.32271111e+00</_>
    <_>
      1.31419444e+00 9.51545000e-01 9.51545000e-01 1.21887529e+00
      5.00000000e-01 5.00000000e-01 1.19369495e+00 9.06456649e-01
      1.07918119e+00 1.04845500e+00 9.34615850e-01 9.64709461e-01</_>
    <_>
      1.26445830e+00 9.51545000e-01 9.51545000e-01 1.36659861e+00
      6.15224481e-01 6.02060020e-01 1.31368291e+00 9.56906915e-01
      1.04845500e+00 1.15267563e+00 1.16922820e+00 9.06456649e-01</_>
    <_>
      1.48047304e+00 1.09794986e+00 1.09794986e+00 1.47025824e+00
      8.49484980e-01 7.84100890e-01 1.41910958e+00 1.14723313e+00
      1.17705417e+00 1.23269141e+00 1.27815127e+00 1.17609131e+00</_>
    <_>
      1.30372751e+00 9.74695027e-01 9.74695027e-01 1.36659861e+00
      6.02060020e-01 6.98970020e-01 1.31824398e+00 1.04139268e+00
      1.04845500e+00 1.12763619e+00 1.19896996e+00 9.03090000e-01</_>
    <_>
      1.38357794e+00 1.11522448e+00 1.11522448e+00 1.41400754e+00
      6.98970020e-01 7.84100890e-01 1.41625440e+00 9.06456649e-01
      1.17705417e+00 1.31214106e+00 1.28114641e+00 1.36172783e+00</_>
    <_>
      1.21887529e+00 8.58001649e-01 8.58001649e-01 1.21887529e+00
      6.15224481e-01 6.02060020e-01 1.19369495e+00 8.45098019e-01
      8.49484980e-01 1.04845500e+00 1.06836033e+00 1.08068395e+00</_>
    <_>
      1.37486815e+00 1.04845500e+00 1.04845500e+00 1.33325899e+00
      6.98970020e-01 6.98970020e-01 1.39266491e+00 9.06456649e-01
      1.08068395e+00 1.24777222e+00 1.26573944e+00 1.39794004e+00</_>
    <_>
      1.67091501e+00 1.42866623e+00 1.42866623e+00 1.64745343e+00
      1.00216067e+00 1. 1.52246583e+00 1.07918119e+00 1.38171399e+00
      1.43016899e+00 1.39266491e+00 1.41529429e+00</_>
    <_>
      1.35164571e+00 1.04845500e+00 1.04845500e+00 1.34948504e+00
      6.02060020e-01 6.02060020e-01 1.23564589e+00 1.04139268e+00
      1.08513081e+00 1.01871324e+00 1.04845500e+00 9.06456649e-01</_>
    <_>
      1.41910958e+00 1.10742188e+00 1.10742188e+00 1.37755609e+00
      7.84100890e-01 7.84100890e-01 1.46470952e+00 1.08513081e+00
      1.10205996e+00 1.29774809e+00 1.25594163e+00 1.41625440e+00</_>
    <_>
      1.66337264e+00 1.28817070e+00 1.28817070e+00 1.65105724e+00
      7.07486689e-01 6.98970020e-01 1.54264534e+00 1.17991769e+00
      1.33419299e+00 1.46265602e+00 1.44743478e+00 1.43136382e+00</_>
    <_>
      1.39897978e+00 1.06676948e+00 1.06676948e+00 1.36659861e+00
      6.98970020e-01 6.98970020e-01 1.35800171e+00 1.00216067e+00
      1.08513081e+00 1.18367791e+00 1.17609131e+00 1.27935433e+00</_>
    <_>
      1.67170429e+00 1.31824398e+00 1.31824398e+00 1.65105724e+00
      7.07486689e-01 7.07486689e-01 1.53995228e+00 1.23044896e+00
      1.33925915e+00 1.46342838e+00 1.43166149e+00 1.41497338e+00</_>
    <_>
      1.63765574e+00 1.34642351e+00 1.34642351e+00 1.59836435e+00
      8.49484980e-01 7.84100890e-01 1.50536191e+00 1.08068395e+00
      1.32271111e+00 1.43461585e+00 1.32612312e+00 1.43136382e+00</_>
    <_>
      1.34948504e+00 1.03409290e+00 1.03409290e+00 1.30372751e+00
      4.77121264e-01 4.77121264e-01 1.34287083e+00 9.03090000e-01
      1.08513081e+00 1.22123992e+00 1.17609131e+00 1.32221925e+00</_>
    <_>
      1.46470952e+00 1.19896996e+00 1.19896996e+00 1.60861027e+00
      7.31199026e-01 7.07486689e-01 1.54317987e+00 1.15587687e+00
      1.34509802e+00 1.35841882e+00 1.44296312e+00 1.56045139e+00</_>
    <_>
      1.47025824e+00 1.06676948e+00 1.06676948e+00 1.44380867e+00
      6.98970020e-01 6.98970020e-01 1.44069231e+00 1.08068395e+00
      1.14723313e+00 1.30639195e+00 1.28817070e+00 1.14723313e+00</_>
    <_>
      1.55445158e+00 1.15903163e+00 1.15903163e+00 1.50194561e+00
      9.06456649e-01 9.03090000e-01 1.47322619e+00 1.17705417e+00
      1.11522448e+00 1.33419299e+00 1.31974328e+00 1.11522448e+00</_>
    <_>
      1.38320637e+00 1.06676948e+00 1.06676948e+00 1.43016899e+00
      6.15224481e-01 6.02060020e-01 1.44991028e+00 9.56906915e-01
      1.11902308e+00 1.32756925e+00 1.36978614e+00 1.50536191e+00</_>
    <_>
      1.48977423e+00 1.09794986e+00 1.09794986e+00 1.47025824e+00
      7.78151274e-01 6.98970020e-01 1.45208716e+00 1.11522448e+00
      1.17705417e+00 1.29441583e+00 1.31974328e+00 1.25594163e+00</_>
    <_>
      1.49226367e+00 1.12763619e+00 1.12763619e+00 1.47736239e+00
      8.49484980e-01 7.78151274e-01 1.41910958e+00 1.11394334e+00
      1.20496655e+00 1.26445830e+00 1.27815127e+00 1.20412004e+00</_>
    <_>
      1.47025824e+00 1.06676948e+00 1.06676948e+00 1.49226367e+00
      7.78151274e-01 8.45098019e-01 1.43166149e+00 1.11522448e+00
      1.11394334e+00 1.30954671e+00 1.30157220e+00 1.11522448e+00</_>
    <_>
      1.53995228e+00 1.21887529e+00 1.21887529e+00 1.50451291e+00
      9.06456649e-01 9.06456649e-01 1.50366044e+00 1.17991769e+00
      1.25594163e+00 1.32271111e+00 1.31214106e+00 1.20748663e+00</_>
    <_>
      1.30639195e+00 9.64709461e-01 9.64709461e-01 1.30372751e+00
      6.98970020e-01 6.98970020e-01 1.28410089e+00 9.54242527e-01
      1.05697167e+00 1.08068395e+00 1.12763619e+00 9.06456649e-01</_>
    <_>
      1.32612312e+00 9.64709461e-01 9.64709461e-01 1.25594163e+00
      6.98970020e-01 7.07486689e-01 1.31368291e+00 9.54242527e-01
      9.77121234e-01 1.12883925e+00 1.06676948e+00 1.14723313e+00</_>
    <_>
      1.63063145e+00 1.32418001e+00 1.32418001e+00 1.61700547e+00
      9.06456649e-01 8.49484980e-01 1.48400784e+00 1.07918119e+00
      1.36336362e+00 1.38652730e+00 1.36336362e+00 1.23119903e+00</_>
    <_>
      1.35841882e+00 1.01265287e+00 1.01265287e+00 1.31419444e+00
      6.02060020e-01 4.77121264e-01 1.38394880e+00 8.49484980e-01
      1.04845500e+00 1.26573944e+00 1.28114641e+00 1.44715798e+00</_>
    <_>
      1.43461585e+00 1.04845500e+00 1.04845500e+00 1.42192769e+00
      7.07486689e-01 7.84100890e-01 1.39373028e+00 1.11522448e+00
      1.11522448e+00 1.24214995e+00 1.25594163e+00 1.07918119e+00</_>
    <_>
      1.62201476e+00 1.34642351e+00 1.34642351e+00 1.64176369e+00
      9.03090000e-01 9.56906915e-01 1.47712123e+00 1.07918119e+00
      1.32418001e+00 1.39337575e+00 1.43868566e+00 1.30319071e+00</_>
    <_>
      1.65492153e+00 1.40845191e+00 1.40845191e+00 1.66852987e+00
      8.45098019e-01 8.49484980e-01 1.47712123e+00 1.08068395e+00
      1.35800171e+00 1.41010070e+00 1.50851667e+00 1.30586171e+00</_>
    <_>
      1.68020201e+00 1.31824398e+00 1.31824398e+00 1.64255357e+00
      8.45098019e-01 9.03090000e-01 1.57751608e+00 1.20496655e+00
      1.36539114e+00 1.47469497e+00 1.44548976e+00 1.41497338e+00</_>
    <_>
      1.31368291e+00 1.03409290e+00 1.03409290e+00 1.35841882e+00
      7.07486689e-01 6.98970020e-01 1.35883522e+00 9.56906915e-01
      1.11902308e+00 1.19369495e+00 1.19896996e+00 1.27935433e+00</_>
    <_>
      1.32418001e+00 9.74695027e-01 9.74695027e-01 1.24846482e+00
      7.07486689e-01 7.78151274e-01 1.34107256e+00 1.00216067e+00
      9.16254461e-01 1.19896996e+00 1.10475755e+00 1.09234571e+00</_>
    <_>
      1.24214995e+00 9.06456649e-01 9.06456649e-01 1.31419444e+00
      4.77121264e-01 4.77121264e-01 1.27572501e+00 9.03090000e-01
      9.64709461e-01 1.10742188e+00 1.11522448e+00 1.07918119e+00</_>
    <_>
      1.52653921e+00 1.16922820e+00 1.16922820e+00 1.49671817e+00
      8.49484980e-01 8.45098019e-01 1.47322619e+00 1.14612806e+00
      1.17991769e+00 1.33325899e+00 1.32612312e+00 1.17609131e+00</_>
    <_>
      1.43461585e+00 1.08217645e+00 1.08217645e+00 1.36939025e+00
      7.84100890e-01 7.84100890e-01 1.42986929e+00 1.12521005e+00
      1.04845500e+00 1.24846482e+00 1.17219615e+00 1.32660627e+00</_>
    <_>
      1.50851667e+00 1.12763619e+00 1.12763619e+00 1.50851667e+00
      8.49484980e-01 8.45098019e-01 1.45208716e+00 1.14612806e+00
      1.17705417e+00 1.30639195e+00 1.31419444e+00 1.17609131e+00</_>
    <_>
      1.47736239e+00 1.09794986e+00 1.09794986e+00 1.40845191e+00
      6.02060020e-01 7.07486689e-01 1.49472487e+00 1.04845500e+00
      1.14612806e+00 1.34642351e+00 1.25052965e+00 1.43166149e+00</_>
    <_>
      1.48307085e+00 1.06676948e+00 1.06676948e+00 1.46470952e+00
      7.84100890e-01 7.78151274e-01 1.42986929e+00 1.08068395e+00
      1.11902308e+00 1.29939520e+00 1.30954671e+00 1.23119903e+00</_>
    <_>
      1.43461585e+00 1.09794986e+00 1.09794986e+00 1.50387394e+00
      8.49484980e-01 7.84100890e-01 1.26573944e+00 9.54242527e-01
      1.11902308e+00 1.11394334e+00 1.40342903e+00 1.17705417e+00</_>
    <_>
      1.68020201e+00 1.33512294e+00 1.33512294e+00 1.65105724e+00
      9.06456649e-01 9.03090000e-01 1.59558570e+00 1.25793695e+00
      1.36819828e+00 1.48307085e+00 1.43868566e+00 1.38021123e+00</_>
    <_>
      1.52010334e+00 1.16922820e+00 1.16922820e+00 1.50387394e+00
      8.45098019e-01 8.45098019e-01 1.46342838e+00 1.14612806e+00
      1.17705417e+00 1.31419444e+00 1.30639195e+00 1.17609131e+00</_>
    <_>
      1.30639195e+00 9.51545000e-01 9.51545000e-01 1.29441583e+00
      7.07486689e-01 6.98970020e-01 1.21487617e+00 1. 1.00216067e+00
      1.01871324e+00 1.01265287e+00 9.06456649e-01</_>
    <_>
      1.30372751e+00 1.01265287e+00 1.01265287e+00 1.33185041e+00
      6.02060020e-01 6.98970020e-01 1.31368291e+00 9.56906915e-01
      1.04845500e+00 1.15267563e+00 1.18367791e+00 1.23119903e+00</_>
    <_>
      1.66882944e+00 1.30103004e+00 1.30103004e+00 1.65105724e+00
      5.00000000e-01 5.00000000e-01 1.53409290e+00 1.11902308e+00
      1.33419299e+00 1.49494731e+00 1.41625440e+00 1.36213791e+00</_>
    <_>
      1.26381493e+00 9.06456649e-01 9.06456649e-01 1.34107256e+00
      6.98970020e-01 6.98970020e-01 1.25052965e+00 9.56906915e-01
      9.56906915e-01 1.11394334e+00 1.13358581e+00 8.45098019e-01</_>
    <_>
      1.43016899e+00 1.06676948e+00 1.06676948e+00 1.33325899e+00
      6.98970020e-01 6.15224481e-01 1.43166149e+00 1.11902308e+00
      1.08068395e+00 1.23044896e+00 1.17219615e+00 1.25793695e+00</_>
    <_>
      1.37486815e+00 1.09794986e+00 1.09794986e+00 1.48977423e+00
      6.15224481e-01 6.02060020e-01 1.41400754e+00 1.04317987e+00
      1.21162295e+00 1.24777222e+00 1.31368291e+00 1.41529429e+00</_>
    <_>
      1.26953804e+00 9.16254461e-01 9.16254461e-01 1.24214995e+00
      6.02060020e-01 6.15224481e-01 1.26445830e+00 9.16254461e-01
      9.16254461e-01 1.08217645e+00 1.08068395e+00 1.15051496e+00</_>
    <_>
      1.62386394e+00 1.30639195e+00 1.30639195e+00 1.58644736e+00
      6.98970020e-01 7.07486689e-01 1.51387858e+00 1.11522448e+00
      1.34287083e+00 1.43461585e+00 1.33419299e+00 1.41497338e+00</_>
    <_>
      1.64986253e+00 1.40206969e+00 1.40206969e+00 1.65788019e+00
      9.56906915e-01 9.56906915e-01 1.50536191e+00 1.14723313e+00
      1.38357794e+00 1.39337575e+00 1.43016899e+00 1.27935433e+00</_>
    <_>
      1.50851667e+00 1.12763619e+00 1.12763619e+00 1.48307085e+00
      7.78151274e-01 7.84100890e-01 1.44069231e+00 1.08068395e+00
      1.20496655e+00 1.30639195e+00 1.34509802e+00 1.30103004e+00</_>
    <_>
      1.39932537e+00 1.02653921e+00 1.02653921e+00 1.36939025e+00
      6.02060020e-01 7.07486689e-01 1.39373028e+00 1.08068395e+00
      1.08068395e+00 1.23269141e+00 1.23044896e+00 9.54242527e-01</_>
    <_>
      1.33925915e+00 1.02653921e+00 1.02653921e+00 1.47469497e+00
      9.06456649e-01 8.01029980e-01 1.43255198e+00 1.18460798e+00
      1.04845500e+00 1.11394334e+00 1.30954671e+00 1.27141273e+00</_>
    <_>
      1.51590610e+00 1.24777222e+00 1.24777222e+00 1.60596049e+00
      1.04139268e+00 1.09234571e+00 1.36213791e+00 1.14390087e+00
      1.21887529e+00 1.06676948e+00 1.37175488e+00 1.24846482e+00</_>
    <_>
      1.49671817e+00 1.11522448e+00 1.11522448e+00 1.44380867e+00
      6.15224481e-01 6.98970020e-01 1.43166149e+00 1.04317987e+00
      1.20496655e+00 1.31974328e+00 1.29329360e+00 1.23044896e+00</_>
    <_>
      1.44380867e+00 1.11394334e+00 1.11394334e+00 1.44548976e+00
      6.02060020e-01 6.15224481e-01 1.43166149e+00 1.11902308e+00
      1.11522448e+00 1.28817070e+00 1.29497480e+00 9.16254461e-01</_>
    <_>
      1.68460798e+00 1.30639195e+00 1.30639195e+00 1.65587687e+00
      8.49484980e-01 9.03090000e-01 1.59333694e+00 1.25594163e+00
      1.38616085e+00 1.48563790e+00 1.44183075e+00 1.36213791e+00</_>
    <_>
      1.49671817e+00 1.09794986e+00 1.09794986e+00 1.45717156e+00
      6.15224481e-01 6.02060020e-01 1.45208716e+00 1.08068395e+00
      1.20496655e+00 1.32612312e+00 1.27815127e+00 1.20412004e+00</_>
    <_>
      1.46470952e+00 1.09794986e+00 1.09794986e+00 1.44991028e+00
      8.49484980e-01 8.45098019e-01 1.39514256e+00 1.11394334e+00
      1.11394334e+00 1.23269141e+00 1.26445830e+00 1.17609131e+00</_>
    <_>
      1.65267563e+00 1.35548151e+00 1.35548151e+00 1.66316795e+00
      9.56906915e-01 9.56906915e-01 1.52634692e+00 1.11522448e+00
      1.32660627e+00 1.43016899e+00 1.47469497e+00 1.34287083e+00</_>
    <_>
      1.38320637e+00 1.02653921e+00 1.02653921e+00 1.33325899e+00
      4.77121264e-01 4.77121264e-01 1.37292755e+00 1.00216067e+00
      1.00851667e+00 1.26573944e+00 1.19896996e+00 1.08068395e+00</_>
    <_>
      1.56962466e+00 1.26953804e+00 1.26953804e+00 1.54264534e+00
      9.56906915e-01 9.54242527e-01 1.56484497e+00 1.25527251e+00
      1.28410089e+00 1.35800171e+00 1.35800171e+00 1.41497338e+00</_>
    <_>
      1.40845191e+00 1.11394334e+00 1.11394334e+00 1.52557623e+00
      7.78151274e-01 7.78151274e-01 1.23119903e+00 1.00216067e+00
      1.11522448e+00 1.09234571e+00 1.38943720e+00 1.14723313e+00</_>
    <_>
      1.67170429e+00 1.31824398e+00 1.31824398e+00 1.65944886e+00
      7.84100890e-01 8.49484980e-01 1.52940273e+00 1.20412004e+00
      1.31974328e+00 1.44963658e+00 1.46470952e+00 1.38058794e+00</_>
    <_>
      1.48047304e+00 1.09794986e+00 1.09794986e+00 1.48470795e+00
      7.78151274e-01 6.98970020e-01 1.41784525e+00 1.07918119e+00
      1.20412004e+00 1.28585446e+00 1.31419444e+00 1.23119903e+00</_>
    <_>
      1.48377395e+00 1.15267563e+00 1.15267563e+00 1.50387394e+00
      7.78151274e-01 8.45098019e-01 1.50216067e+00 1.04317987e+00
      1.21728444e+00 1.35800171e+00 1.35463500e+00 1.51871324e+00</_>
    <_>
      1.79057646e+00 1.39794004e+00 1.39794004e+00 1.79691982e+00
      1.17609131e+00 1.14723313e+00 1.78114641e+00 1.54406810e+00
      1.48094773e+00 1.50536191e+00 1.55697167e+00 1.51931012e+00</_>
    <_>
      1.53667581e+00 1.15587687e+00 1.15587687e+00 1.53316295e+00
      9.06456649e-01 8.45098019e-01 1.40645671e+00 1.20412004e+00
      1.23044896e+00 1.23710811e+00 1.26573944e+00 1.14612806e+00</_>
    <_>
      1.79597723e+00 1.41173708e+00 1.41173708e+00 1.68497884e+00
      1.06836033e+00 1.01871324e+00 1.80345929e+00 1.46032250e+00
      1.50216067e+00 1.61700547e+00 1.39266491e+00 1.59725714e+00</_>
    <_>
      1.45208716e+00 1.09234571e+00 1.09234571e+00 1.47025824e+00
      7.07486689e-01 7.07486689e-01 1.35463500e+00 1.04139268e+00
      1.23044896e+00 1.22435319e+00 1.27815127e+00 1.23119903e+00</_>
    <_>
      1.32418001e+00 9.74695027e-01 9.74695027e-01 1.30372751e+00
      3.01030010e-01 5.00000000e-01 1.27572501e+00 9.56906915e-01
      1.11522448e+00 1.05697167e+00 1.08068395e+00 1.17705417e+00</_>
    <_>
      1.32271111e+00 1.03409290e+00 1.03409290e+00 1.51121414e+00
      8.49484980e-01 8.45098019e-01 1.38943720e+00 1.04139268e+00
      1.05697167e+00 1.14390087e+00 1.32418001e+00 1.36539114e+00</_>
    <_>
      1.75480282e+00 1.37292755e+00 1.37292755e+00 1.73343384e+00
      1.04317987e+00 1.04317987e+00 1.74406374e+00 1.49158752e+00
      1.46649039e+00 1.48863316e+00 1.53667581e+00 1.50536191e+00</_>
    <_>
      1.62337232e+00 1.28817070e+00 1.28817070e+00 1.65903163e+00
      1.00216067e+00 1.04317987e+00 1.50280476e+00 1.17609131e+00
      1.36213791e+00 1.36939025e+00 1.43461585e+00 1.30103004e+00</_>
    <_>
      1.38320637e+00 1. 1. 1.34948504e+00 6.02060020e-01 6.98970020e-01
      1.37486815e+00 1.00216067e+00 1.09234571e+00 1.17219615e+00
      1.19369495e+00 1.30103004e+00</_>
    <_>
      1.68199396e+00 1.29664302e+00 1.29664302e+00 1.65619445e+00
      9.06456649e-01 9.06456649e-01 1.62979698e+00 1.15051496e+00
      1.27141273e+00 1.53995228e+00 1.43461585e+00 1.55630255e+00</_>
    <_>
      1.70113075e+00 1.35164571e+00 1.35164571e+00 1.67858613e+00
      9.06456649e-01 9.03090000e-01 1.57568491e+00 1.32221925e+00
      1.42285895e+00 1.40309000e+00 1.34509802e+00 1.39794004e+00</_>
    <_>
      1.74462759e+00 1.35800171e+00 1.35800171e+00 1.64723313e+00
      1.04139268e+00 1.04139268e+00 1.81214106e+00 1.38171399e+00
      1.38616085e+00 1.64277864e+00 1.62775683e+00 1.78538823e+00</_>
    <_>
      1.50788939e+00 1.15587687e+00 1.15587687e+00 1.49226367e+00
      7.07486689e-01 7.07486689e-01 1.44408977e+00 1.11394334e+00
      1.27935433e+00 1.28410089e+00 1.34107256e+00 1.34242272e+00</_>
    <_>
      1.85484695e+00 1.47248793e+00 1.47248793e+00 1.81495953e+00
      1.11522448e+00 1.08068395e+00 1.86587489e+00 1.55647004e+00
      1.59234571e+00 1.65148997e+00 1.64931738e+00 1.69905686e+00</_>
    <_>
      1.41400754e+00 1. 1. 1.39266491e+00 7.78151274e-01 7.84100890e-01
      1.41625440e+00 1.04845500e+00 1.08068395e+00 1.21162295e+00
      1.19896996e+00 1.34287083e+00</_>
    <_>
      1.51590610e+00 1.16922820e+00 1.16922820e+00 1.47736239e+00
      7.84100890e-01 8.49484980e-01 1.44069231e+00 1.07918119e+00
      1.27935433e+00 1.31419444e+00 1.29441583e+00 1.27935433e+00</_>
    <_>
      1.33185041e+00 1.03409290e+00 1.03409290e+00 1.41400754e+00
      6.98970020e-01 6.98970020e-01 1.34107256e+00 1.00216067e+00
      1.04845500e+00 1.10742188e+00 1.23119903e+00 1.34287083e+00</_>
    <_>
      1.34152353e+00 1. 1. 1.32271111e+00 3.49485010e-01 5.00000000e-01
      1.30103004e+00 9.16254461e-01 1.11902308e+00 1.10742188e+00
      1.12883925e+00 1.23044896e+00</_>
    <_>
      1.67395759e+00 1.43607819e+00 1.43607819e+00 1.66367948e+00
      1.04139268e+00 1.04317987e+00 1.57751608e+00 1.11522448e+00
      1.41784525e+00 1.44408977e+00 1.43461585e+00 1.55647004e+00</_>
    <_>
      1.48400784e+00 1.14390087e+00 1.14390087e+00 1.51387858e+00
      9.06456649e-01 8.49484980e-01 1.34287083e+00 1.14723313e+00
      1.20496655e+00 1.12521005e+00 1.27815127e+00 1.17609131e+00</_>
    <_>
      1.23044896e+00 8.92664909e-01 8.92664909e-01 1.22123992e+00
      3.01030010e-01 4.77121264e-01 1.16922820e+00 7.78151274e-01
      1.00851667e+00 9.95613039e-01 1.02653921e+00 1.07918119e+00</_>
    <_>
      1.54828119e+00 1.19896996e+00 1.19896996e+00 1.52557623e+00
      7.78151274e-01 7.78151274e-01 1.57507110e+00 1.23343384e+00
      1.26122212e+00 1.35463500e+00 1.35548151e+00 1.49136174e+00</_>
    <_>
      1.25257504e+00 8.92664909e-01 8.92664909e-01 1.23564589e+00
      6.02060020e-01 6.02060020e-01 1.23044896e+00 8.49484980e-01
      9.06456649e-01 1.02653921e+00 1.02653921e+00 1.14723313e+00</_>
    <_>
      1.50851667e+00 1.14277864e+00 1.14277864e+00 1.47322619e+00
      6.98970020e-01 6.98970020e-01 1.53316295e+00 1.11902308e+00
      1.25594163e+00 1.35463500e+00 1.37755609e+00 1.51871324e+00</_>
    <_>
      1.60542667e+00 1.28410089e+00 1.28410089e+00 1.65051496e+00
      1.00851667e+00 9.54242527e-01 1.36819828e+00 1.23119903e+00
      1.28114641e+00 1.23044896e+00 1.47149980e+00 1.25594163e+00</_>
    <_>
      1.65756512e+00 1.31419444e+00 1.31419444e+00 1.65105724e+00
      8.49484980e-01 7.84100890e-01 1.56580937e+00 1.25527251e+00
      1.44743478e+00 1.42440236e+00 1.43607819e+00 1.43402815e+00</_>
    <_>
      1.20748663e+00 8.06391954e-01 8.06391954e-01 1.08659315e+00
      3.01030010e-01 3.01030010e-01 1.19896996e+00 8.49484980e-01
      9.03090000e-01 1. 8.06391954e-01 1.</_>
    <_>
      1.28410089e+00 9.34615850e-01 9.34615850e-01 1.28410089e+00
      4.77121264e-01 4.77121264e-01 1.23044896e+00 9.06456649e-01
      1.00851667e+00 9.95613039e-01 1.08068395e+00 1.17609131e+00</_>
    <_>
      1.48586977e+00 1.11394334e+00 1.11394334e+00 1.47736239e+00
      7.84100890e-01 7.78151274e-01 1.34107256e+00 1.08068395e+00
      1.23119903e+00 1.16316795e+00 1.22435319e+00 1.08068395e+00</_>
    <_>
      1.81904483e+00 1.42161644e+00 1.42161644e+00 1.76790011e+00
      1.07918119e+00 1.04139268e+00 1.87323928e+00 1.49136174e+00
      1.53813815e+00 1.68874419e+00 1.66490221e+00 1.83884907e+00</_>
    <_>
      1.61432850e+00 1.25052965e+00 1.25052965e+00 1.55445158e+00
      7.84100890e-01 7.78151274e-01 1.64176369e+00 1.23343384e+00
      1.34642351e+00 1.45370567e+00 1.46850801e+00 1.63346851e+00</_>
    <_>
      1.68497884e+00 1.43607819e+00 1.43607819e+00 1.66490221e+00
      1.08068395e+00 1.08068395e+00 1.57993388e+00 1.11394334e+00
      1.41625440e+00 1.45370567e+00 1.44408977e+00 1.55630255e+00</_>
    <_>
      1.70420480e+00 1.44380867e+00 1.44380867e+00 1.69055760e+00
      1.08068395e+00 1.08068395e+00 1.54880214e+00 1. 1.43255198e+00
      1.46006167e+00 1.45370567e+00 1.67219615e+00</_>
    <_>
      1.18367791e+00 8.06391954e-01 8.06391954e-01 1.16922820e+00
      3.01030010e-01 4.77121264e-01 1.13358581e+00 7.84100890e-01
      9.03090000e-01 9.34615850e-01 9.34615850e-01 1.04139268e+00</_>
    <_>
      1.92926860e+00 1.55697167e+00 1.55697167e+00 1.89373028e+00
      1.36172783e+00 1.34287083e+00 1.86815846e+00 1.55697167e+00
      1.56962466e+00 1.67676580e+00 1.66079926e+00 1.47712123e+00</_>
    <_>
      1.69696295e+00 1.33043277e+00 1.33043277e+00 1.72681201e+00
      9.06456649e-01 8.45098019e-01 1.75433218e+00 1.39794004e+00
      1.48094773e+00 1.55713868e+00 1.57383811e+00 1.65331972e+00</_>
    <_>
      1.50366044e+00 1.14390087e+00 1.14390087e+00 1.52010334e+00
      8.49484980e-01 8.45098019e-01 1.34107256e+00 1.14612806e+00
      1.25527251e+00 1.17991769e+00 1.31419444e+00 1.08068395e+00</_>
    <_>
      1.30372751e+00 9.34615850e-01 9.34615850e-01 1.29497480e+00
      6.02060020e-01 6.02060020e-01 1.28410089e+00 8.49484980e-01
      1.00851667e+00 1.10742188e+00 1.12883925e+00 1.25594163e+00</_>
    <_>
      1.48977423e+00 1.08659315e+00 1.08659315e+00 1.32271111e+00
      7.78151274e-01 7.84100890e-01 1.48863316e+00 1.08068395e+00
      1.14723313e+00 1.33043277e+00 1.23044896e+00 1.44826317e+00</_>
    <_>
      1.68865311e+00 1.43016899e+00 1.43016899e+00 1.65534663e+00
      9.56906915e-01 9.56906915e-01 1.51265287e+00 1.14612806e+00
      1.39932537e+00 1.38320637e+00 1.34948504e+00 1.30103004e+00</_>
    <_>
      1.42440236e+00 1.08068395e+00 1.08068395e+00 1.42192769e+00
      6.02060020e-01 6.98970020e-01 1.45690691e+00 1.04139268e+00
      1.15587687e+00 1.28351319e+00 1.26573944e+00 1.44743478e+00</_>
    <_>
      1.50788939e+00 1.18367791e+00 1.18367791e+00 1.47736239e+00
      7.78151274e-01 7.78151274e-01 1.44069231e+00 1.11394334e+00
      1.25527251e+00 1.31974328e+00 1.29939520e+00 1.27935433e+00</_>
    <_>
      1.35841882e+00 1.01265287e+00 1.01265287e+00 1.35883522e+00
      6.02060020e-01 6.02060020e-01 1.36213791e+00 1.00216067e+00
      1.04317987e+00 1.17609131e+00 1.15267563e+00 1.30157220e+00</_>
    <_>
      1.91832030e+00 1.53667581e+00 1.53667581e+00 1.89609075e+00
      1.25594163e+00 1.23044896e+00 1.91297257e+00 1.69019604e+00
      1.62630522e+00 1.64445984e+00 1.66882944e+00 1.38058794e+00</_>
    <_>
      1.33185041e+00 9.74695027e-01 9.74695027e-01 1.30372751e+00
      6.15224481e-01 6.02060020e-01 1.32418001e+00 9.56906915e-01
      1.00851667e+00 1.12883925e+00 1.10742188e+00 1.30157220e+00</_>
    <_>
      1.44743478e+00 1.15587687e+00 1.15587687e+00 1.60979223e+00
      8.45098019e-01 9.03090000e-01 1.42192769e+00 1.14723313e+00
      1.20748663e+00 1.17609131e+00 1.39266491e+00 1.39828718e+00</_>
    <_>
      1.76790011e+00 1.35800171e+00 1.35800171e+00 1.76790011e+00
      1.23044896e+00 1.20412004e+00 1.85484695e+00 1.51871324e+00
      1.44743478e+00 1.63533938e+00 1.63487315e+00 1.77091444e+00</_>
    <_>
      1.63063145e+00 1.39266491e+00 1.39266491e+00 1.63765574e+00
      9.54242527e-01 9.56906915e-01 1.46547449e+00 1.07918119e+00
      1.34420991e+00 1.32418001e+00 1.39932537e+00 1.44826317e+00</_>
    <_>
      1.23044896e+00 8.92664909e-01 8.92664909e-01 1.24286067e+00
      4.77121264e-01 6.02060020e-01 1.21887529e+00 8.45098019e-01
      9.56906915e-01 1.02653921e+00 1.05360496e+00 1.14612806e+00</_>
    <_>
      1.25257504e+00 9.06456649e-01 9.06456649e-01 1.27572501e+00
      6.98970020e-01 6.02060020e-01 1.26445830e+00 9.03090000e-01
      9.16254461e-01 1.05697167e+00 1.05360496e+00 1.20412004e+00</_>
    <_>
      1.63358581e+00 1.39897978e+00 1.39897978e+00 1.66316795e+00
      9.56906915e-01 9.56906915e-01 1.46547449e+00 1.11522448e+00
      1.38171399e+00 1.29497480e+00 1.42866623e+00 1.46265602e+00</_>
    <_>
      1.51590610e+00 1.18274403e+00 1.18274403e+00 1.50387394e+00
      7.84100890e-01 8.45098019e-01 1.43166149e+00 1.07918119e+00
      1.25594163e+00 1.28410089e+00 1.31368291e+00 1.34287083e+00</_>
    <_>
      1.53110290e+00 1.21728444e+00 1.21728444e+00 1.57213140e+00
      8.01029980e-01 8.01029980e-01 1.41784525e+00 1.11902308e+00
      1.28114641e+00 1.23269141e+00 1.36978614e+00 1.42005301e+00</_>
    <_>
      1.50788939e+00 1.15587687e+00 1.15587687e+00 1.46006167e+00
      8.49484980e-01 7.78151274e-01 1.36819828e+00 1.00216067e+00
      1.20496655e+00 1.21887529e+00 1.25257504e+00 1.23119903e+00</_>
    <_>
      1.60475755e+00 1.23564589e+00 1.23564589e+00 1.56962466e+00
      1.04139268e+00 1.04317987e+00 1.59049284e+00 1.25594163e+00
      1.23119903e+00 1.38171399e+00 1.38096392e+00 1.47712123e+00</_>
    <_>
      1.39897978e+00 1.03409290e+00 1.03409290e+00 1.37486815e+00
      7.78151274e-01 7.78151274e-01 1.38357794e+00 1.00216067e+00
      1.04317987e+00 1.19190764e+00 1.21162295e+00 1.36172783e+00</_>
    <_>
      1.14277864e+00 6.98970020e-01 6.98970020e-01 1.16922820e+00
      4.77121264e-01 3.01030010e-01 1.06676948e+00 6.98970020e-01
      8.49484980e-01 8.92664909e-01 9.34615850e-01 1.</_>
    <_>
      1.30639195e+00 1.01265287e+00 1.01265287e+00 1.29497480e+00
      6.02060020e-01 6.98970020e-01 1.23564589e+00 9.06456649e-01
      9.56906915e-01 1.03409290e+00 1.05697167e+00 1.17609131e+00</_>
    <_>
      1.40645671e+00 1.08659315e+00 1.08659315e+00 1.43607819e+00
      6.15224481e-01 6.98970020e-01 1.42161644e+00 1.04317987e+00
      1.15587687e+00 1.21487617e+00 1.26573944e+00 1.39828718e+00</_>
    <_>
      1.61927390e+00 1.31824398e+00 1.31824398e+00 1.62337232e+00
      1.04317987e+00 1.04845500e+00 1.51265287e+00 9.56906915e-01
      1.27875364e+00 1.41173708e+00 1.46006167e+00 1.49136174e+00</_>
    <_>
      1.44408977e+00 1.08217645e+00 1.08217645e+00 1.44991028e+00
      6.15224481e-01 6.15224481e-01 1.35548151e+00 1.11522448e+00
      1.23119903e+00 1.16316795e+00 1.25594163e+00 1.08068395e+00</_>
    <_>
      1.52557623e+00 1.16922820e+00 1.16922820e+00 1.50216067e+00
      7.78151274e-01 7.78151274e-01 1.56484497e+00 1.11522448e+00
      1.25793695e+00 1.40645671e+00 1.41173708e+00 1.57978356e+00</_>
    <_>
